svm_type c_svc
kernel_type rbf
gamma 0.125
nr_class 3
total_sv 52
rho 0.899313 0.787888 0.117225
label -1 0 1
nr_sv 12 20 20
SV
1.021552546018657 0 1:-0.02898 2:0.195434 3:0.957768 4:-0.021555 5:0.195913 6:0.959924 7:-0.014849 8:0.191841 9:0.957289 10:-0.021316 11:0.191841 12:0.955373 13:-0.029938 14:0.195194 15:0.960403 16:-0.024429 17:0.193757 18:0.968067 19:-0.017963 20:0.19256 21:0.968067 22:-0.022753 23:0.196631 24:0.969743 25:-0.024429 26:0.193039 27:0.964474 28:-0.020837 29:0.190165 30:0.958487 31:-0.020358 32:0.193757 33:0.962798 34:-0.022753 35:0.194236 36:0.965672 37:-0.022753 38:0.191602 39:0.9616 40:-0.021795 41:0.192799 42:0.963516 43:-0.022274 44:0.193757 45:0.959924 46:-0.019879 47:0.190165 48:0.953697 49:-0.020118 50:0.188728 51:0.95681 52:-0.024429 53:0.189446 54:0.956331 55:-0.026824 56:0.190404 57:0.952739 58:-0.021316 59:0.190404 60:0.959445 61:-0.017723 62:0.193278 63:0.964474 64:-0.017723 65:0.191362 66:0.961121 67:-0.020837 68:0.191602 69:0.95681 70:-0.021316 71:0.192081 72:0.955852 73:-0.019879 74:0.191841 75:0.952739 76:-0.020837 77:0.191123 78:0.950344 79:-0.025866 80:0.190404 81:0.957289 82:-0.026345 83:0.190165 84:0.963995 85:-0.027064 86:0.19232 87:0.963277 88:-0.027543 89:0.196392 90:0.958966 91:-0.021795 92:0.195673 93:0.958247 94:-0.019639 95:0.194476 96:0.954415 97:-0.023232 98:0.195194 99:0.955852 100:-0.020118 101:0.200224 102:0.962319 103:-0.01437 104:0.200463 105:0.958726 106:-0.015089 107:0.193997 108:0.95226 109:-0.022753 110:0.188728 111:0.957289 112:-0.025866 113:0.192081 114:0.964235 115:-0.019879 116:0.195913 117:0.961121 118:-0.015089 119:0.193039 120:0.949386 121:-0.016526 122:0.183938 123:0.943638 124:-0.022034 125:0.186093 126:0.948907 127:-0.025148 128:0.188009 129:0.951541 130:-0.020358 131:0.186572 132:0.941003 133:-0.016047 134:0.187291 135:0.934776 136:-0.021076 137:0.190644 138:0.943877 139:-0.028501 140:0.196152 141:0.969743 142:-0.025148 143:0.200703 144:0.981479 145:-0.017963 146:0.204774 147:0.970702 148:-0.012694 149:0.203577 
0.9501801800701162 0.7354055381635404 1:-0.011975 2:0.20214 3:0.970702 4:-0.013173 5:0.202619 6:0.980042 7:-0.023471 8:0.197829 9:0.970941 10:-0.024429 11:0.195673 12:0.956092 13:-0.01916 14:0.193518 15:0.950583 16:-0.017484 17:0.199026 18:0.963756 19:-0.022034 20:0.198787 21:0.960163 22:-0.018921 23:0.194715 24:0.958247 25:-0.015328 26:0.196152 27:0.949865 28:-0.02395 29:0.193518 30:0.96184 31:-0.029938 32:0.19232 33:0.936453 34:-0.022992 35:0.185614 36:0.931423 37:-0.024429 38:0.194476 39:0.946033 40:-0.02874 41:0.202858 42:0.969743 43:-0.021555 44:0.199026 45:0.956092 46:-0.017244 47:0.198308 48:0.94244 49:-0.020837 50:0.200942 51:0.964235 52:-0.0194 53:0.195194 54:0.969025 55:-0.040476 56:0.201661 57:0.980521 58:-0.064666 59:0.21627 60:0.981 61:-0.065384 62:0.223934 63:0.954415 64:-0.060594 65:0.231359 66:0.94723 67:-0.055804 68:0.24022 69:0.922083 70:-0.06275 71:0.256028 72:0.881846 73:-0.085502 74:0.263931 75:0.903401 76:-0.099154 77:0.256028 78:0.976449 79:-0.104183 80:0.254351 81:0.980521 82:-0.119272 83:0.252196 84:0.946033 85:-0.150407 86:0.262494 87:0.955134 88:-0.161424 89:0.268721 90:0.983635 91:-0.117595 92:0.248124 93:0.850232 94:-0.139151 95:0.287163 96:0.714195 97:-0.156874 98:0.284289 99:1.063868 100:-0.184177 101:0.292192 102:0.98603 103:-0.188009 104:0.252435 105:0.833467 106:-0.086221 107:0.304646 108:0.518282 109:-0.077599 110:0.310634 111:0.55325 112:-0.067779 113:0.337219 114:0.566662 115:-0.064666 116:0.369552 117:0.618394 118:-0.051732 119:0.376018 120:0.704615 121:-0.016765 122:0.365241 123:0.78868 124:0.063708 125:0.366198 126:0.941482 127:0.122865 128:0.4232 129:1.144101 130:0.154479 131:0.460323 132:1.299538 133:0.200703 134:0.403321 135:1.355342 136:0.247406 137:0.381527 138:1.410188 139:0.215791 140:0.359732 141:1.502156 142:0.147294 143:0.311353 144:1.563229 145:0.13963 146:0.23088 147:1.509102 148:0.19256 149:0.183938 
0.1840258003612036 0.1887392213105472 1:0.267763 2:0.177231 3:1.132844 4:0.294348 5:0.178908 6:1.005669 7:0.237586 8:0.170765 9:0.921843 10:0.121906 11:0.193518 12:0.861489 13:0.057959 14:0.219623 15:0.798739 16:0.063947 17:0.218905 18:0.708447 19:0.0479 20:0.215312 21:0.59612 22:0.020118 23:0.242376 24:0.501757 25:0.040476 26:0.268482 27:0.464634 28:0.077838 29:0.295785 30:0.483554 31:0.09149 32:0.324525 33:0.515648 34:0.095561 35:0.338177 36:0.606658 37:0.089574 38:0.34608 39:0.761616 40:0.055325 41:0.353984 42:0.897174 43:-0.011496 44:0.377216 45:1.003753 46:-0.071132 47:0.376737 48:1.02914 49:-0.103704 50:0.385359 51:0.974533 52:-0.113284 53:0.418889 54:0.973336 55:-0.12502 56:0.423439 57:1.079196 58:-0.151126 59:0.421763 60:1.180505 61:-0.058438 62:0.373384 63:1.434617 64:-0.109213 65:0.370989 66:1.605861 67:-0.221779 68:0.300096 69:1.498803 70:-0.288839 71:0.209085 72:1.220023 73:-0.296982 74:0.28357 75:1.04375 76:-0.215073 77:0.342488 78:0.997526 79:-0.113045 80:0.309197 81:0.97118 82:-0.072809 83:0.255549 84:0.965193 85:-0.107536 86:0.244771 87:0.918251 88:-0.130529 89:0.228006 90:0.827719 91:-0.128373 92:0.220102 93:0.741498 94:-0.117595 95:0.216989 96:0.662223 97:-0.096998 98:0.205972 99:0.608814 100:-0.079994 101:0.209325 102:0.613125 103:-0.074964 104:0.211959 105:0.648571 106:-0.083107 107:0.214354 108:0.651206 109:-0.091729 110:0.245011 111:0.633243 112:-0.108494 113:0.28357 114:0.678988 115:-0.107776 116:0.295066 117:0.806882 118:-0.074246 119:0.291713 120:0.934058 121:-0.012454 122:0.268242 123:1.041355 124:0.05772 125:0.237586 126:1.102907 127:0.09628 128:0.246208 129:1.112008 130:0.119511 131:0.263692 132:1.141466 133:0.159029 134:0.268961 135:1.223855 136:0.13939 137:0.267045 138:1.353905 139:0.038081 140:0.25962 141:1.463597 142:0.001198 143:0.222258 144:1.514371 145:0.074246 146:0.16837 147:1.420965 148:0.210522 149:0.179626 
0.4795595845872477 0.6003193661444637 1:0.342009 2:0.214833 3:1.031295 4:0.369791 5:0.215552 6:0.985311 7:0.270637 8:0.213875 9:0.955852 10:0.128373 11:0.202379 12:0.860531 13:0.042871 14:0.167172 15:0.677791 16:0.031135 17:0.152323 18:0.527144 19:0.056283 20:0.176992 21:0.481399 22:0.068498 23:0.204295 24:0.484752 25:0.050295 26:0.238304 27:0.47589 28:0.040715 29:0.268003 30:0.477327 31:0.038081 32:0.283331 33:0.501757 34:0.04814 35:0.298659 36:0.576481 37:0.044547 38:0.330992 39:0.712279 40:0.014849 41:0.356858 42:0.829156 43:-0.039757 44:0.362366 45:0.887594 46:-0.1152 47:0.364043 48:0.940045 49:-0.185614 50:0.388233 51:1.067221 52:-0.230401 53:0.428709 54:1.218347 55:-0.232796 56:0.435894 57:1.294987 58:-0.239262 59:0.416973 60:1.304567 61:-0.262734 62:0.439726 63:1.39438 64:-0.304886 65:0.437091 66:1.497127 67:-0.333626 68:0.362606 69:1.38025 70:-0.333626 71:0.321651 72:1.13021 73:-0.270398 74:0.335303 75:1.01956 76:-0.164059 77:0.349912 78:1.111768 79:-0.100112 80:0.324525 81:1.153681 82:-0.088855 83:0.266087 84:1.042073 85:-0.108015 86:0.239502 87:0.906275 88:-0.12502 89:0.225132 90:0.805924 91:-0.116398 92:0.213875 93:0.718266 94:-0.087418 95:0.208127 96:0.603784 97:-0.049337 98:0.202858 99:0.483075 100:-0.051014 101:0.212917 102:0.409788 103:-0.064905 104:0.236388 105:0.439965 106:-0.074246 107:0.260339 108:0.512774 109:-0.088616 110:0.286684 111:0.550376 112:-0.114721 113:0.321891 114:0.602587 115:-0.155916 116:0.333626 117:0.703657 118:-0.106818 119:0.309676 120:0.839215 121:0.004311 122:0.316861 123:0.989383 124:0.073288 125:0.376258 126:1.148891 127:0.087179 128:0.415057 129:1.267684 130:0.131008 131:0.43302 132:1.272234 133:0.224892 134:0.455054 135:1.268881 136:0.290276 137:0.455054 138:1.345522 139:0.260818 140:0.416015 141:1.423839 142:0.202619 143:0.319975 144:1.426713 145:0.134121 146:0.250759 147:1.305286 148:0.087179 149:0.246448 
0.6927324794001229 0.4065578462960287 1:0.11065 2:0.246448 3:1.108176 4:0.142264 5:0.228006 6:0.997765 7:0.117116 8:0.233993 9:0.888073 10:0.074246 11:0.242376 12:0.801613 13:0.044547 14:0.230161 15:0.705333 16:0.029219 17:0.216031 18:0.58199 19:0.016047 20:0.223455 21:0.491937 22:-0.001677 23:0.253872 24:0.470621 25:-0.012215 26:0.294108 27:0.488105 28:-0.017484 29:0.331231 30:0.491219 31:0.006706 32:0.357097 33:0.463436 34:0.037123 35:0.37985 36:0.457928 37:0.018442 38:0.424637 39:0.520438 40:-0.021316 41:0.462957 42:0.665815 43:-0.065624 44:0.456012 45:0.79347 46:-0.086939 47:0.437331 48:0.916095 49:-0.090771 50:0.431583 51:1.04854 52:-0.133642 53:0.465113 54:1.208048 55:-0.18753 56:0.449545 57:1.383363 58:-0.259141 59:0.433259 60:1.490421 61:-0.281175 62:0.410027 63:1.493534 64:-0.279978 65:0.370989 66:1.364682 67:-0.251238 68:0.344164 69:1.227687 70:-0.180345 71:0.341051 72:1.172602 73:-0.111129 74:0.340332 75:1.19272 76:-0.077599 77:0.312311 78:1.184337 79:-0.053888 80:0.274469 81:1.105781 82:-0.071851 83:0.243334 84:0.987706 85:-0.097477 86:0.213157 87:0.818857 88:-0.092927 89:0.200942 90:0.654798 91:-0.073767 92:0.205493 93:0.590372 94:-0.074246 95:0.21627 96:0.592049 97:-0.077838 98:0.213875 99:0.574326 100:-0.076162 101:0.210522 102:0.518522 103:-0.064426 104:0.227287 105:0.473735 106:-0.017484 107:0.252675 108:0.517085 109:0.032333 110:0.298419 111:0.635878 112:0.03832 113:0.35111 114:0.787003 115:0.035207 116:0.345841 117:0.898851 118:0.042871 119:0.322609 120:1.022913 121:0.08191 122:0.310634 123:1.221939 124:0.064666 125:0.333866 126:1.360371 127:0.035207 128:0.347517 129:1.38983 130:0.069935 131:0.380329 132:1.373544 133:0.168849 134:0.430864 135:1.363245 136:0.201661 137:0.404519 138:1.36588 139:0.199505 140:0.319496 141:1.330912 142:0.202379 143:0.251477 144:1.233435 145:0.208606 146:0.266805 147:1.091889 148:0.239741 149:0.281654 
0.803464910679616 0.7605478242745464 1:0.0673 2:0.157592 3:0.831311 4:0.012454 5:0.16837 6:0.656954 7:0.0194 8:0.191123 9:0.577918 10:0.046942 11:0.209325 12:0.516366 13:0.052211 14:0.227766 15:0.435894 16:0.063947 17:0.243094 18:0.404519 19:0.07209 20:0.293629 21:0.468466 22:0.063947 23:0.339614 24:0.595881 25:0.026345 26:0.394699 27:0.75994 28:-0.005988 29:0.417212 30:0.870829 31:-0.076641 32:0.429906 33:0.876817 34:-0.17771 35:0.45673 36:0.92352 37:-0.209085 38:0.494093 39:1.045666 40:-0.188488 41:0.510139 42:1.137634 43:-0.183459 44:0.508942 45:1.246368 46:-0.215791 47:0.51924 48:1.427671 49:-0.281654 50:0.516127 51:1.63484 52:-0.338177 53:0.439726 54:1.675556 55:-0.342488 56:0.347278 57:1.475811 58:-0.269919 59:0.313269 60:1.242536 61:-0.162861 62:0.308958 63:1.132365 64:-0.074006 65:0.296024 66:1.101949 67:-0.036883 68:0.266566 69:1.031774 70:-0.064905 71:0.237346 72:0.907233 73:-0.089574 74:0.204535 75:0.779339 76:-0.082149 77:0.175076 78:0.650966 79:-0.046463 80:0.155197 81:0.536484 82:0.00479 83:0.159508 84:0.474932 85:0.026106 86:0.189686 87:0.44715 88:0.01916 89:0.225132 90:0.448827 91:0.017005 92:0.239262 93:0.469184 94:0.031135 95:0.262015 96:0.51445 97:0.056762 98:0.31255 99:0.587019 100:0.083586 101:0.349912 102:0.674677 103:0.132445 104:0.341769 105:0.802092 106:0.193278 107:0.317101 108:0.99537 109:0.255309 110:0.331231 111:1.208287 112:0.297461 113:0.396615 114:1.327799 115:0.375779 116:0.395418 117:1.334984 118:0.423439 119:0.392783 120:1.313429 121:0.393741 122:0.393741 123:1.395099 124:0.273032 125:0.371468 126:1.517963 127:0.200224 128:0.286684 129:1.470782 130:0.21627 131:0.21627 132:1.273671 133:0.267284 134:0.193757 135:1.059557 136:0.320454 137:0.209564 138:0.905078 139:0.318298 140:0.220342 141:0.853106 142:0.209804 143:0.207648 144:0.819336 145:0.061313 146:0.188967 147:0.699106 148:-0.019639 149:0.183698 
0.7115552626809248 0.583926313373379 1:-0.036644 2:0.195913 3:0.4426 4:-0.024669 5:0.23064 6:0.406435 7:-0.001916 8:0.258183 9:0.396376 10:0.004072 11:0.271356 12:0.389909 13:-0.026824 14:0.282373 15:0.385838 16:-0.037841 17:0.317819 18:0.448108 19:-0.014849 20:0.358295 21:0.613844 22:-0.002395 23:0.396376 24:0.827958 25:0.010778 26:0.406914 27:1.034409 28:-0.017963 29:0.407153 30:1.167333 31:-0.081191 32:0.41841 33:1.277983 34:-0.127176 35:0.430625 36:1.388632 37:-0.173639 38:0.424637 39:1.463118 40:-0.233275 41:0.388712 42:1.479883 43:-0.218186 44:0.379132 45:1.523472 46:-0.196392 47:0.367396 48:1.529939 49:-0.21651 50:0.331231 51:1.395578 52:-0.200224 53:0.267524 54:1.176194 55:-0.163101 56:0.241897 57:0.97118 58:-0.11999 59:0.24022 60:0.885439 61:-0.031614 62:0.22106 63:0.87993 64:0.07233 65:0.20669 66:0.845921 67:0.088137 68:0.199266 69:0.820055 70:-0.013173 71:0.178189 72:0.837059 73:-0.111608 74:0.157592 75:0.869153 76:-0.113284 77:0.131726 78:0.815983 79:-0.055085 80:0.134121 81:0.66366 82:0.016526 83:0.153042 84:0.52403 85:0.039757 86:0.182021 87:0.464634 88:0.044547 89:0.220581 90:0.498164 91:0.063229 92:0.24549 93:0.581511 94:0.07209 95:0.275667 96:0.661983 97:0.076162 98:0.327399 99:0.762335 100:0.130289 101:0.359253 102:0.924238 103:0.215552 104:0.339614 105:1.100033 106:0.265129 107:0.323088 108:1.235591 109:0.285247 110:0.354942 111:1.386237 112:0.241418 113:0.364522 114:1.504312 115:0.108255 116:0.385598 117:1.535926 118:0.036165 119:0.403321 120:1.490181 121:0.061313 122:0.34129 123:1.425037 124:0.104183 125:0.268242 126:1.308639 127:0.160706 128:0.244292 129:1.082788 130:0.239981 131:0.262255 132:0.874422 133:0.299856 134:0.267284 135:0.808798 136:0.275667 137:0.248603 138:0.848795 139:0.185135 140:0.222018 141:0.819815 142:0.081191 143:0.19232 144:0.693119 145:0.009101 146:0.196152 147:0.522833 148:0.013891 149:0.227287 
0 0.1004693187608908 1:0.054606 2:0.301054 3:0.457928 4:0.039039 5:0.33674 6:0.473735 7:0.007904 8:0.357816 9:0.531215 10:-0.044547 11:0.373384 12:0.635638 13:-0.062989 14:0.391825 15:0.761856 16:-0.048619 17:0.406435 18:0.855501 19:-0.073527 20:0.4038 21:0.884002 22:-0.147294 23:0.402124 24:0.872985 25:-0.180584 26:0.414099 27:0.920167 28:-0.168849 29:0.422481 30:1.05333 31:-0.13484 32:0.412422 33:1.228406 34:-0.170046 35:0.410027 36:1.411625 37:-0.266087 38:0.414578 39:1.564187 40:-0.333147 41:0.340332 42:1.562271 43:-0.342488 44:0.280457 45:1.369472 46:-0.26441 47:0.296024 48:1.189367 49:-0.162861 50:0.319256 51:1.132126 52:-0.063468 53:0.297701 54:1.166854 55:0.000719 56:0.258902 57:1.123743 58:0.004072 59:0.243573 60:1.008543 61:-0.04814 62:0.22585 63:0.886397 64:-0.088376 65:0.190883 66:0.745809 67:-0.092927 68:0.162861 69:0.59636 70:-0.083107 71:0.159508 72:0.473495 73:-0.0673 74:0.182261 75:0.405716 76:-0.064426 77:0.231598 78:0.434457 79:-0.063229 80:0.268482 81:0.546304 82:-0.0673 83:0.286684 84:0.64426 85:-0.031135 86:0.291474 87:0.735032 88:0.029459 89:0.319017 90:0.785087 91:0.057959 92:0.35111 93:0.811672 94:0.051732 95:0.347278 96:0.883762 97:0.065624 98:0.328836 99:0.992496 100:0.071851 101:0.364282 102:1.045426 103:0.086939 104:0.388712 105:1.054048 106:0.192799 107:0.38009 108:1.134521 109:0.241178 110:0.430864 111:1.296185 112:0.11041 113:0.439007 114:1.533531 115:-0.044068 116:0.346799 117:1.582389 118:-0.040476 119:0.257944 120:1.419768 121:0.056522 122:0.269679 123:1.210203 124:0.218665 125:0.292432 126:1.068658 127:0.300096 128:0.283091 129:1.012375 130:0.270637 131:0.271116 132:0.983874 133:0.15855 134:0.256028 135:0.887355 136:0.048619 137:0.249082 138:0.706052 139:0.00479 140:0.240939 141:0.568099 142:-0.012215 143:0.244053 144:0.51469 145:-0.023711 146:0.25004 147:0.501038 148:-0.047182 149:0.267524 
0.4925505669170389 0 1:-0.066582 2:0.291953 3:0.503912 4:-0.051014 5:0.315903 6:0.551573 7:-0.017244 8:0.351589 9:0.632285 10:-0.016765 11:0.386077 12:0.728325 13:-0.031854 14:0.392544 15:0.802571 16:-0.079275 17:0.396376 18:0.854543 19:-0.132924 20:0.405956 21:0.921843 22:-0.176992 23:0.417931 24:1.00998 25:-0.176992 26:0.429188 27:1.137395 28:-0.156155 29:0.432062 30:1.219304 31:-0.171483 32:0.40883 33:1.248763 34:-0.21172 35:0.418649 36:1.311752 37:-0.251717 38:0.419368 39:1.426953 40:-0.307281 41:0.368115 42:1.48108 43:-0.321412 44:0.283331 45:1.335942 46:-0.291953 47:0.279499 48:1.169728 49:-0.210522 50:0.296743 51:1.14913 52:-0.160227 53:0.29315 54:1.237746 55:-0.153281 56:0.268961 57:1.228645 58:-0.141067 59:0.227287 60:1.096679 61:-0.132205 62:0.190165 63:0.883523 64:-0.121906 65:0.183698 66:0.718745 67:-0.085981 68:0.158071 69:0.591091 70:-0.069456 71:0.150886 72:0.474932 73:-0.013891 74:0.16358 75:0.421523 76:0.05748 77:0.188488 78:0.402603 79:0.073767 80:0.222976 81:0.438768 82:0.030896 83:0.256986 84:0.567141 85:-0.034488 86:0.282612 87:0.716829 88:-0.068019 89:0.290516 90:0.802092 91:-0.046942 92:0.294587 93:0.887115 94:0.029459 95:0.291953 96:1.022194 97:0.100112 98:0.313508 99:1.136676 100:0.133163 101:0.359253 102:1.117995 103:0.179387 104:0.352547 105:1.087339 106:0.258902 107:0.345841 108:1.219304 109:0.253154 110:0.358055 111:1.463118 112:0.108494 113:0.350631 114:1.547422 115:0.031854 116:0.274469 117:1.430306 118:0.097717 119:0.215552 120:1.226729 121:0.186812 122:0.222258 123:1.008543 124:0.233993 125:0.277822 126:0.806882 127:0.237107 128:0.301293 129:0.751797 130:0.135798 131:0.283331 132:0.823408 133:-0.02898 134:0.25507 135:0.82245 136:-0.123104 137:0.243334 138:0.74054 139:-0.147294 140:0.264171 141:0.669887 142:-0.116398 143:0.281415 144:0.651206 145:-0.06275 146:0.302491 147:0.630848 148:-0.028261 149:0.320693 
0.1121357772968156 0.3138781282994031 1:0.029219 2:0.30776 3:0.508463 4:0.0194 5:0.337937 6:0.60594 7:0.007904 8:0.370031 9:0.726888 10:-0.018921 11:0.38464 12:0.809996 13:-0.06275 14:0.3753 15:0.866039 16:-0.130289 17:0.382245 18:0.94723 19:-0.157832 20:0.387514 21:1.058599 22:-0.161185 23:0.393023 24:1.144819 25:-0.159987 26:0.399968 27:1.137634 28:-0.205493 29:0.476369 30:1.109134 31:-0.207169 32:0.549897 33:1.218586 34:-0.212678 35:0.541514 36:1.391506 37:-0.26465 38:0.458407 39:1.463597 40:-0.305125 41:0.373144 42:1.334984 43:-0.224892 44:0.3559 45:1.219304 46:-0.056762 47:0.349194 48:1.156794 49:-0.002156 50:0.338656 51:1.045666 52:-0.048858 53:0.296982 54:0.978845 55:-0.114961 56:0.257225 57:0.916095 58:-0.135798 59:0.242136 60:0.819336 61:-0.118793 62:0.223455 63:0.704136 64:-0.109931 65:0.21172 66:0.599952 67:-0.119032 68:0.207409 69:0.537442 70:-0.116158 71:0.22106 72:0.504631 73:-0.105141 74:0.222737 75:0.479243 76:-0.089095 77:0.238783 78:0.473495 79:-0.06251 80:0.27878 81:0.495051 82:-0.062031 83:0.342009 84:0.518761 85:-0.039997 86:0.368354 87:0.563069 88:0.032812 89:0.359492 90:0.690245 91:0.103704 92:0.336261 93:0.910347 94:0.068498 95:0.395178 96:1.101949 97:-0.018681 98:0.459844 99:1.18769 100:0.056762 101:0.427032 102:1.289718 103:0.17771 104:0.473256 105:1.566343 106:0.162143 107:0.457688 108:1.818538 109:0.027543 110:0.372426 111:1.761537 112:0.028261 113:0.291474 114:1.47174 115:0.125978 116:0.316382 117:1.197749 118:0.215073 119:0.35566 120:1.054048 121:0.222737 122:0.315903 123:1.078477 124:0.141546 125:0.2886 126:1.061473 127:0.100112 128:0.257944 129:0.907952 130:0.084544 131:0.223455 132:0.682102 133:0.058438 134:0.223216 135:0.482117 136:0.060354 137:0.232317 138:0.339374 139:0.074964 140:0.244532 141:0.265129 142:0.066821 143:0.281175 144:0.295306 145:0.034728 146:0.311353 147:0.386796 148:-0.008622 149:0.327399 
1.335058718626034 0.7390301669709857 1:-0.0194 2:0.353744 3:0.505828 4:-0.016526 5:0.383922 6:0.563548 7:-0.061073 8:0.409309 9:0.655277 10:-0.111129 11:0.424397 12:0.762335 13:-0.17316 14:0.435415 15:0.857896 16:-0.19735 17:0.431104 18:1.021715 19:-0.210283 20:0.44715 21:1.169488 22:-0.276146 23:0.489302 24:1.226969 25:-0.310155 26:0.550376 27:1.299538 28:-0.280696 29:0.56738 30:1.411864 31:-0.31255 32:0.514929 33:1.473895 34:-0.338895 35:0.424637 36:1.459764 37:-0.295306 38:0.395418 39:1.383603 40:-0.165735 41:0.381048 42:1.369712 43:-0.092448 44:0.341769 45:1.31295 46:-0.082149 47:0.283091 48:1.182182 49:-0.112566 50:0.250519 51:1.052851 52:-0.158311 53:0.223216 54:0.893342 55:-0.181782 56:0.202858 57:0.699346 58:-0.14442 59:0.176273 60:0.518761 61:-0.093166 62:0.175315 63:0.38967 64:-0.046703 65:0.204056 66:0.332189 67:-0.029459 68:0.228006 69:0.325962 70:-0.041913 71:0.243813 72:0.345362 73:-0.04311 74:0.257225 75:0.386556 76:-0.023471 77:0.291234 78:0.486189 79:-0.010059 80:0.334584 81:0.657193 82:0.00479 83:0.328118 84:0.789638 85:0.075204 86:0.299377 87:0.959924 88:0.142504 89:0.315903 90:1.160627 91:0.033291 92:0.412422 93:1.201821 94:-0.04335 95:0.435894 96:1.199905 97:0.022992 98:0.408351 99:1.335942 100:0.119272 101:0.448348 102:1.582629 103:0.036883 104:0.37027 105:1.752196 106:-0.119511 107:0.242136 108:1.736629 109:-0.117116 110:0.159987 111:1.451382 112:-0.008862 113:0.167412 114:1.113684 115:0.113524 116:0.203337 117:0.935495 118:0.184656 119:0.214594 120:0.910826 121:0.192799 122:0.209564 123:0.895498 124:0.117595 125:0.200942 126:0.814546 127:0.025866 128:0.188488 129:0.688568 130:-0.02419 131:0.190404 132:0.566662 133:-0.012215 134:0.214833 135:0.518522 136:0.040715 137:0.246208 138:0.516845 139:0.068258 140:0.27423 141:0.508942 142:0.070414 143:0.292911 144:0.492895 145:0.059875 146:0.315424 147:0.510139 148:0.022034 149:0.344883 
0.4872215191127021 0.6029253700384281 1:-0.008383 2:0.37027 3:0.710842 4:-0.026345 5:0.377934 6:0.848076 7:-0.078078 8:0.38967 9:0.969743 10:-0.116398 11:0.398052 12:1.032732 13:-0.133163 14:0.405237 15:1.045905 16:-0.138911 17:0.424637 18:1.068897 19:-0.149689 20:0.421284 21:1.109613 22:-0.189686 23:0.433499 24:1.192001 25:-0.210522 26:0.473495 27:1.420726 28:-0.234472 29:0.397573 30:1.6255 31:-0.333147 32:0.286444 33:1.544788 34:-0.369552 35:0.262734 36:1.270797 37:-0.293629 38:0.296503 39:1.103865 40:-0.182261 41:0.301293 42:1.056683 43:-0.108973 44:0.277822 45:1.046384 46:-0.117356 47:0.256028 48:1.029379 49:-0.166693 50:0.242376 51:0.948188 52:-0.161185 53:0.210522 54:0.80784 55:-0.135079 56:0.212199 57:0.67348 58:-0.102028 59:0.208606 60:0.578876 61:-0.091011 62:0.205732 63:0.527144 64:-0.088616 65:0.2213 66:0.544148 67:-0.057959 68:0.247645 69:0.597078 70:-0.019639 71:0.260099 72:0.645218 73:-0.001916 74:0.273272 75:0.655756 76:0.017005 77:0.330273 78:0.631088 79:0.024669 80:0.374102 81:0.649529 82:-0.004311 83:0.358055 84:0.754192 85:-0.012454 86:0.296503 87:0.861249 88:-0.01437 89:0.301054 90:0.929747 91:0.027782 92:0.330513 93:1.003753 94:0.110889 95:0.314227 96:1.075843 97:0.18777 98:0.329076 99:1.301693 100:0.141306 101:0.31734 102:1.636277 103:-0.053648 104:0.260578 105:1.72657 106:-0.143701 107:0.162861 108:1.602268 109:-0.059396 110:0.156874 111:1.434617 112:0.141785 113:0.179866 114:1.245171 115:0.325244 116:0.239023 117:1.095243 118:0.373144 119:0.242136 120:1.06267 121:0.201661 122:0.220102 123:0.96184 124:-0.010299 125:0.186333 126:0.73599 127:-0.076162 128:0.160466 129:0.560435 130:-0.062031 131:0.180105 132:0.45218 133:-0.028501 134:0.228964 135:0.40859 136:-0.003593 137:0.264889 138:0.435894 139:0.00479 140:0.286923 141:0.507026 142:-0.010778 143:0.305605 144:0.563309 145:-0.027064 146:0.331471 147:0.615041 148:-0.058199 149:0.350152 
-0.8753306493390068 0.4557466883366858 1:-0.044547 2:0.212438 3:0.74078 4:-0.065384 5:0.199026 6:0.660546 7:-0.136277 8:0.156395 9:0.473016 10:-0.262734 11:0.113284 12:0.343206 13:-0.318538 14:0.111847 15:0.46152 16:-0.289558 17:0.110889 18:0.683539 19:-0.212199 20:0.113524 21:0.753952 22:-0.087658 23:0.11065 24:0.661504 25:-0.063708 26:0.214354 27:0.583666 28:-0.129092 29:0.294108 30:0.825803 31:-0.061313 32:0.271835 33:1.268642 34:0.28357 35:0.331231 36:1.54838 37:0.354223 38:0.339135 39:1.598436 40:0.114003 41:0.195194 42:1.717708 43:-0.142743 44:0.093166 45:1.814946 46:-0.224174 47:0.054367 48:1.73615 49:-0.162382 50:0.047421 51:1.411625 52:-0.108973 53:0.073527 54:0.977886 55:-0.07688 56:0.113045 57:0.717308 58:0.058917 59:0.124302 60:0.617436 61:0.179626 62:0.153281 63:0.562111 64:0.141785 65:0.191602 66:0.570494 67:0.011257 68:0.195194 69:0.598515 70:-0.059157 71:0.152323 72:0.541753 73:-0.010778 74:0.11999 75:0.476848 76:0.102028 77:0.142504 78:0.513492 79:0.231598 80:0.184417 81:0.721859 82:0.282373 83:0.214115 84:0.963277 85:0.301772 86:0.159269 87:1.0962 88:0.344164 89:0.116158 90:1.121348 91:0.317101 92:0.310634 93:1.16853 94:0.21148 95:0.420565 96:1.291395 97:0.108015 98:0.341051 99:1.48587 100:0.037362 101:0.253872 102:1.623344 103:-0.042631 104:0.324286 105:1.573528 106:-0.017005 107:0.380569 108:1.383363 109:0.089813 110:0.330992 111:1.100751 112:0.069695 113:0.304646 114:0.852388 115:-0.022513 116:0.273032 117:0.725212 118:-0.103225 119:0.224174 120:0.600431 121:-0.108015 122:0.218665 123:0.525946 124:-0.059157 125:0.219384 126:0.513253 127:-0.115919 128:0.2019 129:0.498643 130:-0.209325 131:0.169328 132:0.48547 133:-0.256028 134:0.173399 135:0.538879 136:-0.221539 137:0.181542 138:0.662941 139:-0.13963 140:0.198547 141:0.761137 142:-0.09125 143:0.242615 144:0.761616 145:-0.130289 146:0.280696 147:0.787003 148:-0.116158 149:0.350152 
-0.22550957388756 0.6945623992264861 1:0.023471 2:0.464873 3:1.389111 4:0.079515 5:0.433738 6:1.624302 7:0.025866 8:0.330992 9:1.713157 10:-0.073048 11:0.24549 12:1.739982 13:-0.174118 14:0.209325 15:1.652563 16:-0.195673 17:0.18298 18:1.390069 19:-0.190404 20:0.148731 21:1.040636 22:-0.147054 23:0.13963 24:0.760419 25:-0.048379 26:0.125978 27:0.593246 28:0.054846 29:0.122865 30:0.544867 31:0.064426 32:0.140588 33:0.563548 34:-0.032572 35:0.177231 36:0.65384 37:0.005269 38:0.137235 39:0.669648 40:0.140109 41:0.099872 42:0.574326 43:0.261297 44:0.088855 45:0.578637 46:0.276146 47:0.114721 48:0.597797 49:0.181063 50:0.215073 51:0.733595 52:0.24022 53:0.263213 54:0.964235 55:0.383682 56:0.27878 57:1.101949 58:0.410746 59:0.48571 60:1.172123 61:0.297701 62:0.631327 63:1.253314 64:0.13005 65:0.496248 66:1.474853 67:-0.059875 68:0.338656 69:1.678669 70:-0.16358 71:0.38009 72:1.601071 73:-0.089095 74:0.422002 75:1.215951 76:0.015328 77:0.421044 78:0.76928 79:0.056522 80:0.396615 81:0.536245 82:-0.00024 83:0.358774 84:0.525946 85:-0.108973 86:0.329076 87:0.531455 88:-0.211959 89:0.303928 90:0.512055 91:-0.310874 92:0.286444 93:0.513732 94:-0.378653 95:0.237346 96:0.53385 97:-0.401166 98:0.197589 99:0.530018 100:-0.370031 101:0.218905 102:0.520677 103:-0.311592 104:0.269919 105:0.569057 106:-0.29818 107:0.27399 108:0.712997 109:-0.30273 110:0.253154 111:0.78389 112:-0.17771 113:0.287642 114:0.871069 115:0.046703 116:0.407393 117:1.078956 118:0.143222 119:0.561632 120:1.491379 121:-0.030896 122:0.469424 123:1.962479 124:-0.284049 125:0.224413 126:2.11097 127:-0.409788 128:0.045505 129:1.948348 130:-0.388472 131:-0.001437 132:1.624781 133:-0.220581 134:0.029698 135:1.209245 136:-0.09149 137:0.08167 138:0.795865 139:-0.074964 140:0.158071 141:0.576481 142:-0.188488 143:0.187291 144:0.610251 145:-0.302251 146:0.07209 147:0.713716 148:-0.33171 149:-0.034249 
-0.3181899203363955 0.6995119436219183 1:-0.266087 2:0.029698 3:0.683778 4:-0.011257 5:0.147773 6:0.657193 7:0.294827 8:0.176752 9:0.733355 10:0.374102 11:0.134361 12:0.704615 13:0.199745 14:0.112566 15:0.639231 16:0.156395 17:0.10107 18:0.60115 19:0.277104 20:0.099872 21:0.666534 22:0.244053 23:0.2886 24:0.944596 25:0.190404 26:0.30273 27:1.386477 28:0.065863 29:0.050056 30:1.786924 31:0.02395 32:-0.099154 33:1.887276 34:-0.099393 35:-0.069695 36:1.814706 37:-0.244292 38:0.159748 39:1.551973 40:-0.18753 41:0.230401 42:1.15416 43:-0.18777 44:0.282852 45:0.806882 46:-0.249082 47:0.337219 48:0.369791 49:-0.205732 50:0.247645 51:0.261776 52:-0.231119 53:0.202619 54:0.421044 55:-0.366677 56:0.178668 57:0.459365 58:-0.497446 59:0.179866 60:0.655517 61:-0.450264 62:0.169328 63:0.910586 64:-0.333626 65:0.136277 66:0.926873 67:-0.292432 68:0.044787 69:0.708686 70:-0.38464 71:-0.003593 72:0.445234 73:-0.512295 74:0.079036 75:0.290276 76:-0.367875 77:0.198547 78:0.624142 79:0.013412 80:0.266566 81:1.333307 82:0.095801 83:0.256267 84:1.611369 85:0.007664 86:0.133403 87:1.397733 88:0.045984 89:0.100351 90:1.175236 91:0.082628 92:0.161903 93:1.381447 94:-0.068977 95:0.134361 96:1.773751 97:-0.24525 98:0.07688 99:1.782134 100:-0.276864 101:0.018442 102:1.372586 103:-0.128852 104:-0.039039 105:0.823168 106:0.047182 107:0.081431 108:0.454575 109:0.065863 110:0.261776 111:0.427511 112:-0.075443 113:0.23064 114:0.962798 115:-0.218665 116:0.131008 117:1.076561 118:-0.165256 119:0.027064 120:0.786764 121:-0.084544 122:0.008622 123:0.645937 124:-0.053169 125:-0.002156 126:0.671803 127:-0.035446 128:0.007425 129:0.827479 130:0.004311 131:0.112326 132:0.927831 133:0.119032 134:0.14897 135:0.777423 136:0.241418 137:0.324046 138:0.706291 139:0.313748 140:0.562111 141:1.013333 142:0.002635 143:0.557082 144:1.676035 145:-0.42775 146:0.276146 147:2.276466 148:-0.517803 149:0.1152 
-1.137392043355796 0.4613910330952951 1:-0.386317 2:0.18777 3:1.508144 4:-0.246927 5:0.332429 6:0.865321 7:-0.182261 8:0.389909 9:0.489542 10:-0.119032 11:0.372426 12:0.46176 13:-0.102986 14:0.340332 15:0.523072 16:-0.208127 17:0.287881 18:0.521875 19:-0.334584 20:0.249322 21:0.684018 22:-0.38009 23:0.217707 24:0.962319 25:-0.373384 26:0.158311 27:0.999681 28:-0.380329 29:0.1346 30:0.877535 31:-0.282133 32:0.120469 33:0.78868 34:-0.129331 35:0.08191 36:0.713237 37:-0.185854 38:0.089574 39:0.656475 40:-0.24549 41:0.176273 42:0.901485 43:-0.142025 44:0.313029 45:1.234633 46:-0.165735 47:0.333866 48:1.3369 49:-0.386556 50:0.274709 51:1.365161 52:-0.303449 53:0.224413 54:1.507904 55:-0.071851 56:0.228724 57:1.619752 58:-0.004311 59:0.23064 60:1.468626 61:-0.089813 62:0.228006 63:1.135958 64:-0.126218 65:0.217707 66:0.893582 67:-0.122865 68:0.187291 69:0.828437 70:-0.159987 71:0.114003 72:0.744372 73:-0.219863 74:0.103225 75:0.779818 76:-0.218186 77:0.147773 78:0.912502 79:-0.13963 80:0.143701 81:0.901725 82:-0.02874 83:0.112326 84:0.733116 85:0.03856 86:0.081431 87:0.596839 88:0.037362 89:0.079994 90:0.578637 91:-0.001198 92:0.11041 93:0.704375 94:-0.061313 95:0.120948 96:0.843286 97:0.018202 98:0.153042 99:0.835622 100:0.051493 101:0.352068 102:0.690724 103:0.078317 104:0.609772 105:0.722338 106:0.005988 107:0.636836 108:1.219544 109:-0.130529 110:0.440684 111:1.750999 112:-0.293869 113:0.285486 114:1.697111 115:-0.392783 116:0.319735 117:1.340732 118:-0.340811 119:0.390867 120:1.113924 121:-0.243334 122:0.426792 123:0.855501 124:-0.070653 125:0.262015 126:0.709405 127:-0.136516 128:0.237586 129:0.733355 130:-0.225132 131:0.268242 132:0.824845 133:-0.188728 134:0.262973 135:0.727607 136:-0.170286 137:0.322609 138:0.600192 139:-0.21148 140:0.291953 141:0.684736 142:-0.325723 143:0.195913 144:0.932621 145:-0.440923 146:0.174597 147:0.984832 148:-0.428709 149:0.112566 
-0.6327468089304462 0.6445069628111534 1:-0.319256 2:0.099154 3:1.0004 4:-0.305844 5:0.165496 6:0.943638 7:-0.277343 8:0.12981 9:1.128773 10:-0.135319 11:0.227527 12:1.330194 13:-0.077359 14:0.33674 15:1.215951 16:-0.161664 17:0.388472 18:1.133802 19:-0.136277 20:0.347278 21:1.345043 22:-0.129092 23:0.272793 24:1.549817 25:-0.181303 26:0.15879 27:1.488744 28:-0.212199 29:0.007185 30:1.159429 31:-0.212438 32:-0.059396 33:0.814786 34:-0.07209 35:-0.030896 36:0.679946 37:0.045266 38:0.068977 39:0.602587 40:-0.02874 41:0.130289 42:0.547501 43:-0.142025 44:0.14442 45:0.565464 46:-0.102267 47:0.170525 48:0.573368 49:0.05748 50:0.185135 51:0.59636 52:0.087179 53:0.231838 54:0.650727 55:-0.02395 56:0.250998 57:0.828677 58:-0.058917 59:0.179866 60:1.124701 61:0.072809 62:0.112087 63:1.315824 64:0.315903 65:0.02419 66:1.007345 67:0.342727 68:0.144899 69:0.522593 70:0.236149 71:0.507026 72:0.677312 73:-0.016526 74:0.683299 75:1.345043 76:-0.256267 77:0.382964 78:2.026426 79:-0.271356 80:0.097717 81:2.116 82:-0.228964 83:0.150168 84:1.78405 85:-0.087897 86:0.211241 87:1.294987 88:0.058199 89:0.272074 90:0.949146 91:0.140109 92:0.292432 93:0.893103 94:0.120709 95:0.241657 96:0.962319 97:0.037123 98:0.231838 99:0.929268 100:-0.039518 101:0.214354 102:0.763293 103:-0.111368 104:0.189446 105:0.593965 106:-0.203577 107:0.163819 108:0.506068 109:-0.216989 110:0.138193 111:0.502236 112:-0.178429 113:0.114003 114:0.512774 115:-0.154 116:0.100351 117:0.516366 118:-0.161664 119:0.129331 120:0.694556 121:-0.190883 122:0.145857 123:0.860291 124:-0.103704 125:0.148491 126:0.789398 127:0.008862 128:0.238065 129:0.849992 130:0.004551 131:0.469903 132:1.211401 133:-0.097956 134:0.490979 135:1.691602 136:-0.097717 137:0.233275 138:1.84177 139:-0.079036 140:0.073048 141:1.652803 142:-0.152563 143:0.080233 144:1.480841 145:-0.058917 146:0.071851 147:1.265289 148:0.095561 149:0.074006 
-0.7244832143721693 0.7761500641882509 1:0.160706 2:0.071851 3:0.637315 4:0.11544 5:0.074485 6:0.455054 7:0.065863 8:0.117595 9:0.427032 10:-0.003593 11:0.145378 12:0.538879 13:-0.018442 14:0.136995 15:0.656714 16:-0.001198 17:0.150407 18:0.646895 19:-0.008622 20:0.160706 21:0.621268 22:0.051732 23:0.138432 24:0.749881 25:0.092448 26:0.110171 27:1.071292 28:0.004311 29:0.066582 30:1.273911 31:0.108255 32:-0.065624 33:1.30792 34:0.339614 35:-0.144899 36:1.19727 37:0.406674 38:0.037123 39:0.979803 40:0.295066 41:0.135319 42:1.017404 43:0.069695 44:-0.033051 45:1.513652 46:-0.12526 47:-0.150407 48:1.857817 49:-0.170046 50:-0.056283 51:1.802731 52:-0.01461 53:0.101549 54:1.578797 55:0.18274 56:0.253393 57:1.287563 58:0.234951 59:0.337937 60:0.912982 61:0.155197 62:0.360211 63:0.588456 64:-0.005988 65:0.323567 66:0.420086 67:-0.191123 68:0.295066 69:0.38464 70:-0.294108 71:0.296743 72:0.467987 73:-0.215073 74:0.269679 75:0.53864 76:-0.106818 77:0.251238 78:0.594923 79:-0.092208 80:0.304407 81:0.70198 82:-0.059636 83:0.324765 84:1.076801 85:0.062031 86:0.314227 87:1.31271 88:0.025866 89:0.189686 90:1.059078 91:-0.286923 92:0.176752 93:0.664378 94:-0.213636 95:0.236149 96:0.722098 97:0.246448 98:0.29315 99:1.070095 100:0.385119 101:0.3753 102:1.434617 103:0.300096 104:0.238544 105:1.714595 106:0.169328 107:0.125739 108:1.679388 109:0.114482 110:0.085502 111:1.387674 112:0.069216 113:0.017005 114:1.069855 115:0.015089 116:-0.045026 117:0.872745 118:0.049337 119:-0.097717 120:0.652403 121:0.174118 122:-0.034488 123:0.415536 124:0.228724 125:0.087418 126:0.488824 127:0.11544 128:0.086221 129:1.255469 130:0.000479 131:0.036883 132:1.37546 133:0.075683 134:-0.068737 135:0.849513 136:0.201661 137:-0.214354 138:0.67348 139:0.267763 140:-0.24022 141:0.674198 142:0.232556 143:-0.150168 144:0.691921 145:0.100591 146:-0.054846 147:0.578397 148:0.085263 149:-0.052451 
-0.6081790381121499 0.887926624867557 1:0.137474 2:-0.004551 3:0.827719 4:0.271356 5:0.211241 6:0.718985 7:0.296982 8:0.467508 9:0.760658 10:0.184656 11:0.448827 12:1.422881 13:0.093406 14:0.162622 15:1.961521 16:-0.143222 17:0.126457 18:1.59197 19:-0.24022 20:0.22585 21:1.152244 22:-0.220342 23:0.307042 24:1.002555 25:-0.206211 26:0.33195 27:0.965672 28:-0.171244 29:0.287402 30:0.859094 31:-0.163101 32:0.263452 33:0.719224 34:-0.06275 35:0.300575 36:0.578158 37:-0.034009 38:0.367636 39:0.452419 40:-0.156634 41:0.407153 42:0.461999 43:-0.281654 44:0.366198 45:0.63947 46:-0.311353 47:0.297701 48:0.794428 49:-0.24022 50:0.241897 51:0.842089 52:-0.204295 53:0.246687 54:0.910347 55:-0.190404 56:0.220581 57:0.909628 58:-0.159748 59:0.237825 60:0.81263 61:-0.00503 62:0.296024 63:0.869871 64:0.212438 65:0.494572 66:1.091889 67:0.099154 68:0.556842 69:1.543111 70:-0.023711 71:0.256986 72:2.045347 73:-0.095801 74:0.050295 75:2.044389 76:-0.211241 77:0.041194 78:1.751238 79:-0.21172 80:0.029219 81:1.403481 82:-0.132205 83:0.011496 84:0.995131 85:-0.056522 86:0.002156 87:0.68306 88:0.021076 89:0.007185 90:0.510379 91:0.055564 92:0.034009 93:0.494093 94:0.042152 95:0.077359 96:0.58678 97:-0.00958 98:0.152323 99:0.663899 100:0.089334 101:0.158311 102:0.653122 103:0.199505 104:0.137474 105:0.526904 106:0.165975 107:0.123104 108:0.454335 109:0.109692 110:0.097717 111:0.541274 112:0.112087 113:0.085023 114:0.757545 115:0.17795 116:0.143701 117:0.941961 118:0.354223 119:0.184177 120:0.978126 121:0.38488 122:0.422242 123:1.005908 124:0.294348 125:0.635159 126:1.292113 127:0.090771 128:0.487865 129:1.916734 130:-0.006706 131:0.147533 132:2.143064 133:-0.129571 134:0.120948 135:1.704775 136:-0.204295 137:0.309437 138:1.368035 139:-0.127894 140:0.408111 141:1.23104 142:-0.102028 143:0.386317 144:1.059078 145:-0.160227 146:0.359971 147:0.895019 148:-0.176513 149:0.2886 
-0.6798388341924885 0.6743280303538706 1:-0.190165 2:0.255788 3:0.4426 4:-0.270637 5:0.305365 6:0.39446 7:-0.338656 8:0.321412 9:0.476369 10:-0.349194 11:0.276146 12:0.468705 13:-0.294108 14:0.236149 15:0.390149 16:-0.246448 17:0.227048 18:0.359732 19:-0.26441 20:0.247406 21:0.645218 22:-0.219384 23:0.298898 24:1.219783 25:-0.14921 26:0.249561 27:1.188169 28:-0.065145 29:0.288121 30:0.776465 31:0.035925 32:0.539598 33:0.75491 34:-0.125978 35:0.668689 36:1.142424 37:-0.357816 38:0.519959 39:1.451621 40:-0.342727 41:0.284289 42:1.655438 43:-0.253154 44:0.196871 45:1.696871 46:-0.136037 47:0.210283 48:1.555565 49:-0.036165 50:0.165975 51:1.08686 52:0.003114 53:0.099154 54:0.638752 55:0.005269 56:0.065863 57:0.508942 58:0.020597 59:0.122865 60:0.553968 61:-0.05293 62:0.202619 63:0.632764 64:-0.122625 65:0.2213 66:0.825803 67:-0.00479 68:0.191123 69:0.903641 70:0.209564 71:0.196871 72:0.829635 73:0.320933 74:0.234472 75:0.739343 76:0.28381 77:0.1825 78:0.73096 79:0.200942 80:0.099872 81:0.898611 82:0.216031 83:0.074006 84:1.018123 85:0.20669 86:0.070653 87:0.862447 88:0.017963 89:0.299377 90:0.736708 91:-0.199026 92:0.503433 93:0.918251 94:-0.178908 95:0.393741 96:1.448268 97:0.022513 98:0.140827 99:1.772075 100:-0.074485 101:0.139869 102:1.387674 103:-0.1825 104:0.228724 105:1.025787 106:-0.243573 107:0.246687 108:1.062191 109:-0.355181 110:0.228485 111:1.025547 112:-0.378413 113:0.237346 114:0.833227 115:-0.25004 116:0.291234 117:0.609293 118:-0.130289 119:0.37985 120:0.497925 121:-0.097956 122:0.451461 123:0.551813 124:-0.163101 125:0.409069 126:0.633004 127:-0.286205 128:0.310395 129:0.727607 130:-0.40883 131:0.186572 132:0.646176 133:-0.486428 134:0.159269 135:0.574086 136:-0.488824 137:0.181782 138:0.775028 139:-0.535766 140:0.233514 141:0.972139 142:-0.409548 143:0.206451 144:0.903162 145:-0.0673 146:0.230401 147:0.761377 148:0.152563 149:0.45218 
-0.6878920919483438 0.6847246918319646 1:-0.061073 2:0.523312 3:1.320614 4:-0.255788 5:0.296503 6:1.855182 7:-0.277583 8:0.104423 9:2.005829 10:-0.163819 11:0.086221 12:1.663581 13:-0.0673 14:0.145617 15:1.189846 16:-0.006946 17:0.153042 18:0.866518 19:0.039757 20:0.101309 21:0.752515 22:-0.027543 23:0.096759 24:0.709165 25:-0.279259 26:0.170765 27:0.712039 28:-0.401884 29:0.22585 30:0.856938 31:-0.275667 32:0.239741 33:1.015009 34:0.06754 35:0.223934 36:1.042313 37:0.349673 38:0.160466 39:0.789638 40:0.331231 41:0.117595 42:0.585103 43:0.160706 44:0.109692 45:0.594683 46:0.113524 47:0.089813 48:0.861489 49:0.214115 50:0.102986 51:0.929986 52:0.249322 53:0.165017 54:0.725691 55:0.060833 56:0.404279 57:0.7118 58:-0.255549 59:0.594683 60:1.054767 61:-0.236149 62:0.473735 63:1.837699 64:-0.056762 65:0.296743 66:1.980202 67:-0.109213 68:0.352307 69:1.347199 70:-0.044787 71:0.409548 72:0.849274 73:0.199745 74:0.393023 75:0.765209 76:0.304407 77:0.348715 78:0.817899 79:0.058199 80:0.267284 81:0.798021 82:-0.256267 83:0.210522 84:0.693837 85:-0.330992 86:0.2019 87:0.51948 88:-0.224653 89:0.289797 90:0.486907 91:-0.114961 92:0.300335 93:0.631806 94:-0.190165 95:0.252196 96:0.574086 97:-0.236149 98:0.207888 99:0.464394 100:-0.292911 101:0.194476 102:0.660786 103:-0.339135 104:0.227527 105:0.918011 106:-0.249082 107:0.203098 108:0.84137 109:-0.160945 110:0.217468 111:0.602347 112:-0.08646 113:0.414817 114:0.753234 115:0.009101 116:0.60091 117:1.16877 118:-0.05269 119:0.446911 120:1.564906 121:-0.06754 122:0.202379 123:1.778063 124:-0.050295 125:0.204295 126:1.588856 127:-0.002156 128:0.248124 129:1.419289 130:0.103465 131:0.198068 132:1.239423 133:0.086939 134:0.127894 135:0.852148 136:0.003114 137:0.09149 138:0.6251 139:0.024429 140:0.081431 141:0.588696 142:0.080952 143:0.119511 144:0.626537 145:0.10562 146:0.206451 147:0.727607 148:0.154 149:0.229443 
-0.3905155272814315 0.7700340641111588 1:0.244771 2:0.231119 3:0.566901 4:0.263692 5:0.24022 6:0.464394 7:0.20669 8:0.212917 9:0.668929 10:0.184656 11:0.12526 12:1.036086 13:0.246208 14:0.079754 15:1.234393 16:0.39901 17:0.117595 18:1.101949 19:0.558519 20:0.191602 21:0.814786 22:0.525946 23:0.338656 24:0.80329 25:0.255309 26:0.328597 27:1.203737 28:-0.029459 29:0.134121 30:1.912902 31:-0.175076 32:0.03377 33:2.108096 34:-0.192081 35:0.167172 36:1.709086 37:-0.054127 38:0.356379 39:1.26457 40:0.053648 41:0.370989 42:0.90412 43:-0.05772 44:0.338895 45:0.726409 46:-0.237825 47:0.288121 48:0.698867 49:-0.261297 50:0.292671 51:0.70198 52:-0.176992 53:0.336021 54:0.633962 55:-0.259381 56:0.318298 57:0.536963 58:-0.396376 59:0.231598 60:0.51445 61:-0.44715 62:0.164059 63:0.542472 64:-0.382006 65:0.169088 66:0.53864 67:-0.30776 68:0.217468 69:0.600671 70:-0.363085 71:0.202619 72:0.766885 73:-0.458886 74:0.184177 75:0.845921 76:-0.29339 77:0.217468 78:0.804966 79:0.127894 80:0.444276 81:1.016686 82:0.239262 83:0.577679 84:1.433419 85:-0.017005 86:0.289558 87:1.847518 88:-0.236149 89:0.04335 90:2.083907 91:-0.310395 92:0.093406 93:1.968706 94:-0.158071 95:0.102746 96:1.605621 97:-0.018442 98:0.05748 99:1.155836 100:0.035686 101:0.029459 102:0.7985 103:0.08167 104:0.004551 105:0.615999 106:0.178429 107:-0.005269 108:0.51924 109:0.208127 110:0.017244 111:0.534329 112:0.057001 113:0.039757 114:0.607616 115:0.011975 116:0.037602 117:0.710602 118:0.114961 119:0.046703 120:0.708447 121:0.235909 122:0.062031 123:0.589654 124:0.319975 125:0.057959 126:0.570733 127:0.329555 128:0.059636 129:0.733116 130:0.295785 131:0.096759 132:0.784369 133:0.416733 134:0.117835 135:0.818378 136:0.441642 137:0.305125 138:0.955373 139:0.459365 140:0.468945 141:1.042073 142:0.318298 143:0.400447 144:1.228885 145:0.131247 146:0.092448 147:1.896856 148:-0.0479 149:0.071611 
-0.1979595336688953 0.8558280250074585 1:-0.116877 2:0.318059 3:1.677472 4:0.06275 5:0.432541 6:1.184577 7:0.151844 8:0.425355 9:0.801134 10:0.036883 11:0.381048 12:0.603305 13:-0.150886 14:0.337458 15:0.679228 16:-0.186333 17:0.342248 18:0.74054 19:-0.186333 20:0.333626 21:0.700543 22:-0.295545 23:0.296982 24:0.68761 25:-0.380329 26:0.244053 27:0.666055 28:-0.357576 29:0.235909 30:0.568578 31:-0.290516 32:0.229443 33:0.554687 34:-0.300096 35:0.207169 36:0.775507 37:-0.368833 38:0.166454 39:0.923759 40:-0.389909 41:0.152323 42:0.64905 43:-0.314945 44:0.246687 45:0.455533 46:-0.153521 47:0.444516 48:0.930944 49:-0.170765 50:0.336261 51:1.590293 52:-0.249322 53:0.088137 54:1.958168 55:-0.134361 56:0.088137 57:1.945714 58:-0.017963 59:0.151605 60:1.749801 61:0.035686 62:0.086221 63:1.383842 64:-0.035925 65:0.021795 66:0.923041 67:-0.073527 68:-0.013891 69:0.708447 70:0.003832 71:-0.021795 72:0.643542 73:0.070653 74:-0.011736 75:0.604503 76:-0.008622 77:0.010059 78:0.676833 79:0.003832 80:0.076162 81:0.835383 82:0.183219 83:0.135319 84:0.891666 85:0.318777 86:0.166933 87:0.719464 88:0.360929 89:0.154718 90:0.568338 91:0.4232 92:0.117595 93:0.611449 94:0.465831 95:0.099393 96:0.854064 97:0.499122 98:0.079036 99:1.137155 100:0.659588 101:-0.003593 102:1.137395 103:0.608096 104:0.108734 105:0.989383 106:0.33674 107:0.272553 108:0.994173 109:0.024669 110:0.113045 111:1.481799 112:-0.21148 113:-0.091729 114:2.113605 115:-0.288121 116:0.022034 117:2.071692 118:-0.170286 119:0.28836 120:1.560355 121:0.025387 122:0.352068 123:1.061473 124:0.043829 125:0.29794 126:0.710123 127:-0.140348 128:0.233275 129:0.637075 130:-0.364761 131:0.183219 132:0.759221 133:-0.488345 134:0.16813 135:0.805206 136:-0.475172 137:0.200703 138:0.627735 139:-0.456251 140:0.254351 141:0.453377 142:-0.455293 143:0.258183 144:0.430625 145:-0.417691 146:0.262015 147:0.477806 148:-0.358774 149:0.309916 
-0.07930155638406093 0.8834115088126414 1:-0.372905 2:0.312071 3:0.722817 4:-0.456491 5:0.228245 6:0.873224 7:-0.483794 8:0.199984 9:0.925915 10:-0.277822 11:0.310155 12:1.022913 13:0.095561 14:0.500559 15:1.246129 16:0.262015 17:0.612886 18:1.565145 19:0.309676 20:0.358295 21:1.984513 22:0.200463 23:0.196392 24:2.178749 25:0.050535 26:0.087897 27:1.968946 28:0.053409 29:0.041434 30:1.504312 31:0.117595 32:0.062989 33:1.031295 34:0.188728 35:0.070893 36:0.751557 37:0.196392 38:0.017723 39:0.613604 40:0.093645 41:-0.018681 42:0.565943 43:-0.000719 44:0.001677 45:0.720422 46:0.093166 47:0.001437 48:0.891666 49:0.259141 50:0.018921 51:0.790596 52:0.469184 53:0.068737 54:0.519719 55:0.50032 56:0.091729 57:0.383682 58:0.290755 59:-0.016047 60:0.587019 61:0.164059 62:-0.141785 63:0.989383 64:0.351828 65:-0.104183 66:1.050935 67:0.6057 68:0.116637 69:0.755629 70:0.576002 71:0.393502 72:0.555645 73:0.294587 74:0.431583 75:0.734073 76:-0.071851 77:0.106099 78:1.800097 79:-0.409788 80:0.006946 81:2.286525 82:-0.449545 83:0.106578 84:1.680825 85:-0.137235 86:0.440205 87:1.097877 88:0.166693 89:0.544388 90:1.031056 91:-0.013891 92:0.432301 93:0.833946 94:-0.199745 95:0.28357 96:0.601629 97:-0.25483 98:0.237825 99:0.484512 100:-0.308479 101:0.275667 102:0.611928 103:-0.31734 104:0.344643 105:0.737427 106:-0.327878 107:0.270637 108:0.616239 109:-0.354223 110:0.184896 111:0.453856 112:-0.464873 113:0.291713 114:0.481878 115:-0.526665 116:0.264889 117:0.851908 118:-0.409788 119:0.201182 120:0.953218 121:-0.318538 122:0.315424 123:0.748683 124:-0.263692 125:0.541993 126:0.990101 127:0.094843 128:0.476609 129:1.710283 130:0.132684 131:0.161424 132:2.253953 133:-0.116398 134:0.050295 135:2.345443 136:-0.017244 137:0.139151 138:1.992896 139:0.212438 140:0.133642 141:1.581192 142:0.203816 143:0.125499 144:1.015967 145:0.136037 146:0.052451 147:0.725691 148:0.200703 149:-0.136277 
-0.09465115042236129 0.9352095663079008 1:0.241897 2:-0.125978 3:0.722338 4:0.097238 5:-0.063947 6:0.678509 7:0.160945 8:-0.063229 9:0.630848 10:0.288839 11:-0.005269 12:0.453856 13:0.434217 14:0.076162 15:0.296264 16:0.431343 17:0.09604 18:0.323328 19:0.389191 20:0.098435 21:0.415057 22:0.468945 23:0.073527 24:0.838736 25:0.613604 26:0.083107 27:1.109852 28:0.631088 29:0.25004 30:0.871069 31:0.627495 32:0.381048 33:0.672043 34:0.59612 35:0.286444 36:1.077998 37:0.330513 38:0.096759 39:2.01014 40:0.089813 41:0.014131 42:2.247007 43:-0.020358 44:0.211001 45:1.648492 46:0.132205 47:0.411225 48:1.012614 49:0.249561 50:0.428469 51:0.752515 52:0.095561 53:0.358295 54:0.824605 55:-0.147773 56:0.247166 57:1.035127 58:-0.28357 59:0.222497 60:0.897414 61:-0.335542 62:0.267284 63:0.457449 64:-0.292432 65:0.303449 66:0.244292 67:-0.269919 68:0.258662 69:0.315664 70:-0.367396 71:0.255788 72:0.281175 73:-0.478046 74:0.251238 75:0.109213 76:-0.507265 77:0.234233 78:0.111847 79:-0.673719 80:0.267524 81:0.358534 82:-0.685694 83:0.281415 84:0.610011 85:-0.608574 86:0.511816 87:0.437091 88:-0.183698 89:0.69719 90:0.596599 91:0.640668 92:0.632285 93:1.617117 94:0.425355 95:0.199026 96:2.718108 97:-0.140827 98:-0.149689 99:3.556125 100:-0.026585 101:-0.093166 102:3.15951 103:0.179626 104:0.012933 105:1.972778 106:0.362127 107:0.093406 108:0.927591 109:0.382964 110:0.105141 111:0.489302 112:0.301533 113:0.054127 114:0.555405 115:0.334824 116:0.021076 117:0.700304 118:0.343446 119:0.026824 120:0.63947 121:0.343925 122:0.035207 123:0.450503 124:0.440444 125:0.058199 126:0.224174 127:0.493135 128:0.074485 129:0.004311 130:0.394939 131:0.065384 132:-0.032572 133:0.316382 134:-0.01437 135:0.071132 136:0.342248 137:-0.103944 138:0.350631 139:0.41817 140:-0.055804 141:0.592288 142:0.399489 143:0.155437 144:0.663899 145:0.496727 146:0.303449 147:0.450503 148:0.728804 149:0.242855 
-0.09161982244491891 1.086150989089279 1:0.465831 2:-0.05269 3:2.220902 4:-0.030417 5:-0.167891 6:3.32309 7:-0.087897 8:0.030417 9:2.91426 10:0.2213 11:0.246448 12:1.920806 13:0.410746 14:0.410267 15:1.169967 16:0.258902 17:0.425116 18:0.902204 19:-0.050774 20:0.376976 21:0.824605 22:-0.222497 23:0.334105 24:0.845442 25:-0.224892 26:0.343446 27:0.676354 28:-0.287163 29:0.368833 30:0.372665 31:-0.347517 32:0.33195 33:0.330034 34:-0.435654 35:0.297701 36:0.374581 37:-0.544388 38:0.280217 39:0.302251 40:-0.557321 41:0.277583 42:0.281415 43:-0.504631 44:0.243813 45:0.393023 46:-0.493374 47:0.217947 48:0.534568 49:-0.566662 50:0.384161 51:0.637075 52:-0.479722 53:0.592049 54:0.506786 55:0.157592 56:0.590612 57:0.81766 58:0.501757 59:0.435175 60:1.514371 61:0.165975 62:0.198068 63:2.408671 64:-0.184417 65:0.050774 66:2.774391 67:-0.072809 68:0.016526 69:2.204855 70:0.198068 71:0.068498 72:1.33187 73:0.289079 74:0.068977 75:0.870111 76:0.268482 77:-0.011496 78:0.923041 79:0.234951 80:-0.070174 81:1.008543 82:0.211001 83:-0.097477 84:0.871548 85:0.198787 86:-0.122386 87:0.742456 88:0.198547 89:-0.105381 90:0.616718 91:0.25004 92:-0.066342 93:0.357097 94:0.353984 95:0.008622 96:0.042152 97:0.453377 98:0.015328 99:-0.146815 100:0.455054 101:-0.03856 102:-0.026585 103:0.412183 104:-0.042392 105:0.535766 106:0.443079 107:0.09149 108:0.874182 109:0.659588 110:0.275906 111:0.702699 112:0.859573 113:0.436373 114:0.811193 115:0.809756 116:0.241897 117:1.575923 118:0.489542 119:-0.058917 120:2.638833 121:0.201661 122:0.044787 123:2.76529 124:0.303688 125:0.280457 126:1.919129 127:0.504631 128:0.45194 129:1.269839 130:0.416973 131:0.501757 132:0.948907 133:0.159748 134:0.44739 135:0.781495 136:0.036404 137:0.392783 138:0.729283 139:-0.061792 140:0.381287 141:0.648811 142:-0.218905 143:0.352068 144:0.552531 145:-0.361648 146:0.321412 147:0.481159 148:-0.426792 149:0.320933 
-0.10105034105731 1.097311874236653 1:-0.390628 2:0.36045 3:0.074725 4:-0.419847 5:0.395657 6:0.121906 7:-0.499841 8:0.389191 9:0.465592 10:-0.566422 11:0.334824 12:0.813588 13:-0.540077 14:0.34129 15:1.013812 16:-0.45673 17:0.494572 18:0.927352 19:-0.057241 20:0.66366 21:1.114642 22:0.344643 23:0.577918 24:1.691842 25:0.239741 26:0.387275 27:2.229284 28:0.217468 29:0.316861 30:2.482917 31:0.366677 32:0.253154 33:2.128454 34:0.310155 35:0.234951 36:1.470542 37:0.224413 38:0.183459 39:1.040636 40:0.265129 41:0.11041 42:0.831551 43:0.396136 44:0.048619 45:0.63013 46:0.394699 47:-0.045745 48:0.578158 49:0.382245 50:-0.114003 51:0.666773 52:0.362606 53:-0.116398 54:0.717548 55:0.368594 56:-0.096998 57:0.54319 58:0.418889 59:-0.02898 60:0.128134 61:0.465113 62:-0.033051 63:-0.198068 64:0.482357 65:-0.112805 66:-0.180824 67:0.372186 68:-0.152563 69:0.187291 70:0.342488 71:-0.112326 72:0.673719 73:0.342248 74:0.115919 75:0.803529 76:0.59636 77:0.404279 78:0.58199 79:0.97597 80:0.54822 81:0.61576 82:0.647613 83:0.363324 84:1.370191 85:0.070414 86:0.168609 87:2.660388 88:-0.03832 89:0.233514 90:3.011737 91:0.318777 92:0.506068 93:1.95721 94:0.693358 95:0.727607 96:1.087578 97:0.593965 98:0.714913 99:0.939806 100:0.176513 101:0.558758 102:1.015967 103:-0.076641 104:0.438768 105:0.917772 106:-0.190883 107:0.376497 108:0.635159 109:-0.25507 110:0.343446 111:0.306084 112:-0.354702 113:0.31758 114:0.108255 115:-0.525467 116:0.268721 117:0.103944 118:-0.608335 119:0.243813 120:0.225611 121:-0.585103 122:0.214833 123:0.333387 124:-0.530497 125:0.19735 126:0.484512 127:-0.551334 128:0.212199 129:0.720901 130:-0.566422 131:0.332908 132:0.754431 133:-0.494093 134:0.602826 135:0.56283 136:-0.030417 137:0.741019 138:0.910586 139:0.376737 140:0.612407 141:1.809198 142:0.368594 143:0.405477 144:2.465194 145:0.285007 146:0.276385 147:2.726251 148:0.300335 149:0.224413 
-0.1093165202561638 1.110566893791392 1:0.303449 2:0.231359 3:1.311273 4:0.362606 5:0.193518 6:0.786764 7:0.396615 8:0.089813 9:0.629411 10:0.371947 11:-0.029698 12:0.66342 13:0.373623 14:-0.140109 15:0.759461 16:0.34632 17:-0.175076 18:0.752755 19:0.336979 20:-0.144659 21:0.584145 22:0.454575 23:-0.120948 24:0.296743 25:0.5384 26:-0.077359 27:-0.00503 28:0.577439 29:-0.03832 30:-0.114721 31:0.615281 32:-0.074725 33:0.049577 34:0.552052 35:-0.062031 36:0.537921 37:0.46152 38:0.058199 39:0.923041 40:0.527623 41:0.333147 42:0.780297 43:0.882086 44:0.598994 45:0.867476 46:0.968067 47:0.391825 48:1.488505 49:0.444516 50:0.085502 51:2.696792 52:0.034249 53:0.21172 54:2.977009 55:0.277822 56:0.448827 57:1.903083 58:0.675635 59:0.573368 60:1.144101 61:0.573368 62:0.522114 63:0.89933 64:0.133163 65:0.415057 66:0.819576 67:-0.198787 68:0.364761 69:0.732397 70:-0.291713 71:0.316861 72:0.527144 73:-0.26465 74:0.291713 75:0.344404 76:-0.270398 77:0.294587 78:0.246927 79:-0.379132 80:0.29818 81:0.248603 82:-0.439726 83:0.274948 84:0.279978 85:-0.444516 86:0.257465 87:0.253633 88:-0.464155 89:0.254351 90:0.34129 91:-0.468226 92:0.214115 93:0.587259 94:-0.538879 95:0.250519 96:0.79371 97:-0.578397 98:0.446671 99:0.855022 100:-0.239023 101:0.62031 102:1.054527 103:0.369312 104:0.650248 105:1.558918 106:0.585343 107:0.451701 108:2.34209 109:0.364282 110:0.318298 111:2.863486 112:0.18753 113:0.240699 114:2.559797 115:0.184896 116:0.212917 117:1.718187 118:0.262255 119:0.21172 120:0.976929 121:0.248364 122:0.152084 123:0.698148 124:0.222497 125:0.047421 126:0.724254 127:0.29818 128:-0.044308 129:0.716111 130:0.350152 131:-0.079275 132:0.671563 133:0.338656 134:-0.081191 135:0.534568 136:0.263931 137:-0.044068 138:0.440684 139:0.236867 140:-0.023711 141:0.38967 142:0.207648 143:-0.029219 144:0.332189 145:0.236867 146:-0.073288 147:0.316622 148:0.355181 149:-0.096519 
-0.09416591965397762 1.102720648436114 1:0.364282 2:-0.021555 3:0.454814 4:0.17795 5:0.26944 6:0.58199 7:0.427511 8:0.575523 9:0.499362 10:1.023152 11:0.669648 12:0.775028 13:1.087099 14:0.417691 15:1.492337 16:0.696472 17:0.155676 18:2.497047 19:0.253872 20:0.302491 21:2.558599 22:0.300814 23:0.540795 24:1.635319 25:0.580553 26:0.632764 27:1.0004 28:0.598276 29:0.576721 30:0.77431 31:0.25004 32:0.487387 33:0.594204 34:-0.109213 35:0.428948 36:0.539119 37:-0.33171 38:0.393023 39:0.540795 40:-0.358534 41:0.381287 42:0.404519 43:-0.280936 44:0.366438 45:0.277822 46:-0.290516 47:0.340093 48:0.253633 49:-0.435415 50:0.324286 51:0.334824 52:-0.531215 53:0.310634 54:0.419847 55:-0.456251 56:0.282373 57:0.476369 58:-0.335542 59:0.247885 60:0.541035 61:-0.23567 62:0.297461 63:0.640428 64:-0.242376 65:0.530736 66:0.687131 67:-0.07209 68:0.805445 69:0.843765 70:0.474932 71:0.824605 72:1.52922 73:0.57217 74:0.564746 75:2.30353 76:0.231119 77:0.368354 78:3.059159 79:-0.029219 80:0.267045 81:2.768164 82:0.000958 83:0.205972 84:1.830274 85:0.196631 86:0.167172 87:1.086141 88:0.266805 89:0.069695 90:0.75515 91:0.215073 92:-0.054606 93:0.681862 94:0.248364 95:-0.149449 96:0.618873 97:0.268242 98:-0.179147 99:0.519959 100:0.235909 101:-0.145138 102:0.493853 103:0.337458 104:-0.082389 105:0.363085 106:0.444276 107:-0.008143 108:0.088137 109:0.439007 110:0.044787 111:-0.137235 112:0.416015 113:0.022274 114:-0.060594 115:0.359013 116:-0.023232 117:0.366198 118:0.297222 119:0.075443 120:0.630848 121:0.259381 122:0.354702 123:0.593725 124:0.664618 125:0.642344 126:0.335303 127:1.264091 128:0.649529 129:0.737666 130:1.118474 131:0.258902 132:2.001757 133:0.523312 134:0.05269 135:3.428471 136:0.222976 137:0.276385 138:3.097718 139:0.406195 140:0.508463 141:1.732557 142:0.615041 143:0.62055 144:0.748683 145:0.508702 146:0.548459 147:0.37051 148:0.21651 149:0.396376 
-0.05621891439977025 1.022911948548044 1:0.022274 2:0.285247 3:0.395178 4:-0.220581 5:0.247406 6:0.335303 7:-0.457928 8:0.219384 9:0.527144 10:-0.538879 11:0.220102 12:0.915376 13:-0.405956 14:0.278541 15:0.859573 16:-0.247166 17:0.359492 18:0.436133 19:-0.176034 20:0.406674 21:0.228724 22:-0.180105 23:0.387275 24:0.326441 25:-0.174357 26:0.334345 27:0.522593 28:-0.150647 29:0.316622 30:0.612167 31:-0.237107 32:0.469184 33:0.651445 34:-0.295785 35:0.714434 36:0.701022 37:0.265368 38:0.765209 39:1.041355 40:0.830114 41:0.575523 42:1.600831 43:0.558519 44:0.290516 45:2.560515 46:0.116398 47:0.121667 48:2.838817 49:0.152802 50:0.108494 51:1.968227 52:0.257225 53:0.143462 54:0.88496 55:0.219623 56:0.109931 57:0.305365 58:0.209804 59:0.030896 60:0.513013 61:0.265129 62:-0.021555 63:0.706052 64:0.199505 65:-0.045266 66:0.809517 67:0.202858 68:-0.038081 69:0.915616 70:0.23088 71:0.023232 72:0.688568 73:0.291713 74:0.094364 75:0.300575 76:0.319975 77:0.129331 78:0.014849 79:0.352786 80:0.105141 81:0.044308 82:0.440205 83:0.077838 84:0.400208 85:0.474932 86:0.086221 87:0.764011 88:0.429188 89:0.213396 90:1.077998 91:0.40883 92:0.384401 93:0.901246 94:0.84137 95:0.548459 96:0.798739 97:1.051414 98:0.3753 99:1.484673 100:0.564746 101:0.181303 102:2.672363 103:0.2692 104:0.19232 105:2.880011 106:0.305605 107:0.351589 108:1.7122 109:0.438768 110:0.530018 111:0.689287 112:0.481638 113:0.543909 114:0.503433 115:0.275667 116:0.440205 117:0.724254 118:0.055325 119:0.367636 120:0.630848 121:-0.078078 122:0.321412 123:0.434457 124:-0.128613 125:0.286205 126:0.443079 127:-0.166214 128:0.268242 129:0.47134 130:-0.222497 131:0.24549 132:0.366677 133:-0.316622 134:0.233275 135:0.306084 136:-0.396376 137:0.252435 138:0.273272 139:-0.361887 140:0.275906 141:0.284528 142:-0.278301 143:0.253154 144:0.48092 145:-0.254591 146:0.260099 147:0.785566 148:-0.298659 149:0.420326 
-0.07730732458592196 1.074282517699888 1:-0.161903 2:0.580313 3:0.758024 4:0.326441 5:0.601868 6:1.159429 7:0.310874 8:0.409548 9:1.751478 10:-0.00958 11:0.268482 12:2.424957 13:0.010059 14:0.148012 15:2.676913 16:0.073048 17:0.084784 18:2.137316 19:0.030656 20:0.116398 21:1.142424 22:0.017723 23:0.109692 24:0.562111 25:0.06754 26:0.048858 27:0.493374 28:0.080712 29:-0.009101 30:0.66821 31:0.073288 32:-0.032812 33:0.728325 34:0.137474 35:-0.022753 36:0.731678 37:0.230401 38:0.023232 39:0.591809 40:0.231838 41:0.074246 42:0.301533 43:0.236628 44:0.087658 45:0.136756 46:0.260818 47:0.050056 48:0.228964 49:0.278301 50:-0.03377 51:0.487387 52:0.334824 53:-0.078317 54:0.768083 55:0.385359 56:0.101788 57:0.710842 58:0.523551 59:0.374581 60:0.443797 61:0.773591 62:0.535047 63:0.82221 64:0.787961 65:0.357816 66:1.745251 67:0.549657 68:0.17771 69:2.647934 70:0.406914 71:0.234472 72:2.791156 73:0.552531 74:0.402603 75:1.924398 76:0.681383 77:0.5384 78:1.25523 79:0.64905 80:0.590851 81:0.925675 82:0.488824 83:0.537442 84:0.659349 85:0.28357 86:0.450264 87:0.400208 88:0.138432 89:0.370031 90:0.317101 91:-0.070174 92:0.296024 93:0.34632 94:-0.250519 95:0.254351 96:0.417931 97:-0.277343 98:0.243094 99:0.36548 100:-0.360211 101:0.265129 102:0.171483 103:-0.439965 104:0.299377 105:0.044547 106:-0.450743 107:0.298898 108:0.205732 109:-0.482596 110:0.280936 111:0.607616 112:-0.501517 113:0.242136 114:0.80808 115:-0.405477 116:0.37985 117:0.744372 118:-0.160945 119:0.678749 120:0.601868 121:0.43757 122:0.866279 123:0.888313 124:1.002795 125:0.650727 126:1.850632 127:0.733834 128:0.201182 129:3.025389 130:0.07712 131:0.071132 132:3.213398 133:-0.084784 134:0.091969 135:2.422083 136:0.094124 137:0.106099 138:1.388632 139:0.222737 140:0.085263 141:0.718027 142:0.178908 143:-0.018681 144:0.675875 145:0.123583 146:-0.108734 147:0.772154 148:0.136277 149:-0.15855 
-0.08836856112131035 0.991450471365478 1:0.151365 2:-0.156395 3:0.52427 4:0.213875 5:-0.135079 6:0.439965 7:0.288839 8:-0.126697 9:0.272074 10:0.309916 11:-0.097477 12:0.04311 13:0.224174 14:-0.079036 15:-0.032093 16:0.177231 17:-0.095322 18:0.092687 19:0.199505 20:-0.091729 21:0.386796 22:0.171962 23:0.06275 24:0.552292 25:0.2019 26:0.36548 27:0.393741 28:0.618634 29:0.688329 30:0.415057 31:1.011417 32:0.640668 33:1.223616 34:0.792033 35:0.320693 36:2.392385 37:0.434457 38:0.292671 39:3.082869 40:0.470861 41:0.460323 42:2.458488 43:0.701262 44:0.610011 45:1.468866 46:0.724733 47:0.691682 48:0.73575 49:0.546544 50:0.639949 51:0.573607 52:0.251477 53:0.568338 54:0.637075 55:0.040236 56:0.519719 57:0.589414 58:-0.108255 59:0.448108 60:0.56259 61:-0.185135 62:0.364761 63:0.544627 64:-0.214594 65:0.284289 66:0.523551 67:-0.233275 68:0.23064 69:0.405956 70:-0.309197 71:0.222018 72:0.217468 73:-0.335063 74:0.232077 75:0.108973 76:-0.325004 77:0.245729 78:0.127894 79:-0.328597 80:0.275427 81:0.316382 82:-0.50487 83:0.414099 84:0.497206 85:-0.476848 86:0.622466 87:0.418889 88:0.383443 89:0.773591 90:0.747965 91:0.921125 92:0.55325 93:1.786685 94:0.392304 95:0.131966 96:3.031616 97:-0.104423 98:0.124302 99:3.172203 100:0.105141 101:0.144659 102:2.128933 103:0.305844 104:0.200703 105:0.923999 106:0.309916 107:0.219144 108:0.430146 109:0.250998 110:0.155676 111:0.802811 112:0.390628 113:0.126218 114:1.171404 115:0.597557 116:0.119751 117:1.07704 118:0.480201 119:0.113763 120:0.614083 121:0.260818 122:0.10107 123:0.363324 124:0.201661 125:0.085263 126:0.644739 127:0.228006 128:0.056043 129:0.772873 130:0.260339 131:0.066821 132:0.494332 133:0.37051 134:0.081191 135:0.330992 136:0.444995 137:0.081431 138:0.519959 139:0.321412 140:0.120709 141:0.794668 142:0.188249 143:0.197829 144:0.742217 145:0.207888 146:0.384401 147:0.728804 148:0.372426 149:0.4426 
-0.3429226707248934 -0.8080258559062824 1:0.034728 2:0.191602 3:0.872745 4:0.025866 5:0.19256 6:0.860531 7:0.031375 8:0.202619 9:0.79347 10:0.044787 11:0.209804 12:0.7312 13:0.047182 14:0.216749 15:0.659828 16:0.062031 17:0.215073 18:0.59157 19:0.096759 20:0.200942 21:0.589414 22:0.125499 23:0.203577 24:0.698867 25:0.149689 26:0.198068 27:0.865321 28:0.142743 29:0.193997 30:0.996568 31:0.138672 32:0.199505 33:1.006148 34:0.086939 35:0.200942 36:0.944835 37:0.038081 38:0.237107 39:1.013572 40:0.10562 41:0.288121 42:1.341451 43:0.166454 44:0.30273 45:1.718906 46:0.253872 47:0.324046 48:1.890389 49:0.337937 50:0.367396 51:1.829316 52:0.370749 53:0.426792 54:1.686333 55:0.39422 56:0.441642 57:1.807761 58:0.271356 59:0.386077 60:1.941882 61:0.081431 62:0.292192 63:1.903322 64:0.020597 65:0.236867 66:1.85159 67:0.127655 68:0.20693 69:1.788601 70:0.04311 71:0.197829 72:1.459046 73:-0.09604 74:0.209085 75:0.980521 76:-0.1152 77:0.19711 78:0.654798 79:-0.131487 80:0.166454 81:0.318538 82:-0.160227 83:0.168609 84:-0.150407 85:-0.154479 86:0.157353 87:-0.506307 88:-0.097956 89:0.112087 90:-0.619831 91:-0.15879 92:0.079275 93:-0.537682 94:-0.211241 95:0.06251 96:-0.136995 97:-0.186572 98:0.015089 99:0.136516 100:-0.172681 101:0.022753 102:0.260578 103:-0.061792 104:0.046942 105:0.262494 106:-0.015568 107:0.059636 108:0.284289 109:-0.079515 110:0.053169 111:0.468226 112:-0.029219 113:0.053888 114:0.584385 115:0.136516 116:0.069456 117:0.554687 118:0.237346 119:0.08646 120:0.546783 121:0.174597 122:0.111847 123:0.572889 124:0.058917 125:0.265129 126:0.939566 127:0.112326 128:0.480201 129:1.306244 130:0.275906 131:0.644979 132:1.397733 133:0.350152 134:0.701262 135:1.51485 136:0.27878 137:0.683539 138:1.969904 139:0.125978 140:0.631088 141:2.251319 142:-0.001437 143:0.453856 144:2.353107 145:-0.084784 146:0.306323 147:2.334665 148:-0.087658 149:0.266087 
-0.2441791050306159 -0.9186490272419444 1:-0.020837 2:0.274948 3:1.631487 4:0.027543 5:0.264889 6:0.998723 7:0.077359 8:0.263931 9:0.502236 10:0.114003 11:0.277343 12:0.290755 13:0.099872 14:0.258662 15:0.222258 16:0.036404 17:0.249801 18:0.229443 19:0.001677 20:0.219144 21:0.328597 22:-0.057241 23:0.2019 24:0.392544 25:-0.039997 26:0.19256 27:0.372905 28:0.029459 29:0.218905 30:0.331471 31:0.110889 32:0.273032 33:0.496488 34:0.097477 35:0.302491 36:0.605461 37:0.052211 38:0.319496 39:0.818857 40:0.082389 41:0.339135 42:1.074406 43:0.188249 44:0.358534 45:1.275348 46:0.164059 47:0.30776 48:1.473895 49:0.044308 50:0.220102 51:1.703577 52:-0.030177 53:0.177471 54:1.656156 55:-0.048619 56:0.193278 57:1.250919 58:-0.029698 59:0.19711 60:0.81263 61:-0.025627 62:0.187051 63:0.51445 64:-0.045505 65:0.178429 66:0.350152 67:-0.002635 68:0.205732 69:0.31279 70:0.016286 71:0.249801 72:0.315664 73:0.004072 74:0.279499 75:0.37051 76:0.105141 77:0.285726 78:0.534089 79:0.186812 80:0.274469 81:0.801613 82:0.272553 83:0.252435 84:1.090692 85:0.311832 86:0.302012 87:1.263133 88:0.344404 89:0.390149 90:1.398212 91:0.395418 92:0.470142 93:1.500719 94:0.474932 95:0.516127 96:1.666934 97:0.474932 98:0.578158 99:2.060196 100:0.362127 101:0.728325 102:2.297542 103:0.325004 104:0.768083 105:2.29371 106:0.274709 107:0.631567 108:2.463996 109:0.169807 110:0.476848 111:2.677153 112:0.117356 113:0.446192 114:2.450105 115:0.020358 116:0.405716 117:1.834585 118:-0.037841 119:0.297701 120:1.223616 121:0.016047 122:0.169807 123:0.563309 124:0.049577 125:0.053888 126:0.05772 127:-0.007425 128:-0.002874 129:-0.244532 130:-0.102507 131:0.004072 132:-0.435415 133:-0.17795 134:0.00982 135:-0.589893 136:-0.216031 137:-0.02874 138:-0.734073 139:-0.170525 140:-0.075204 141:-0.611209 142:-0.177231 143:-0.123104 144:-0.473016 145:-0.220581 146:-0.139151 147:-0.498404 148:-0.103704 149:-0.135319 
-0.2266516730411943 -0.8888838280647865 1:0.006227 2:-0.111608 3:-0.245011 4:0.00479 5:-0.11041 6:0.146096 7:0.052211 8:-0.090532 9:0.410027 10:0.083586 11:-0.046463 12:0.431104 13:0.03856 14:0.039757 15:0.530257 16:0.004311 17:0.209325 18:0.799458 19:-0.051732 20:0.465352 21:0.968546 22:0.040715 23:0.774789 24:1.214993 25:0.358295 26:0.919688 27:1.565145 28:0.482117 29:0.848316 30:2.103306 31:0.442121 32:0.446671 33:2.891028 34:0.369791 35:0.119511 36:3.522834 37:0.08646 38:0.12981 39:3.457929 40:-0.08191 41:0.184417 42:2.970543 43:0.003353 44:0.177471 45:2.260419 46:0.083586 47:0.160945 48:1.46671 49:0.096519 50:0.19256 51:0.78844 52:0.064666 53:0.190404 54:0.210762 55:0.025148 56:0.180584 57:-0.161185 58:0.039039 59:0.147054 60:-0.218426 61:0.056043 62:0.11999 63:-0.091729 64:0.038081 65:0.112326 66:0.046463 67:0.038799 68:0.126218 69:0.166454 70:0.024669 71:0.15879 72:0.23088 73:-0.014849 74:0.217468 75:0.244292 76:0.018442 77:0.273511 78:0.326681 79:0.093645 80:0.328118 81:0.359013 82:0.191362 83:0.356379 84:0.512774 85:0.196631 86:0.367636 87:0.804008 88:0.06251 89:0.31255 90:1.170686 91:0.041913 92:0.249801 93:1.438209 94:0.24022 95:0.202619 96:1.484194 97:0.383443 98:0.174357 99:1.317979 100:0.322609 101:0.142264 102:1.136197 103:0.220581 104:0.10586 105:1.077759 106:0.146815 107:0.096519 108:1.031535 109:0.068019 110:0.108973 111:0.908431 112:-0.012454 113:0.130768 114:0.758503 115:-0.008383 116:0.142743 117:0.622466 118:0.031614 119:0.141306 120:0.568338 121:0.007185 122:0.116637 123:0.578876 124:-0.027782 125:0.100591 126:0.574326 127:-0.004072 128:0.116637 129:0.614083 130:0.083347 131:0.132445 132:0.701262 133:0.123583 134:0.146575 135:0.790356 136:0.093166 137:0.172441 138:0.863644 139:0.216749 140:0.208846 141:1.0962 142:0.416015 143:0.284289 144:1.565624 145:0.648571 146:0.398292 147:2.046784 148:0.831072 149:0.405237 
-0.2101756886069159 -0.8760390896417611 1:0.753234 2:0.424637 3:2.648413 4:0.515887 5:0.555884 6:2.606739 7:0.364761 8:0.552531 9:2.607697 10:0.202379 11:0.456251 12:2.680746 13:0.099393 14:0.37051 15:2.60626 16:0.181542 17:0.290037 18:1.994572 19:0.282133 20:0.212438 21:1.066023 22:0.315664 23:0.113284 24:0.313748 25:0.164777 26:-0.004072 27:-0.165256 28:-0.114482 29:-0.094364 30:-0.337937 31:-0.258183 32:-0.119032 33:-0.335303 34:-0.325723 35:-0.073048 36:-0.339853 37:-0.299617 38:-0.028022 39:-0.487147 40:-0.25004 41:0.015568 42:-0.586301 43:-0.177231 44:0.020358 45:-0.463436 46:-0.157113 47:0.00958 48:-0.220102 49:-0.165256 50:-0.004072 51:0.000719 52:-0.146815 53:-0.004311 54:0.147294 55:-0.095322 56:0.002395 57:0.179626 58:-0.001916 59:0.007185 60:0.180584 61:0.050774 62:0.026824 63:0.239262 64:0.063947 65:0.058199 66:0.507984 67:-0.010778 68:0.143222 69:0.909389 70:0.01461 71:0.277822 72:1.271755 73:0.358774 74:0.557561 75:1.740461 76:0.664618 77:0.62534 78:2.004871 79:0.743414 80:0.545585 81:2.20246 82:0.621029 83:0.353505 84:2.712599 85:0.323088 86:0.14897 87:3.200704 88:0.064905 89:0.156395 90:3.158073 91:0.066103 92:0.216989 93:2.444596 94:0.160706 95:0.204535 96:1.521316 97:0.180105 98:0.201182 99:0.775747 100:0.223934 101:0.211001 102:0.277583 103:0.215791 104:0.218426 105:-0.010059 106:0.139151 107:0.206211 108:-0.073288 109:0.111129 110:0.172681 111:0.132445 112:0.041913 113:0.154239 114:0.337458 115:-0.017484 116:0.159748 117:0.352307 118:0.028501 119:0.196871 120:0.304646 121:0.052211 122:0.22609 123:0.383922 124:0.016047 125:0.222258 126:0.593246 127:-0.054127 128:0.244053 129:0.640907 130:-0.063468 131:0.287402 132:0.676114 133:-0.007185 134:0.313029 135:0.860052 136:0.038081 137:0.350631 138:1.076322 139:0.079515 140:0.335063 141:1.284689 142:0.084544 143:0.25962 144:1.484194 145:-0.027303 146:0.213396 147:1.530897 148:-0.098914 149:0.22585 
-0.1999185165819166 -0.8339654510431159 1:-0.030656 2:0.238065 3:1.212838 4:0.068258 5:0.243573 6:1.019081 7:0.05772 8:0.229682 9:0.891666 10:-0.023711 11:0.2213 12:0.844723 13:-0.064187 14:0.212199 15:0.788201 16:-0.011017 17:0.214594 18:0.695514 19:0.045984 20:0.222737 21:0.57241 22:0.041434 23:0.236867 24:0.448108 25:0.070174 26:0.240939 27:0.413859 28:0.116398 29:0.23088 30:0.469903 31:0.097238 32:0.206211 33:0.615281 34:0.05269 35:0.17316 36:0.78389 37:-0.02898 38:0.154958 39:0.761137 40:0.009341 41:0.152084 42:0.657672 43:0.09604 44:0.167651 45:0.588217 46:0.098914 47:0.169807 48:0.626777 49:0.040476 50:0.195673 51:0.896456 52:0.034488 53:0.392065 54:1.547422 55:0.334345 56:0.597078 57:2.286765 58:0.732158 59:0.622466 60:2.715234 61:0.681144 62:0.704375 63:2.598596 64:0.399968 65:0.762574 66:2.450105 67:0.299856 68:0.675875 69:2.551175 70:0.174357 71:0.575044 72:2.460883 73:0.109692 74:0.450264 75:2.218028 76:0.19232 77:0.314945 78:1.752196 79:0.212438 80:0.183938 81:1.050216 82:0.154718 83:0.083826 84:0.341769 85:0.061792 86:0.006706 87:-0.125499 88:-0.039757 89:-0.041913 90:-0.339374 91:-0.171244 92:-0.040955 93:-0.427032 94:-0.246927 95:-0.027543 96:-0.416973 97:-0.233035 98:-0.022513 99:-0.426792 100:-0.199745 101:-0.019639 102:-0.476369 103:-0.156155 104:-0.027303 105:-0.462239 106:-0.115919 107:-0.063229 108:-0.330034 109:-0.133403 110:-0.095801 111:-0.184417 112:-0.150647 113:-0.102746 114:-0.034249 115:-0.1346 116:-0.101788 117:0.035446 118:-0.062989 119:-0.090771 120:0.053409 121:0.002635 122:-0.059636 123:0.174597 124:0.053409 125:0.004072 126:0.518761 127:0.055325 128:0.19256 129:1.055725 130:0.198308 131:0.438528 132:1.67364 133:0.514929 134:0.617676 135:2.325564 136:0.725212 137:0.605221 138:2.538721 139:0.587498 140:0.589654 141:2.647455 142:0.36069 143:0.523312 144:3.000481 145:0.189446 146:0.435654 147:3.248844 148:0.199505 149:0.408111 
-0.1981163185378234 -0.8132403004278879 1:0.193278 2:0.336979 3:2.013733 4:0.078078 5:0.248843 6:1.110092 7:0.002156 8:0.198547 9:0.449306 10:-0.005509 11:0.173399 12:0.049337 13:0.00503 14:0.155197 15:-0.11065 16:0.0194 17:0.136756 18:-0.176513 19:0.02419 20:0.1346 21:-0.158071 22:0.01916 23:0.132205 24:-0.020837 25:-0.032333 26:0.159269 27:0.156634 28:-0.02395 29:0.182021 30:0.344164 31:0.055085 32:0.199026 33:0.538161 34:0.10562 35:0.208846 36:0.669168 37:0.055564 38:0.219384 39:0.810954 40:-0.013412 41:0.243334 42:1.035846 43:-0.046942 44:0.270158 45:1.196312 46:-0.024669 47:0.277104 48:1.252116 49:0.028022 50:0.256507 51:1.196073 52:0.120709 53:0.236867 54:1.092129 55:0.111847 56:0.227048 57:0.941961 58:0.074485 59:0.219384 60:0.840173 61:-0.000958 62:0.216749 63:0.824126 64:-0.085981 65:0.220821 66:0.863165 67:-0.034009 68:0.239981 69:0.861249 70:0.154958 71:0.283091 72:0.905317 73:0.218665 74:0.350391 75:1.157992 76:0.209325 77:0.412662 78:1.397494 79:0.27399 80:0.517324 81:1.645857 82:0.286205 83:0.699585 84:1.945714 85:0.323088 86:0.838496 87:2.168451 88:0.48068 89:0.891187 90:2.074566 91:0.570733 92:0.996089 93:1.766806 94:0.443797 95:1.017644 96:1.63508 97:0.241657 98:0.907712 99:1.512694 100:0.055564 101:0.709165 102:1.423839 103:-0.046942 104:0.468466 105:1.372107 106:0.062271 107:0.264889 108:1.064586 109:0.155197 110:0.127176 111:0.629651 112:-0.069216 113:0.056283 114:0.08167 115:-0.279499 116:0.008383 117:-0.31279 118:-0.387993 119:-0.004311 120:-0.453377 121:-0.463197 122:0.022992 123:-0.496248 124:-0.454096 125:0.032812 126:-0.468226 127:-0.398052 128:0.035207 129:-0.464394 130:-0.3365 131:0.045505 132:-0.50032 133:-0.227527 134:0.036644 135:-0.418649 136:-0.156634 137:0.015089 138:-0.113284 139:-0.111129 140:0.013412 141:0.232317 142:-0.046224 143:0.041913 144:0.407872 145:0.041434 146:0.075204 147:0.311353 148:0.161903 149:0.099872 
-0.204900316635741 -0.8639764294946249 1:0.22106 2:0.10562 3:0.709165 4:0.237586 5:0.175794 6:1.381926 7:0.485231 8:0.349912 9:1.983795 10:0.749402 11:0.550615 12:2.184737 13:0.765688 14:0.583666 15:2.265449 16:0.607377 17:0.546064 18:2.526985 19:0.322849 20:0.369312 21:3.203099 22:0.055085 23:0.195673 24:3.532175 25:-0.012694 26:0.194955 27:2.910667 28:0.108734 29:0.223695 30:1.956491 31:0.21148 32:0.231119 33:1.076322 34:0.237825 35:0.246927 36:0.343685 37:0.268961 38:0.256028 39:-0.019639 40:0.229682 41:0.236388 42:-0.108973 43:0.104662 44:0.209085 45:-0.054367 46:-0.003593 47:0.176513 48:0.196631 49:-0.058678 50:0.136037 51:0.434936 52:-0.076401 53:0.122865 54:0.460802 55:-0.036644 56:0.138672 57:0.42296 58:-0.005509 59:0.17316 60:0.35111 61:0.016765 62:0.204774 63:0.315185 64:0.058438 65:0.242855 66:0.40883 67:0.154718 68:0.28357 69:0.569057 70:0.230401 71:0.295785 72:0.753713 73:0.188009 74:0.281894 75:0.944835 76:0.035207 77:0.277583 78:1.05309 79:-0.066103 80:0.319017 81:0.950344 82:-0.066103 83:0.359253 84:0.719703 85:-0.04311 86:0.375779 87:0.608574 88:0.031614 89:0.415775 90:0.655277 91:0.006227 92:0.449306 93:0.704375 94:-0.034249 95:0.420086 96:0.775028 97:-0.068737 98:0.38967 99:0.920646 100:-0.01461 101:0.366198 102:1.09165 103:0.083107 104:0.287642 105:1.212119 106:-0.020597 107:0.236628 108:1.215951 109:-0.094843 110:0.23543 111:1.080154 112:-0.011975 113:0.260578 114:0.992257 115:0.074485 116:0.298659 117:1.103146 118:0.170286 119:0.353984 120:1.511976 121:0.354463 122:0.417212 123:2.108575 124:0.62534 125:0.417691 126:2.486749 127:0.771196 128:0.422242 129:2.545187 130:0.706531 131:0.506547 132:2.429747 133:0.571931 134:0.446671 135:2.416335 136:0.357816 137:0.393502 138:2.150488 139:0.121906 140:0.371707 141:1.705014 142:0.062271 143:0.340572 144:1.338337 145:0.101309 146:0.261536 147:1.024589 148:0.069216 149:0.142983 
-0.1473808425521489 -0.6487173020283626 1:-0.037123 2:0.065384 3:0.387993 4:-0.146815 5:0.051253 6:0.005988 7:-0.205732 8:0.078078 9:-0.371228 10:-0.214115 11:0.142983 12:-0.570973 13:-0.183219 14:0.198787 15:-0.599473 16:-0.239023 17:0.217228 18:-0.493614 19:-0.265368 20:0.185854 21:-0.348236 22:-0.179387 23:0.130529 24:-0.205253 25:-0.117116 26:0.100112 27:-0.027543 28:-0.037362 29:0.076401 30:0.121188 31:0.102267 32:0.070893 33:0.233993 34:0.142743 35:0.075683 36:0.340572 37:0.136995 38:0.065384 39:0.378653 40:0.225132 41:0.043829 42:0.582469 43:0.147294 44:0.143222 45:0.944835 46:0.046703 47:0.299138 48:1.206132 49:0.277822 50:0.543909 51:1.309836 52:0.778381 53:0.654559 54:1.385519 55:1.025068 56:0.557321 57:1.658551 58:0.789638 59:0.279499 60:2.163421 61:0.124781 62:0.001916 63:2.820375 64:-0.314466 65:0.016526 66:3.047902 67:-0.273511 68:0.111129 69:2.547822 70:0.059636 71:0.117835 72:1.714595 73:0.267524 74:0.171244 75:1.030337 76:0.323088 77:0.24525 78:0.648332 79:0.337458 80:0.285247 81:0.377934 82:0.300335 83:0.302012 84:0.179147 85:0.215552 86:0.295545 87:0.211001 88:0.154958 89:0.270877 90:0.399729 91:0.091729 92:0.255549 93:0.582469 94:0.02874 95:0.243094 96:0.710363 97:0.076401 98:0.222976 99:0.742935 100:0.186333 101:0.210762 102:0.759221 103:0.193997 104:0.220102 105:0.80305 106:0.161424 107:0.259141 108:0.834904 109:0.164298 110:0.318538 111:0.845202 112:0.186333 113:0.376497 114:0.745809 115:0.34129 116:0.44236 117:0.69719 118:0.488584 119:0.418889 120:0.905557 121:0.335542 122:0.295785 123:1.253314 124:0.001916 125:0.239502 126:1.469584 127:-0.188967 128:0.296024 129:1.219304 130:-0.168609 131:0.359971 132:0.770957 133:-0.104662 134:0.392065 135:0.491219 136:-0.018442 137:0.380329 138:0.353744 139:0.037123 140:0.377934 141:0.394939 142:-0.023232 143:0.382485 144:0.455054 145:-0.146815 146:0.38943 147:0.465113 148:-0.096759 149:0.392304 
-0.3635443720396004 -0.8721729088322754 1:0.031375 2:0.369073 3:0.721859 4:0.039039 5:0.313029 6:0.917292 7:0.003593 8:0.284528 9:0.936213 10:0.007664 11:0.327639 12:0.849992 13:0.029459 14:0.38464 15:0.859812 16:0.181303 17:0.399489 18:0.899569 19:0.272074 20:0.397094 21:1.003513 22:0.187051 23:0.404758 24:1.204934 25:0.15376 26:0.467747 27:1.389351 28:0.195434 29:0.628693 30:1.691363 31:0.367875 32:0.736948 33:2.032174 34:0.594683 35:0.752276 36:2.059717 37:0.64929 38:0.827958 39:1.843207 40:0.589414 41:0.880649 42:1.680825 43:0.46152 44:0.816223 45:1.595802 46:0.229682 47:0.66845 48:1.443718 49:-0.058917 50:0.478525 51:1.417373 52:-0.196631 53:0.324046 54:1.373783 55:-0.163819 56:0.222018 57:1.047103 58:-0.060594 59:0.118553 60:0.690245 61:-0.008383 62:0.031375 63:0.48571 64:-0.114721 65:0.008143 66:0.323328 67:-0.155437 68:0.037602 69:0.09628 70:-0.091969 71:0.080712 72:-0.155676 73:-0.025387 74:0.118314 75:-0.357337 76:0.037602 77:0.130289 78:-0.43757 79:0.038799 80:0.114003 81:-0.273272 82:-0.027064 83:0.100591 84:-0.17795 85:-0.032333 86:0.080233 87:-0.144899 88:-0.010059 89:0.07233 90:-0.039997 91:-0.022034 92:0.059875 93:0.171244 94:0.028501 95:0.087658 96:0.284528 97:0.024669 98:0.298659 99:0.467987 100:0.056762 101:0.567141 102:0.965432 103:0.161664 104:0.77431 105:1.438209 106:0.427511 107:0.813109 108:1.75531 109:0.515169 110:0.656475 111:2.08702 112:0.335063 113:0.565225 114:2.246768 115:0.146336 116:0.509181 117:2.107378 118:0.175555 119:0.431583 120:2.018522 121:0.204535 122:0.351589 123:1.890389 124:0.159748 125:0.29315 126:1.671245 127:0.132445 128:0.256507 129:1.347917 130:0.048858 131:0.210043 132:0.981958 133:-0.027543 134:0.169328 135:0.656475 136:-0.007185 137:0.137235 138:0.37506 139:0.051972 140:0.117356 141:0.2692 142:0.063229 143:0.116158 144:0.336021 145:0.050056 146:0.135319 147:0.402363 148:0.082389 149:0.16813 
-0.2185805844961685 -0.8280668340949238 1:0.157832 2:0.222497 3:0.486189 4:0.16334 5:0.282852 6:0.68785 7:0.093645 8:0.320933 9:0.942201 10:0.096519 11:0.335782 12:1.095482 13:0.155437 14:0.356139 15:1.056922 16:0.146815 17:0.394699 18:0.973336 19:0.138911 20:0.397094 21:1.037283 22:0.156155 23:0.33674 24:1.323488 25:0.083826 26:0.274469 27:1.538561 28:0.025148 29:0.262015 30:1.44276 31:0.036883 32:0.295066 33:0.952739 34:0.066342 35:0.327399 36:0.486907 37:0.076641 38:0.34608 39:0.176752 40:0.089574 41:0.320693 42:0.233035 43:0.093885 44:0.25986 45:0.566662 46:0.085981 47:0.208606 48:0.81287 49:0.11065 50:0.160466 51:0.88951 52:0.086939 53:0.14921 54:0.814786 55:0.082628 56:0.146336 57:0.623184 58:0.12526 59:0.122625 60:0.526665 61:0.147533 62:0.102507 63:0.581271 64:0.013412 65:0.138432 66:0.614323 67:-0.10083 68:0.214594 69:0.673001 70:-0.016286 71:0.319975 72:0.835862 73:0.244532 74:0.483794 75:0.897653 76:0.466789 77:0.650966 78:1.354623 79:0.409788 80:0.689766 81:2.273113 82:0.240939 83:0.698867 84:2.790677 85:0.332429 86:0.806164 87:2.552612 88:0.544148 89:0.856459 90:2.224734 91:0.532173 92:0.818139 93:1.980921 94:0.274469 95:0.770957 96:1.680585 97:0.069695 98:0.675396 99:1.516047 100:0.030896 101:0.532173 102:1.4042 103:-0.002156 104:0.361887 105:1.148172 106:0.028501 107:0.219144 108:0.895498 109:0.053888 110:0.109213 111:0.720661 112:0.006946 113:0.045505 114:0.447629 115:0.000958 116:0.01437 117:0.036165 118:0.030417 119:0.0194 120:-0.277343 121:0.030896 122:0.018681 123:-0.436852 124:-0.000479 125:0.017484 126:-0.380808 127:-0.093166 128:0.012215 129:-0.238304 130:-0.151844 131:0.005269 132:-0.188967 133:-0.156634 134:0.018921 135:-0.130529 136:-0.091969 137:0.030417 138:-0.011496 139:-0.081191 140:0.034967 141:0.112805 142:-0.051014 143:0.045026 144:0.211959 145:-0.000719 146:0.083826 147:0.256986 148:0.037362 149:0.156395 
-0.2482166494825292 -0.9137661374683043 1:0.067779 2:0.308239 3:0.393741 4:0.186333 5:0.511816 6:0.747965 7:0.373144 8:0.702938 9:1.37522 10:0.619352 11:0.705812 12:2.101869 13:0.509421 14:0.573607 15:2.573209 16:0.280696 17:0.561632 18:2.508065 19:0.231838 20:0.449306 21:2.634043 22:0.156634 23:0.360211 24:2.6932 25:0.103944 26:0.371707 27:2.18785 28:0.191602 29:0.391107 30:1.497606 31:0.262734 32:0.391586 33:0.915137 34:0.253633 35:0.376976 36:0.420086 37:0.184896 38:0.332429 39:0.105381 40:0.074725 41:0.278541 42:0.063229 43:-0.058917 44:0.236867 45:0.230401 46:-0.098196 47:0.2019 48:0.470621 49:-0.032572 50:0.197829 51:0.492416 52:-0.002874 53:0.263452 54:0.349912 55:0.109931 56:0.348236 57:0.374821 58:0.097717 59:0.390149 60:0.647374 61:0.036165 62:0.411225 63:0.944835 64:0.230401 65:0.4038 66:1.182661 67:0.372905 68:0.308239 69:1.473416 70:0.26944 71:0.238304 72:1.695195 73:0.053169 74:0.266087 75:1.460004 76:-0.012454 77:0.316382 78:0.977408 79:-0.015089 80:0.357576 81:0.616957 82:0.055804 83:0.369073 84:0.455533 85:0.185135 86:0.37051 87:0.531215 88:0.128852 89:0.357097 90:0.694316 91:0.092687 92:0.343206 93:0.897174 94:0.167891 95:0.346799 96:0.969504 97:0.196392 98:0.351828 99:0.878733 100:0.14921 101:0.336261 102:0.864363 103:0.087418 104:0.305605 105:0.922562 106:0.040476 107:0.285247 108:0.902922 109:0.015328 110:0.256507 111:0.887594 112:0.039039 113:0.235191 114:0.847118 115:0.073767 116:0.23088 117:0.744612 118:0.10083 119:0.228964 120:0.662223 121:0.157592 122:0.232796 123:0.646416 124:0.157353 125:0.250759 126:0.611449 127:0.147773 128:0.29794 129:0.622705 130:0.16334 131:0.3559 132:0.863405 133:0.218905 134:0.482596 135:1.14913 136:0.287402 137:0.624621 138:1.510778 139:0.344883 140:0.685455 141:2.015648 142:0.319975 143:0.694795 144:2.230482 145:0.243573 146:0.778142 147:2.034809 148:0.306563 149:0.833706 
-0.2648310948658104 -0.9937173090533885 1:0.262494 2:0.791075 3:1.527783 4:0.133403 5:0.685215 6:1.382884 7:0.025148 8:0.534329 9:1.32732 10:0.031854 11:0.387514 12:1.18314 13:0.0673 14:0.293629 15:0.884002 16:0.036404 17:0.212917 18:0.534329 19:0.006227 20:0.142025 21:0.325004 22:-0.111129 23:0.089813 24:0.28836 25:-0.231359 26:0.069456 27:0.304646 28:-0.214833 29:0.072809 30:0.103225 31:-0.119032 32:0.091729 33:-0.208846 34:0.010778 35:0.100591 36:-0.382485 37:0.10083 38:0.090053 39:-0.319496 40:0.050774 41:0.058438 42:-0.125978 43:-0.038799 44:0.027543 45:0.084544 46:-0.077599 47:0.01437 48:0.204535 49:-0.060833 50:0.013891 51:0.29339 52:0.01916 53:0.040955 54:0.47134 55:0.031854 56:0.090053 57:0.602587 58:-0.031135 59:0.242376 60:0.574805 61:-0.003832 62:0.425116 63:0.70677 64:0.213636 65:0.630848 66:1.161345 67:0.44715 68:0.650966 69:1.708368 70:0.337219 71:0.537921 72:2.158152 73:0.146096 74:0.50511 75:2.51525 76:0.053888 77:0.421523 78:2.61105 79:0.048379 80:0.322849 81:2.571054 82:0.007185 83:0.320214 84:2.185455 85:0.007425 86:0.362845 87:1.6061 88:0.103225 89:0.373384 90:1.088536 91:0.190165 92:0.357576 93:0.719943 94:0.19256 95:0.347278 96:0.398531 97:0.194236 98:0.333387 99:0.191602 100:0.193757 101:0.313508 102:0.122625 103:0.102746 104:0.284528 105:0.122386 106:0.006706 107:0.258183 108:0.260339 109:0.008862 110:0.232556 111:0.377695 112:0.094364 113:0.254112 114:0.34608 115:0.119511 116:0.296743 117:0.382724 118:0.199984 119:0.353984 120:0.579595 121:0.337458 122:0.420326 123:0.786764 124:0.340811 125:0.334105 126:1.217628 127:0.182021 128:0.180824 129:1.758184 130:0.034967 131:0.117116 132:2.062112 133:-0.025387 134:0.146336 135:1.859254 136:-0.018681 137:0.162622 138:1.32732 139:0.012933 140:0.180824 141:0.859573 142:0.055804 143:0.227048 144:0.522593 145:0.076162 146:0.273511 147:0.388472 148:0.111847 149:0.291713 
-0.1632548557421615 -0.6720727546978903 1:0.147054 2:0.286923 3:0.612407 4:0.161424 5:0.276146 6:0.783411 7:0.144659 8:0.262494 9:0.978366 10:0.070414 11:0.242136 12:1.117995 13:-0.001916 14:0.218905 15:1.140029 16:-0.061552 17:0.217228 18:1.062431 19:0.025387 20:0.237107 21:0.830593 22:0.153042 23:0.260818 24:0.498643 25:0.19735 26:0.263931 27:0.25004 28:0.212678 29:0.241178 30:0.183459 31:0.210043 32:0.223934 33:0.337698 34:0.167172 35:0.233993 36:0.74078 37:0.174357 38:0.290037 39:1.151286 40:0.311353 41:0.38009 42:1.5388 43:0.628932 44:0.417931 45:1.870271 46:0.886876 47:0.370989 48:2.222818 49:0.757066 50:0.402603 51:2.443639 52:0.530497 53:0.479962 54:2.338018 55:0.431104 56:0.520677 57:2.080793 58:0.407153 59:0.513732 60:1.856859 61:0.371707 62:0.457209 63:1.705254 64:0.373623 65:0.353026 66:1.4909 67:0.295545 68:0.259381 69:1.138353 70:0.121188 71:0.215073 72:0.770478 73:-0.043829 74:0.18298 75:0.415536 76:-0.097477 77:0.154 78:0.106818 79:-0.085981 80:0.151605 81:-0.171244 82:-0.084065 83:0.159508 84:-0.370989 85:-0.154 86:0.171723 87:-0.455772 88:-0.20693 89:0.166454 90:-0.453377 91:-0.160227 92:0.132924 93:-0.338895 94:-0.103704 95:0.102986 96:-0.148491 97:-0.119511 98:0.084065 99:0.064666 100:-0.113045 101:0.056283 102:0.240939 103:-0.077359 104:0.029938 105:0.361169 106:-0.01461 107:0.011257 108:0.451701 109:0.079754 110:0.028261 111:0.526186 112:0.19232 113:0.075922 114:0.712279 115:0.258183 116:0.136277 117:0.982437 118:0.287881 119:0.299377 120:1.282054 121:0.593486 122:0.420565 123:1.782613 124:0.721859 125:0.345362 126:2.184497 127:0.586061 128:0.343446 129:2.357657 130:0.406195 131:0.259141 132:2.741339 133:0.135798 134:0.143701 135:3.025868 136:-0.045984 137:0.198308 138:2.626378 139:-0.014131 140:0.26944 141:1.912663 142:0.134121 143:0.305365 144:1.21188 145:0.271835 146:0.348954 147:0.58175 148:0.338895 149:0.368594 
-0.4200958152107797 -0.9100451370046513 1:0.335542 2:0.362606 3:0.006227 4:0.25507 5:0.331471 6:-0.010778 7:0.099154 8:0.294348 9:0.067779 10:-0.053409 11:0.247645 12:0.2213 13:-0.129331 14:0.209804 15:0.374821 16:-0.113045 17:0.199266 18:0.402842 19:-0.045026 20:0.21627 21:0.380808 22:0.036404 23:0.257944 24:0.351589 25:0.138432 26:0.293869 27:0.488105 28:0.186333 29:0.294108 30:0.773831 31:0.160466 32:0.240699 33:1.039199 34:0.159508 35:0.197589 36:1.165417 37:0.20693 38:0.2019 39:1.19727 40:0.286923 41:0.222018 42:1.178829 43:0.330034 44:0.229922 45:1.14458 46:0.256507 47:0.212199 48:1.214035 49:0.194715 50:0.19256 51:1.318698 52:0.113284 53:0.195434 54:1.283491 55:0.021555 56:0.216749 57:1.151046 58:-0.002156 59:0.243334 60:0.978605 61:0.035446 62:0.287881 63:0.802571 64:0.060115 65:0.330992 66:0.709165 67:0.053169 68:0.3559 69:0.726888 70:0.058917 71:0.354223 72:0.861968 73:0.10083 74:0.351589 75:0.938608 76:0.095322 77:0.357097 78:0.858854 79:0.095082 80:0.361648 81:0.80329 82:0.143462 83:0.347278 84:0.794668 85:0.131487 86:0.316382 87:0.662462 88:0.094603 89:0.295785 90:0.595641 91:0.101549 92:0.298419 93:0.620071 94:0.147054 95:0.334105 96:0.659828 97:0.207169 98:0.420326 99:0.810475 100:0.345122 101:0.533371 102:1.217388 103:0.414578 104:0.602587 105:1.751717 106:0.392065 107:0.603545 108:2.072171 109:0.292911 110:0.633243 111:2.147614 112:0.296743 113:0.646895 114:2.152644 115:0.284049 116:0.576242 117:2.294908 118:0.048619 119:0.467987 120:2.542553 121:-0.023471 122:0.392544 123:2.544948 124:0.128613 125:0.370031 126:1.877695 127:0.240699 128:0.324525 129:0.969025 130:0.283331 131:0.262734 132:0.273272 133:0.218426 134:0.169328 135:-0.117356 136:0.087658 137:0.082868 138:-0.176752 139:-0.039039 140:0.036165 141:-0.180584 142:-0.109213 143:0.023232 144:-0.186572 145:-0.109452 146:0.015568 147:-0.291474 148:-0.065145 149:0.016047 
-0.3630350294395481 -1.023182868430634 1:-0.003832 2:0.01437 3:-0.382006 4:-0.025387 5:0.007185 6:-0.261776 7:-0.080473 8:-0.00503 9:-0.097956 10:-0.101549 11:-0.010299 12:0.071372 13:-0.085981 14:-0.004551 15:0.100591 16:0.050535 17:0.039039 18:0.113284 19:0.165496 20:0.105141 21:0.252196 22:0.117595 23:0.242136 24:0.478764 25:-0.019639 26:0.440444 27:0.788919 28:0.116877 29:0.615041 30:1.358216 31:0.411704 32:0.719703 33:1.922722 34:0.452659 35:0.643063 36:2.261856 37:0.290755 38:0.643542 39:2.377296 40:0.210522 41:0.641865 42:2.312152 43:0.215552 44:0.515408 45:2.427831 46:0.150647 47:0.446432 48:2.301614 49:0.104423 50:0.444995 51:1.842489 52:0.083826 53:0.442121 54:1.293311 55:0.054367 56:0.42296 57:0.771196 58:0.041434 59:0.388233 60:0.387275 61:0.034009 62:0.359971 63:0.195434 64:0.041194 65:0.334345 66:0.196392 67:0.011017 68:0.303209 69:0.333147 70:-0.053888 71:0.279499 72:0.479483 73:-0.1152 74:0.276864 75:0.541753 76:-0.142983 77:0.325723 78:0.42296 79:-0.097477 80:0.385598 81:0.298419 82:0.021316 83:0.43278 84:0.311832 85:0.194955 86:0.458407 87:0.567859 88:0.287642 89:0.371228 90:1.198228 91:0.1825 92:0.222497 93:1.805605 94:-0.012933 95:0.200703 96:1.886078 97:-0.092927 98:0.271595 99:1.390548 100:-0.051253 101:0.321412 102:0.8658 103:-0.00479 104:0.343685 105:0.497446 106:0.029698 107:0.342009 108:0.409788 109:0.013891 110:0.330513 111:0.543909 112:-0.015807 113:0.329076 114:0.706531 115:0.020837 116:0.323807 117:0.832269 118:0.032333 119:0.321891 120:0.94747 121:-0.015568 122:0.305844 123:1.042073 124:-0.02874 125:0.289558 126:1.125899 127:-0.043829 128:0.282373 129:1.083986 130:-0.063708 131:0.289558 132:1.00016 133:-0.034967 134:0.2886 135:0.902922 136:0.023711 137:0.283331 138:0.752994 139:0.083107 140:0.265608 141:0.580553 142:0.132445 143:0.239262 144:0.460323 145:0.15855 146:0.233035 147:0.422002 148:0.12526 149:0.265847 
-0.2590585745148858 -0.8898689632601199 1:0.087658 2:0.305844 3:0.521156 4:0.035446 5:0.37051 6:0.799937 7:0.058438 8:0.484273 9:1.277264 10:0.248364 11:0.570015 12:2.041036 13:0.397813 14:0.56259 15:2.50567 16:0.499362 17:0.63492 18:2.424478 19:0.672282 20:0.728804 21:2.146177 22:0.592288 23:0.744372 24:1.786445 25:0.23088 26:0.766167 27:1.514371 28:0.05748 29:0.738385 30:1.384561 31:0.106339 32:0.595881 33:1.3563 34:0.209564 35:0.398771 36:1.408511 37:0.316382 38:0.285486 39:1.087578 40:0.246927 41:0.235191 42:0.64929 43:0.125739 44:0.180345 45:0.338656 46:0.059636 47:0.157353 48:-0.024908 49:-0.022034 50:0.141306 51:-0.2692 52:-0.122146 53:0.129571 54:-0.279259 55:-0.155197 56:0.113763 57:-0.242376 58:-0.101309 59:0.116637 60:-0.340572 61:-0.037841 62:0.126697 63:-0.386556 64:0.029459 65:0.095801 66:-0.116877 67:0.007664 68:0.060833 69:0.158071 70:-0.017244 71:0.054606 72:0.310874 73:0.030177 74:0.061792 75:0.345601 76:0.079754 77:0.076162 78:0.362606 79:0.085742 80:0.107057 81:0.373623 82:0.066103 83:0.199745 84:0.430625 85:0.040476 86:0.352307 87:0.524509 88:0.100591 89:0.516366 90:0.884481 91:0.418889 92:0.607856 93:1.676514 94:0.416015 95:0.517085 96:2.434538 97:0.119751 98:0.480441 99:2.628055 100:0.098914 101:0.436133 102:2.590932 103:0.15376 104:0.35087 105:2.503993 106:0.122625 107:0.32692 108:2.141387 109:0.120948 110:0.363564 111:1.631727 112:0.130289 113:0.395657 114:1.113684 115:0.149449 116:0.386077 117:0.72138 118:0.126218 119:0.35087 120:0.540077 121:0.063468 122:0.307521 123:0.528581 124:0.017723 125:0.262734 126:0.574565 127:-0.025387 128:0.231598 129:0.525946 130:-0.032812 131:0.21172 132:0.477806 133:0.007664 134:0.225611 135:0.426313 136:0.034009 137:0.247406 138:0.400926 139:0.078557 140:0.27902 141:0.467268 142:0.069216 143:0.333626 144:0.642105 145:0.006227 146:0.405956 147:0.746049 148:0.16334 149:0.456491 
-0.2018037269013389 -0.8328061572590716 1:0.374821 2:0.393741 3:1.374502 4:0.363085 5:0.222018 6:1.813509 7:0.125978 8:0.094364 9:2.042473 10:-0.030417 11:0.120948 12:1.59197 13:0.005269 14:0.18298 15:0.773112 16:0.039757 17:0.256746 18:0.153042 19:0.100591 20:0.310874 21:0.006227 22:0.194955 23:0.328597 24:0.277343 25:0.19232 26:0.325483 27:0.612167 28:0.176992 29:0.304167 30:0.884241 31:0.058199 32:0.256746 33:1.142664 34:-0.020358 35:0.225132 36:1.290676 37:-0.003593 38:0.204774 39:1.23583 40:-0.010299 41:0.195434 42:0.931423 43:0.011257 44:0.209085 45:0.627016 46:0.034009 47:0.213157 48:0.462957 49:0.070414 50:0.197589 51:0.402842 52:0.121906 53:0.179626 54:0.381048 55:0.098435 56:0.161424 57:0.479962 58:0.010538 59:0.178189 60:0.644739 61:-0.053648 62:0.250998 63:0.661025 64:0.04814 65:0.330752 66:0.710602 67:0.26944 68:0.417931 69:1.169967 70:0.418649 71:0.507744 72:1.95218 73:0.513253 74:0.573128 75:2.583747 76:0.52403 77:0.608574 78:2.795706 79:0.398771 80:0.68761 81:2.552612 82:0.226329 83:0.741259 84:2.113844 85:0.135558 86:0.754431 87:1.76489 88:0.122386 89:0.670845 90:1.684178 91:0.157353 92:0.516366 93:1.806563 94:0.119032 95:0.378413 96:1.76968 97:0.080233 98:0.285247 99:1.357258 100:0.096519 101:0.19232 102:0.703417 103:0.081191 104:0.093885 105:0.063708 106:0.054127 107:0.030656 108:-0.37985 109:-0.009341 110:0.001198 111:-0.486428 112:-0.081431 113:-0.006946 114:-0.403561 115:-0.125978 116:-0.001677 117:-0.337937 118:-0.086221 119:0.002395 120:-0.368594 121:-0.074006 122:-0.011257 123:-0.431343 124:-0.013891 125:-0.049098 126:-0.344164 127:0.02395 128:-0.086939 129:-0.178908 130:-0.030896 131:-0.113045 132:-0.032572 133:-0.052211 134:-0.121188 135:0.115919 136:-0.050295 137:-0.07209 138:0.207648 139:-0.065384 140:0.080233 141:0.15879 142:-0.079994 143:0.277583 144:0.006467 145:0.086939 146:0.429188 147:0.188488 148:0.380808 149:0.501757 
-0.2201826914449731 -0.9233889178117539 1:0.417212 2:0.397813 3:2.156955 4:0.307281 5:0.342727 6:2.886957 7:0.217468 8:0.405237 9:3.033771 10:0.411943 11:0.362606 12:3.118555 13:0.550376 14:0.316622 15:3.141547 16:0.49553 17:0.340811 18:2.718587 19:0.316382 20:0.38009 21:1.976849 22:0.228964 23:0.383443 24:1.155118 25:0.188009 26:0.363085 27:0.422242 28:0.132684 29:0.30297 30:0.074006 31:0.115679 32:0.24022 33:0.126697 34:0.037841 35:0.210522 36:0.284768 37:-0.053888 38:0.195194 39:0.364522 40:-0.015807 41:0.195673 42:0.383682 43:0.03377 44:0.202619 45:0.380329 46:0.02395 47:0.198787 48:0.431822 49:0.051732 50:0.205253 51:0.575523 52:0.146815 53:0.247645 54:0.65408 55:0.231598 56:0.303688 57:0.794428 58:0.146096 59:0.339135 60:0.941243 61:0.181542 62:0.331231 63:1.133563 64:0.266326 65:0.240939 66:1.440604 67:0.152802 68:0.143462 69:1.665497 70:0.0479 71:0.137953 72:1.540237 73:0.027303 74:0.17771 75:1.05788 76:0.017484 77:0.214115 78:0.621029 79:0.016526 80:0.239023 81:0.448348 82:0.030417 83:0.244771 84:0.492416 85:0.059157 86:0.243573 87:0.587498 88:0.106099 89:0.244053 90:0.651685 91:0.130529 92:0.259141 93:0.700304 94:0.133163 95:0.253633 96:0.778621 97:0.099154 98:0.214115 99:0.895498 100:0.026824 101:0.187291 102:0.963995 103:-0.039518 104:0.196152 105:0.892863 106:-0.027543 107:0.227287 108:0.784608 109:0.055804 110:0.274469 111:0.582708 112:0.12023 113:0.290995 114:0.561872 115:0.114242 116:0.296982 117:0.822929 118:0.063947 119:0.353026 120:1.160147 121:0.107057 122:0.433738 123:1.666934 124:0.325483 125:0.505349 126:2.12079 127:0.407153 128:0.545106 129:2.21204 130:0.443318 131:0.585822 132:2.116718 133:0.567141 134:0.576242 135:2.119592 136:0.447629 137:0.498643 138:2.126777 139:0.217947 140:0.449545 141:2.00032 142:0.164777 143:0.415775 144:1.725612 145:0.18274 146:0.362845 147:1.283731 148:0.171962 149:0.286205 
-0.2960276203956548 -0.6905530905376243 1:0.116158 2:0.207648 3:0.452898 4:0.03353 5:0.139151 6:0.161664 7:-0.047421 8:0.10107 9:-0.010538 10:-0.09628 11:0.10107 12:-0.073288 13:-0.129092 14:0.107057 15:-0.093166 16:-0.148491 17:0.107297 18:-0.098196 19:-0.116398 20:0.122386 21:-0.189446 22:-0.068019 23:0.136516 24:-0.239262 25:-0.030417 26:0.131726 27:-0.156395 28:-0.023232 29:0.106099 30:0.013652 31:0.013652 32:0.078796 33:0.204535 34:0.036404 35:0.07712 36:0.386796 37:0.019639 38:0.113284 39:0.53864 40:0.058917 41:0.184656 42:0.650248 43:0.117835 44:0.260099 45:0.730002 46:0.156634 47:0.392544 48:0.842807 49:0.377934 50:0.56259 51:1.249721 52:0.534329 53:0.514211 54:1.854464 55:0.487865 56:0.409309 57:2.224734 58:0.361169 59:0.32213 60:2.585663 61:0.261776 62:0.217947 63:2.749004 64:0.242615 65:0.252435 66:2.326043 67:0.340572 68:0.302491 69:1.730402 70:0.33171 71:0.305125 72:1.342648 73:0.227766 74:0.309676 75:0.920646 76:0.159269 77:0.314227 78:0.45697 79:0.118314 80:0.299856 81:0.150886 82:0.128852 83:0.280936 84:0.060594 85:0.113524 86:0.244771 87:0.171962 88:0.043589 89:0.202619 90:0.327878 91:0.047421 92:0.179147 93:0.382006 94:0.074964 95:0.175076 96:0.461281 97:0.096759 98:0.174118 99:0.531215 100:0.189686 101:0.220102 102:0.52403 103:0.250998 104:0.286923 105:0.569296 106:0.266566 107:0.323567 108:0.748683 109:0.276146 110:0.33195 111:0.945793 112:0.323328 113:0.30297 114:1.180505 115:0.295066 116:0.234712 117:1.467189 118:0.178668 119:0.196152 120:1.593886 121:0.181542 122:0.210283 123:1.496408 124:0.241897 125:0.2213 126:1.459046 127:0.2019 128:0.224892 129:1.332349 130:0.126218 131:0.244532 132:1.084704 133:0.123344 134:0.257465 135:0.843765 136:0.164059 137:0.26465 138:0.585822 139:0.224174 140:0.27902 141:0.43278 142:0.232077 143:0.275427 144:0.436133 145:0.14442 146:0.255549 147:0.549417 148:0.058917 149:0.232556 
-0.2389229473875131 -0.7075885834397871 1:0.082389 2:0.219384 3:0.753713 4:0.148731 5:0.21651 6:0.882804 7:0.103465 8:0.203098 9:1.014051 10:0.027543 11:0.206451 12:1.138113 13:-0.00024 14:0.218665 15:1.054288 16:0.070414 17:0.233514 18:0.800176 19:0.152084 20:0.261776 21:0.58654 22:0.174357 23:0.262494 24:0.587977 25:0.158311 26:0.241418 27:0.838017 28:0.103225 29:0.234233 30:1.093087 31:0.109213 32:0.259381 33:1.32253 34:0.133403 35:0.373863 36:1.409709 37:0.143222 38:0.479004 39:1.532573 40:0.22106 41:0.507265 42:1.885599 43:0.25986 44:0.554687 45:2.131328 46:0.25028 47:0.640668 48:2.088697 49:0.237346 50:0.704854 51:1.872426 52:0.159987 53:0.718027 54:1.605861 55:0.128613 56:0.657193 57:1.486589 58:0.104183 59:0.507984 60:1.617117 61:0.117595 62:0.356618 63:1.59652 64:0.149449 65:0.272553 66:1.133563 67:0.126697 68:0.225611 69:0.577439 70:0.061073 71:0.184656 72:0.232317 73:0.028022 74:0.154958 75:-0.004311 76:0.011736 77:0.153281 78:-0.17795 79:-0.015089 80:0.146336 81:-0.30273 82:-0.011017 83:0.130289 84:-0.345601 85:-0.02419 86:0.112805 87:-0.333387 88:-0.023471 89:0.102028 90:-0.349673 91:0.03353 92:0.083347 93:-0.263452 94:0.046224 95:0.070893 96:-0.096998 97:-0.002395 98:0.047421 99:0.077359 100:-0.027543 101:0.024908 102:0.270398 103:-0.030656 104:0.011257 105:0.454814 106:0.004551 107:0.030896 108:0.487865 109:0.064187 110:0.176992 111:0.452419 112:0.180345 113:0.292671 114:0.752515 115:0.379132 116:0.414099 117:1.341211 118:0.473016 119:0.36572 120:1.843926 121:0.296503 122:0.242615 123:2.209166 124:0.143462 125:0.227048 126:2.517884 127:0.061313 128:0.19256 129:2.697032 130:0.062271 131:0.162382 132:2.688649 133:0.098435 134:0.198308 135:2.328917 136:0.109213 137:0.246448 138:1.844884 139:0.074246 140:0.2886 141:1.281575 142:0.055804 143:0.322609 144:0.736948 145:0.085981 146:0.344883 147:0.324286 148:0.090292 149:0.331231 
