svm_type c_svc
kernel_type rbf
gamma 0.125
nr_class 3
total_sv 60
rho 0.6895792742994669 0.0 -0.689569924751632
label -1 0 1
nr_sv 20 20 20
SV
0.25592957121636084 2.0 1:0.077599 2:0.461281 3:0.782692 4:0.117595 5:0.482117 6:0.728565 7:0.167891 8:0.49074 9:0.756108 10:0.123823 11:0.488105 12:0.867955 13:0.064187 14:0.483554 15:0.95202 16:0.064905 17:0.489302 18:0.963995 19:0.108255 20:0.505828 21:0.888552 22:0.131966 23:0.515169 24:0.764969 25:0.143222 26:0.520438 27:0.713716 28:0.144899 29:0.521156 30:0.734073 31:0.130768 32:0.519719 33:0.804248 34:0.142983 35:0.523312 36:0.857896 37:0.169328 38:0.531934 39:0.841849 40:0.171962 41:0.531934 42:0.827719 43:0.145138 44:0.535766 45:0.816941 46:0.124302 47:0.534329 48:0.838257 49:0.121188 50:0.530497 51:0.884002 52:0.103944 53:0.533371 54:0.866997 55:0.092208 56:0.538161 57:0.828677 58:0.090771 59:0.544867 60:0.825563 61:0.100112 62:0.544627 63:0.858375 64:0.119032 65:0.537682 66:0.881128 67:0.138193 68:0.518043 69:0.952978 70:0.090771 71:0.477806 72:1.037762 73:-7.19E-4 74:0.455054 75:1.041594 76:-0.061552 77:0.440205 78:1.120869 79:-0.095082 80:0.41817 81:1.312231 82:-0.148491 83:0.384401 84:1.451621 85:-0.154958 86:0.352068 87:1.38504 88:-0.087418 89:0.335782 90:1.252356 91:-0.028261 92:0.326681 93:1.182421 94:-0.022513 95:0.299856 96:1.161345 97:-0.026824 98:0.273032 99:1.11584 100:-0.02874 101:0.24549 102:1.016446 103:-0.057001 104:0.226808 105:0.890708 106:-0.079994 107:0.227766 108:0.753473 109:-0.077838 110:0.236149 111:0.631327 112:-0.078317 113:0.249322 114:0.538161 115:-0.102267 116:0.251717 117:0.469184 118:-0.124302 119:0.262734 120:0.457209 121:-0.106818 122:0.272553 123:0.504152 124:-0.083586 125:0.285486 126:0.522593 127:-0.092687 128:0.306563 129:0.491698 130:-0.097238 131:0.344643 132:0.477567 133:-0.070414 134:0.378653 135:0.552531 136:-0.038081 137:0.404998 138:0.647613 139:0.005509 140:0.433499 141:0.699585 142:0.092208 143:0.459125 144:0.766885 145:0.171244 146:0.454096 147:0.903162 148:0.155197 149:0.44236 150:1.049019 
0.5485919213266314 2.0 1:0.123823 2:0.440923 3:1.24565 4:0.138432 5:0.450982 6:1.397015 7:0.135079 8:0.458167 9:1.345283 10:0.099393 11:0.459604 12:1.175955 13:0.183698 14:0.434936 15:1.119432 16:0.268242 17:0.381766 18:1.19751 19:0.193518 20:0.347996 21:1.252595 22:0.119511 23:0.34153 24:1.23607 25:0.147054 26:0.337458 27:1.122067 28:0.212917 29:0.323328 30:0.998723 31:0.236628 32:0.29818 33:0.897653 34:0.210283 35:0.277583 36:0.868195 37:0.153042 38:0.26465 39:0.88975 40:0.082149 41:0.274469 42:0.918969 43:0.04814 44:0.283331 45:0.861728 46:0.040715 47:0.289318 48:0.741259 49:0.032572 50:0.298419 51:0.609054 52:0.015089 53:0.305125 54:0.515887 55:0.006946 56:0.324525 57:0.491458 58:0.00503 59:0.347996 60:0.452898 61:-0.013173 62:0.375779 63:0.45673 64:-0.039039 65:0.402363 66:0.563788 67:-0.053169 68:0.420565 69:0.685694 70:-0.071611 71:0.450024 72:0.758982 73:-0.082628 74:0.483075 75:0.806164 76:-0.066103 77:0.520438 78:0.87514 79:-0.039997 80:0.552771 81:0.954894 82:-0.051972 83:0.564506 84:1.08183 85:-0.047182 86:0.546544 87:1.271037 88:-0.102986 89:0.530018 90:1.423839 91:-0.180105 92:0.529539 93:1.440604 94:-0.153042 95:0.522833 96:1.443957 97:-0.125978 98:0.465592 99:1.513892 100:-0.127176 101:0.388472 102:1.369472 103:-0.122625 104:0.363324 105:1.025068 106:-0.082868 107:0.363803 108:0.834185 109:-0.029938 110:0.352307 111:0.854782 112:0.03832 113:0.294587 114:0.955134 115:0.074246 116:0.24046 117:0.971659 118:0.074006 119:0.196871 120:0.92831 121:0.036165 122:0.165735 123:0.861249 124:0.005988 125:0.149449 126:0.768083 127:-0.030417 128:0.154479 129:0.651685 130:-0.063229 131:0.167412 132:0.545585 133:-0.063708 134:0.192799 135:0.482836 136:-0.054606 137:0.224653 138:0.43757 139:-0.045745 140:0.253872 141:0.412183 142:-0.012454 143:0.282373 144:0.469663 145:0.002156 146:0.309676 147:0.564985 148:-0.018921 149:0.350391 150:0.650008 
0.4222069368913526 2.0 1:-0.027543 2:0.392304 3:0.799458 4:0.0479 5:0.407153 6:1.007585 7:0.162382 8:0.424158 9:1.094045 10:0.188967 11:0.43781 12:1.099075 13:0.165735 14:0.434936 15:1.203737 16:0.126936 17:0.427511 18:1.317261 19:0.120709 20:0.415057 21:1.283012 22:0.126697 23:0.367157 24:1.338097 25:0.056283 26:0.285247 27:1.558439 28:0.00503 29:0.253872 30:1.585024 31:0.030177 32:0.277104 33:1.233675 34:0.121188 35:0.295306 36:0.860052 37:0.210522 38:0.294587 39:0.729044 40:0.23064 41:0.276864 42:0.730241 43:0.154479 44:0.252914 45:0.772394 46:0.018202 47:0.246448 48:0.901725 49:-0.048858 50:0.264889 51:1.007824 52:-0.060594 53:0.28381 54:0.943638 55:-0.045266 56:0.304407 57:0.757784 58:-0.014849 59:0.320214 60:0.552292 61:-0.005269 62:0.34608 63:0.42775 64:-0.025627 65:0.358055 66:0.416015 67:-0.050056 68:0.372426 69:0.51445 70:-0.071611 71:0.386556 72:0.633004 73:-0.114242 74:0.398292 75:0.730241 76:-0.132684 77:0.405237 78:0.815983 79:-0.158071 80:0.421763 81:0.828437 82:-0.176752 83:0.4426 84:0.802332 85:-0.17795 86:0.468466 87:0.848076 88:-0.187051 89:0.48068 90:0.927831 91:-0.185614 92:0.486189 93:1.034649 94:-0.220821 95:0.487626 96:1.100033 97:-0.238304 98:0.484273 99:1.152004 100:-0.216031 101:0.468945 102:1.330912 103:-0.238544 104:0.418889 105:1.467908 106:-0.262255 107:0.368833 108:1.359892 109:-0.249561 110:0.365959 111:1.08662 112:-0.215791 113:0.367636 114:0.970462 115:-0.183459 116:0.354223 117:1.00974 118:-0.123344 119:0.319256 120:1.08183 121:-0.064187 122:0.278301 123:1.095243 124:-0.063468 125:0.245969 126:1.068418 127:-0.069935 128:0.229203 129:1.003992 130:-0.053888 131:0.237346 132:0.884481 133:-0.051493 134:0.260099 135:0.738624 136:-0.038799 137:0.266566 138:0.604024 139:-0.001437 140:0.272314 141:0.53361 142:0.03377 143:0.282133 144:0.501038 145:0.014131 146:0.30297 147:0.600431 148:-0.045026 149:0.326681 150:0.671803 
0.1686839958408677 2.0 1:-0.040236 2:0.353505 3:0.667492 4:0.002635 5:0.388233 6:0.632764 7:0.089334 8:0.40859 9:0.638991 10:0.119751 11:0.40883 12:0.6924 13:0.112566 14:0.39925 15:0.860291 16:0.132205 17:0.376737 18:1.080872 19:0.128134 20:0.368594 21:1.218826 22:0.131487 23:0.388712 24:1.230322 25:0.168849 26:0.401405 27:1.066981 28:0.219623 29:0.397813 30:1.001837 31:0.224413 32:0.341769 33:1.242297 34:0.170765 35:0.302491 36:1.499282 37:0.140109 38:0.312071 39:1.37522 40:0.144899 41:0.348715 42:0.956092 43:0.233514 44:0.359732 45:0.707249 46:0.313029 47:0.331471 48:0.729523 49:0.272793 50:0.289558 51:0.808559 52:0.138911 53:0.270877 54:0.893103 55:0.039278 56:0.271116 57:0.941722 58:0.001437 59:0.290995 60:0.892863 61:0.006706 62:0.306563 63:0.778381 64:0.047661 65:0.311832 66:0.657433 67:0.033291 68:0.324525 69:0.56762 70:0.011496 71:0.340093 72:0.553729 73:0.020837 74:0.3559 75:0.59133 76:0.025627 77:0.371468 78:0.619831 79:0.036644 80:0.387514 81:0.654559 82:0.060354 83:0.405956 84:0.732876 85:0.018681 86:0.421523 87:0.80305 88:-0.050774 89:0.441402 90:0.863884 91:-0.090771 92:0.458886 93:0.919927 94:-0.076162 95:0.48547 96:0.989622 97:-0.070414 98:0.502954 99:1.06746 100:-0.068258 101:0.52906 102:1.135718 103:-0.109692 104:0.552292 105:1.118714 106:-0.173399 107:0.546783 108:1.150807 109:-0.242376 110:0.499841 111:1.268402 112:-0.311832 113:0.440205 114:1.356779 115:-0.453856 116:0.401645 117:1.255948 118:-0.526425 119:0.382964 120:1.045666 121:-0.465592 122:0.381287 123:0.992257 124:-0.335303 125:0.345601 126:1.080154 127:-0.191841 128:0.294108 129:1.137155 130:-0.076401 131:0.260339 132:1.074406 133:-0.008622 134:0.232556 135:0.980521 136:0.042631 137:0.216989 138:0.883523 139:0.066103 140:0.208846 141:0.751078 142:0.079994 143:0.206451 144:0.660786 145:0.095561 146:0.209564 147:0.580553 148:0.096998 149:0.220581 150:0.506547 
0.6921048161225993 2.0 1:0.097956 2:0.247885 3:0.550854 4:0.107297 5:0.279499 6:0.592049 7:0.102746 8:0.316143 9:0.575523 10:0.09125 11:0.35087 12:0.557321 13:0.101309 14:0.398531 15:0.574805 16:0.132205 17:0.425355 18:0.695514 19:0.178908 20:0.43278 21:0.866997 22:0.204056 23:0.44715 24:0.965911 25:0.239023 26:0.457688 27:0.964953 28:0.265608 29:0.442121 30:1.085423 31:0.237346 32:0.417452 33:1.233675 34:0.243094 35:0.425835 36:1.306244 37:0.27902 38:0.382724 39:1.383603 40:0.268721 41:0.313987 42:1.563708 43:0.252196 44:0.284049 45:1.604184 46:0.248124 47:0.309197 48:1.306004 49:0.307521 50:0.310155 51:0.948667 52:0.372426 53:0.293629 54:0.746049 55:0.368354 56:0.244053 57:0.741977 58:0.28836 59:0.197589 60:0.812151 61:0.148491 62:0.179387 63:0.920167 64:0.035686 65:0.178668 66:0.926633 67:-4.79E-4 68:0.195913 69:0.834185 70:0.036883 71:0.225132 72:0.655756 73:0.051732 74:0.257465 75:0.480441 76:0.041913 77:0.28836 78:0.393262 79:0.013412 80:0.325483 81:0.398052 82:-0.016047 83:0.359492 84:0.452898 85:-0.02395 86:0.385119 87:0.549178 88:-0.06251 89:0.4038 90:0.672521 91:-0.104662 92:0.432541 93:0.772873 94:-0.139151 95:0.464155 96:0.887115 97:-0.184896 98:0.491219 99:0.97118 100:-0.225132 101:0.517085 102:1.080633 103:-0.209804 104:0.535047 105:1.16853 106:-0.154239 107:0.547501 108:1.181703 109:-0.154 110:0.565704 111:1.12542 112:-0.193997 113:0.586061 114:1.116079 115:-0.165256 116:0.573607 117:1.335942 118:-0.157113 119:0.483554 120:1.504312 121:-0.173639 122:0.416973 123:1.417373 124:-0.159748 125:0.406195 126:1.182421 127:-0.077359 128:0.392065 129:1.054527 130:0.021795 131:0.349673 132:1.049737 133:0.080233 134:0.300575 135:1.012375 136:0.061552 137:0.249322 138:0.920406 139:0.016286 140:0.207648 141:0.885439 142:-0.02395 143:0.181782 144:0.877535 145:-0.048619 146:0.175076 147:0.848555 148:-0.073767 149:0.181063 150:0.755868 
0.0 2.0 1:-0.073048 2:0.193518 3:0.606898 4:-0.045505 5:0.215312 6:0.489302 7:-0.008862 8:0.248603 9:0.458167 10:0.016765 11:0.28836 12:0.463915 13:0.05772 14:0.325004 15:0.504631 16:0.069456 17:0.360211 18:0.537682 19:0.050056 20:0.381287 21:0.635399 22:0.037362 23:0.396615 24:0.834185 25:0.071851 26:0.411225 27:0.983874 28:0.181303 29:0.43278 30:1.042552 31:0.232317 32:0.445234 33:1.042073 34:0.221779 35:0.438289 36:1.118953 37:0.211241 38:0.445713 39:1.281575 40:0.231359 41:0.444995 42:1.275108 43:0.290037 44:0.436133 45:1.209724 46:0.343206 47:0.362366 48:1.316782 49:0.31255 50:0.313508 51:1.35606 52:0.251238 53:0.319017 54:1.171165 55:0.222737 56:0.328597 57:0.928549 58:0.244532 59:0.332908 60:0.786764 61:0.270877 62:0.332668 63:0.763293 64:0.234472 65:0.314466 66:0.740061 67:0.148012 68:0.288839 69:0.774549 70:0.051014 71:0.272074 72:0.840412 73:-0.004072 74:0.272553 75:0.866279 76:-0.006467 77:0.27902 78:0.781255 79:0.011975 80:0.300096 81:0.623184 82:0.036165 83:0.332908 84:0.484512 85:0.08646 86:0.369791 87:0.446671 88:0.09604 89:0.395178 90:0.409069 91:0.067779 92:0.415536 93:0.417212 94:0.050295 95:0.429667 96:0.592528 97:-0.002635 98:0.441163 99:0.790356 100:-0.065145 101:0.454814 102:0.922801 103:-0.11544 104:0.474214 105:0.984114 106:-0.123344 107:0.513492 108:1.020997 109:-0.096998 110:0.542232 111:1.036565 112:-0.092448 113:0.565464 114:1.043989 115:-0.120948 116:0.579834 117:1.078477 118:-0.111608 119:0.579834 120:1.25044 121:-0.114242 122:0.518761 123:1.462399 124:-0.142504 125:0.426074 126:1.561313 127:-0.157353 128:0.391825 129:1.378813 130:-0.160466 131:0.406674 132:1.056922 133:-0.123344 134:0.413141 135:0.922322 136:-0.067779 137:0.381048 138:0.929268 139:-0.001198 140:0.341769 141:0.97118 142:0.02419 143:0.30297 144:0.958008 145:-0.020358 146:0.2692 147:0.9137 148:-0.063468 149:0.25004 150:0.860052 
0.2508578787261293 2.0 1:-0.082868 2:0.243334 3:0.776226 4:-0.091969 5:0.238783 6:0.703896 7:-0.082149 8:0.246927 9:0.681383 10:-0.014849 11:0.257465 12:0.680186 13:0.022034 14:0.278541 15:0.6445 16:0.025627 17:0.305125 18:0.571452 19:0.001916 20:0.345601 21:0.522114 22:-0.016765 23:0.383443 24:0.574326 25:-0.02395 26:0.422002 27:0.63947 28:-0.017484 29:0.460083 30:0.683778 31:0.036644 32:0.476609 33:0.728565 34:0.132445 35:0.472298 36:0.814307 37:0.178189 38:0.479004 39:0.950104 40:0.171962 41:0.501278 42:1.130689 43:0.173878 44:0.526904 45:1.197749 46:0.257944 47:0.554926 48:1.175236 49:0.368594 50:0.505349 51:1.237267 52:0.393023 53:0.395657 54:1.42839 55:0.383682 56:0.330992 57:1.563708 58:0.309437 59:0.3365 60:1.339055 61:0.323807 62:0.329555 63:1.058359 64:0.387035 65:0.317819 66:0.906515 67:0.404279 68:0.291234 69:0.837778 70:0.348715 71:0.263213 72:0.792512 73:0.230161 74:0.245969 75:0.775507 76:0.117835 77:0.251956 78:0.765209 79:0.055804 80:0.258183 81:0.688089 82:0.021795 83:0.271595 84:0.573847 85:0.016765 86:0.284528 87:0.446192 88:0.029219 89:0.315185 90:0.412901 91:0.039518 92:0.348954 93:0.468466 94:0.008143 95:0.38009 96:0.510858 97:-0.026345 98:0.415296 99:0.532892 100:-0.040955 101:0.451461 102:0.564985 103:-0.0673 104:0.472298 105:0.659349 106:-0.118553 107:0.487626 108:0.786045 109:-0.156155 110:0.501996 111:0.931902 112:-0.156395 113:0.522354 114:1.058359 115:-0.150407 116:0.54343 117:1.12542 118:-0.143701 119:0.566901 120:1.108176 121:-0.131487 122:0.585582 123:1.112966 124:-0.092927 125:0.58678 126:1.23104 127:-0.097956 128:0.535287 129:1.411864 130:-0.156634 131:0.463197 132:1.50982 133:-0.182021 134:0.441642 135:1.357976 136:-0.150168 137:0.450024 138:1.131407 139:-0.121906 140:0.435415 141:1.042552 142:-0.078796 143:0.38488 144:1.105541 145:-0.023471 146:0.335542 147:1.140029 148:-0.010299 149:0.291953 150:1.052611 
0.0 2.0 1:-0.034488 2:0.261297 3:0.955613 4:-0.040955 5:0.240699 6:0.870111 7:-0.049816 8:0.241897 9:0.743654 10:-0.084305 11:0.248843 12:0.571452 13:-0.103465 14:0.253154 15:0.465113 16:-0.080712 17:0.253154 18:0.500559 19:-0.038081 20:0.270398 21:0.584864 22:-0.018202 23:0.301054 24:0.556603 25:0.006227 26:0.3365 27:0.495769 28:0.050295 29:0.370031 30:0.549897 31:0.070174 32:0.402603 33:0.698867 34:0.050774 35:0.422721 36:0.80305 37:0.058199 38:0.428709 39:0.853825 40:0.135798 41:0.426553 42:0.912982 43:0.147533 44:0.442121 45:0.955373 46:0.097238 47:0.464634 48:1.057401 49:0.112566 50:0.477327 51:1.045187 52:0.221779 53:0.483315 54:1.036804 55:0.241657 56:0.406674 57:1.334505 58:0.135798 59:0.327639 60:1.656156 61:0.107776 62:0.336021 63:1.664778 64:0.216749 65:0.380329 66:1.251637 67:0.366917 68:0.38464 69:0.878972 70:0.419847 71:0.385598 72:0.721859 73:0.391825 74:0.366677 75:0.767364 76:0.26944 77:0.333866 78:0.821492 79:0.131247 80:0.317101 81:0.831311 82:0.070414 83:0.312311 84:0.739582 85:0.07209 86:0.330034 87:0.615281 88:0.098435 89:0.344883 90:0.547501 91:0.109213 92:0.351589 93:0.560435 94:0.100351 95:0.372665 96:0.564506 97:0.039997 98:0.388472 99:0.501278 100:0.001437 101:0.411704 102:0.498404 103:-0.021076 104:0.431822 105:0.596839 106:-0.04814 107:0.448827 108:0.741019 109:-0.074246 110:0.458167 111:0.83179 112:-0.097956 113:0.47134 114:0.855501 115:-0.149449 116:0.496248 117:0.833227 118:-0.181303 119:0.522593 120:0.941003 121:-0.169328 122:0.531215 123:1.087099 124:-0.167891 125:0.547022 126:1.092129 127:-0.166693 128:0.574326 129:0.984114 130:-0.105141 131:0.593246 132:1.094524 133:-0.10586 134:0.52427 135:1.357258 136:-0.207409 137:0.444995 138:1.464794 139:-0.231598 140:0.43781 141:1.30792 142:-0.173399 143:0.453856 144:1.092847 145:-0.135798 146:0.43302 147:0.996568 148:-0.121667 149:0.385598 150:1.011656 
0.30599175702004267 2.0 1:-0.082149 2:0.346799 3:0.993454 4:-0.057959 5:0.314227 6:0.893103 7:-0.075683 8:0.294348 9:0.797063 10:-0.110889 11:0.277822 12:0.742217 13:-0.138432 14:0.263692 15:0.702938 16:-0.143462 17:0.254351 18:0.637075 19:-0.108494 20:0.256746 21:0.604503 22:-0.078078 23:0.266805 24:0.588935 25:-0.080712 26:0.287163 27:0.551094 28:-0.057001 29:0.323567 30:0.529299 31:-0.013891 32:0.366677 33:0.547022 34:-0.002874 35:0.405237 36:0.621268 37:0.0 38:0.434217 39:0.715871 40:0.029698 41:0.450264 42:0.877775 43:0.108734 44:0.443797 45:1.044229 46:0.19256 47:0.464873 48:1.102667 49:0.241657 50:0.494811 51:1.123264 52:0.285007 53:0.511337 54:1.124701 55:0.339614 56:0.511337 57:1.108894 58:0.350391 59:0.454335 60:1.29355 61:0.270637 62:0.3559 63:1.66861 64:0.227766 65:0.30273 66:1.839375 67:0.290755 68:0.315664 69:1.406595 70:0.415296 71:0.335782 72:0.901964 73:0.507265 74:0.343206 75:0.638273 76:0.480441 77:0.310874 78:0.579355 79:0.320454 80:0.280457 81:0.644021 82:0.127176 83:0.266805 84:0.71635 85:0.020118 86:0.267045 87:0.718266 88:-0.007664 89:0.283091 90:0.646655 91:0.044787 92:0.306084 93:0.541035 94:0.089813 95:0.324286 96:0.512774 97:0.047421 98:0.337458 99:0.502475 100:0.001198 101:0.357576 102:0.561153 103:-0.024429 104:0.388712 105:0.650248 106:-0.0673 107:0.412662 108:0.697669 109:-0.068498 110:0.434457 111:0.689526 112:-0.016765 113:0.464394 114:0.71659 115:-0.038081 116:0.478285 117:0.748444 118:-0.124781 119:0.483315 120:0.84616 121:-0.15879 122:0.502715 123:0.988904 124:-0.167651 125:0.530736 126:1.072729 127:-0.189686 128:0.580553 129:1.041594 130:-0.228724 131:0.648332 132:0.943398 133:-0.235191 134:0.68306 135:1.035606 136:-0.202379 137:0.599234 138:1.352947 139:-0.205732 140:0.464873 141:1.586701 142:-0.255549 143:0.388712 144:1.521795 145:-0.259381 146:0.382964 147:1.3175 148:-0.21148 149:0.36548 150:1.17835 
0.34083245106035187 2.0 1:-0.189925 2:0.333147 3:1.057162 4:-0.153521 5:0.296024 6:0.928789 7:-0.090532 8:0.264889 9:0.847358 10:-0.070174 11:0.252675 12:0.748444 13:-0.119751 14:0.244292 15:0.662941 16:-0.155676 17:0.233754 18:0.633483 19:-0.145857 20:0.227527 21:0.603305 22:-0.105141 23:0.234233 24:0.533371 25:-0.084065 26:0.254591 27:0.463915 28:-0.10586 29:0.279738 30:0.479962 31:-0.14418 32:0.29794 33:0.617436 34:-0.172681 35:0.316143 36:0.659349 37:-0.118074 38:0.362127 39:0.629411 40:-0.012454 41:0.425355 42:0.685215 43:0.052211 44:0.461281 45:0.839694 46:0.12502 47:0.46655 48:0.965672 49:0.153042 50:0.493374 51:1.051653 52:0.146575 53:0.523072 54:1.125659 55:0.168849 56:0.554447 57:1.10123 58:0.266566 59:0.587738 60:1.111768 61:0.31279 62:0.510858 63:1.307441 64:0.274469 65:0.393023 66:1.656875 67:0.203577 68:0.344643 69:1.805366 70:0.210283 71:0.380569 72:1.400847 73:0.321172 74:0.37985 75:0.909149 76:0.385119 77:0.360929 78:0.642584 79:0.353026 80:0.334345 81:0.631567 82:0.225371 83:0.296503 84:0.695993 85:0.069456 86:0.27878 87:0.757305 88:-0.055804 89:0.268242 90:0.72114 91:-0.082628 92:0.277583 93:0.642105 94:-0.042631 95:0.288839 96:0.548459 97:-0.028022 98:0.306323 99:0.470382 100:-0.05772 101:0.333626 102:0.500799 103:-0.098914 104:0.356139 105:0.570733 106:-0.097238 107:0.38464 108:0.610251 109:-0.073527 110:0.420086 111:0.653601 112:-0.057001 113:0.445953 114:0.680665 115:-0.065863 116:0.479243 117:0.656235 118:-0.10586 119:0.510139 120:0.684018 121:-0.174118 122:0.520917 123:0.820055 124:-0.209804 125:0.538879 126:0.960163 127:-0.19711 128:0.56738 129:1.039918 130:-0.188249 131:0.600192 132:1.049737 133:-0.204056 134:0.613604 135:1.065544 136:-0.196871 137:0.599473 138:1.248524 139:-0.190165 140:0.520917 141:1.551254 142:-0.211241 143:0.43278 144:1.666934 145:-0.226808 146:0.420086 147:1.361329 148:-0.171244 149:0.455533 150:1.043989 
0.0 2.0 1:-0.104902 2:0.446432 3:0.943638 4:-0.031854 5:0.398531 6:0.941722 7:0.027303 8:0.35111 9:0.917292 10:-0.002156 11:0.313269 12:0.850471 13:-0.0479 14:0.282133 15:0.796584 16:-0.074725 17:0.262973 18:0.741019 19:-0.091729 20:0.253872 21:0.654798 22:-0.097477 23:0.249082 24:0.596839 25:-0.079036 26:0.250519 27:0.568099 28:-0.0673 29:0.267045 30:0.544388 31:-0.05748 32:0.290995 33:0.528102 34:-0.060354 35:0.328597 36:0.546544 37:-0.07209 38:0.371947 39:0.595402 40:-0.06754 41:0.403561 42:0.660307 43:-0.034728 44:0.423439 45:0.746767 46:0.018202 47:0.430864 48:0.87059 49:0.094124 50:0.437331 51:0.984353 52:0.202619 53:0.453617 54:1.033212 55:0.239502 56:0.4905 57:1.066981 58:0.231838 59:0.515648 60:1.194157 61:0.271356 62:0.521156 63:1.348875 64:0.416973 65:0.511097 66:1.30792 67:0.555166 68:0.456251 69:1.284928 70:0.580792 71:0.391825 72:1.33187 73:0.515169 74:0.353505 75:1.237028 76:0.464873 77:0.324765 78:1.025547 79:0.433259 80:0.316382 81:0.776944 82:0.407393 83:0.32213 84:0.59636 85:0.361648 86:0.311353 87:0.549178 88:0.255788 89:0.290037 90:0.679707 91:0.149689 92:0.278301 93:0.766885 94:0.07233 95:0.270398 96:0.687131 97:0.054367 98:0.277583 99:0.593486 100:0.073288 101:0.304407 102:0.550376 103:0.059636 104:0.342009 105:0.499362 106:0.021795 107:0.368115 108:0.477567 109:-0.005748 110:0.39901 111:0.519001 112:0.011975 113:0.432541 114:0.602108 115:0.032572 116:0.460083 117:0.717787 118:-0.035686 119:0.474693 120:0.790596 121:-0.103225 122:0.489782 123:0.814067 124:-0.118314 125:0.521156 126:0.887355 127:-0.14418 128:0.55301 129:1.015488 130:-0.207888 131:0.590612 132:1.07225 133:-0.24525 134:0.632525 135:1.004471 136:-0.176992 137:0.66845 138:1.016925 139:-0.061313 140:0.633004 141:1.262654 142:-0.0673 143:0.506786 144:1.540716 145:-0.174357 146:0.444037 147:1.555565 148:-0.239023 149:0.464634 150:1.266965 
0.4412624149985748 2.0 1:-0.191123 2:0.494332 3:1.096919 4:-0.16334 5:0.464634 6:1.122785 7:-0.115679 8:0.407872 9:1.133563 10:-0.102028 11:0.372186 12:1.052851 13:-0.078557 14:0.339614 15:0.969025 16:-0.065863 17:0.308239 18:0.913221 19:-0.097956 20:0.277583 21:0.791315 22:-0.10562 23:0.253633 24:0.641865 25:-0.064187 26:0.245969 27:0.516127 28:-0.012454 29:0.252914 30:0.496009 31:-0.006706 32:0.260339 33:0.514211 34:-0.040955 35:0.268721 36:0.56762 37:-0.025387 38:0.285486 39:0.621029 40:0.035446 41:0.313748 42:0.630369 43:0.063947 44:0.353744 45:0.601868 46:0.099393 47:0.376018 48:0.673719 49:0.167172 50:0.388951 51:0.815265 52:0.252675 53:0.406914 54:0.914179 55:0.358055 56:0.443318 57:1.055246 58:0.411943 59:0.478525 60:1.157753 61:0.407393 62:0.50511 63:1.046624 64:0.50487 65:0.519001 66:1.081591 67:0.524988 68:0.432301 69:1.345522 70:0.444276 71:0.344404 72:1.596999 73:0.400447 74:0.313987 75:1.594365 76:0.416973 77:0.311113 78:1.234633 79:0.498883 80:0.306084 81:0.938848 82:0.511097 83:0.31734 84:0.79323 85:0.406674 86:0.299617 87:0.734313 88:0.231598 89:0.276385 90:0.7791 91:0.093645 92:0.270398 93:0.789398 94:0.026824 95:0.277343 96:0.750599 97:0.017484 98:0.290037 99:0.662941 100:0.053409 101:0.31255 102:0.547262 103:0.036404 104:0.338416 105:0.48092 106:-0.013891 107:0.362606 108:0.467029 109:-0.032333 110:0.396376 111:0.515648 112:-0.024908 113:0.42296 114:0.587019 115:-0.002156 116:0.445474 117:0.655517 118:0.024908 119:0.461041 120:0.761377 121:-0.009341 122:0.475172 123:0.82245 124:-0.101788 125:0.485949 126:0.84137 127:-0.150886 128:0.505349 129:0.92807 130:-0.178668 131:0.52427 132:1.009261 133:-0.174836 134:0.534329 135:1.027942 136:-0.19256 137:0.570494 138:0.972617 139:-0.2019 140:0.609293 141:0.88496 142:-0.108494 143:0.621508 144:1.175236 145:-0.072809 146:0.50966 147:1.520358 148:-0.147054 149:0.421763 150:1.592688 
0.0 2.0 1:-0.211959 2:0.420805 3:1.333068 4:-0.150647 5:0.442839 6:1.132126 7:-0.099154 8:0.426553 9:1.044229 10:-0.03856 11:0.392304 12:0.990341 13:0.027064 14:0.36045 15:0.944117 16:0.049577 17:0.32237 18:0.897174 19:0.030896 20:0.294348 21:0.845681 22:-0.021316 23:0.27399 24:0.771675 25:-0.041434 26:0.260339 27:0.693837 28:-0.029459 29:0.253872 30:0.622945 31:0.003593 32:0.255549 33:0.517564 34:0.054606 35:0.276864 36:0.46631 37:0.046703 38:0.301772 39:0.513492 40:0.012454 41:0.323807 42:0.582708 43:0.042152 44:0.350152 45:0.621029 46:0.081191 47:0.375779 48:0.701501 49:0.095561 50:0.396136 51:0.805206 52:0.113524 53:0.4038 54:0.884481 55:0.189207 56:0.415296 57:0.948907 58:0.267763 59:0.435415 60:1.001118 61:0.29794 62:0.460802 63:1.047821 64:0.300096 65:0.482836 66:1.040157 67:0.327639 68:0.507984 69:0.991538 70:0.392304 71:0.468466 72:1.171404 73:0.335542 74:0.383203 75:1.376178 76:0.305605 77:0.343206 78:1.434377 79:0.342967 80:0.345122 81:1.19751 82:0.4038 83:0.37051 84:0.845202 85:0.51948 86:0.377455 87:0.738624 88:0.535526 89:0.376976 90:0.732876 91:0.395897 92:0.344404 93:0.798739 94:0.226808 95:0.307281 96:0.901725 97:0.126218 98:0.287402 99:0.858136 100:0.099633 101:0.292671 102:0.72593 103:0.136516 104:0.296743 105:0.577918 106:0.167172 107:0.31255 108:0.457688 109:0.150647 110:0.342009 111:0.450503 112:0.121428 113:0.37027 114:0.568338 115:0.125739 116:0.390628 117:0.679228 118:0.130529 119:0.414578 120:0.68785 121:0.11999 122:0.444037 123:0.648571 124:0.095801 125:0.476848 126:0.671803 127:0.037602 128:0.501517 129:0.817181 130:-0.04814 131:0.523791 132:0.95681 133:-0.090771 134:0.565464 135:1.033451 136:-0.066582 137:0.589893 138:1.037523 139:-0.056043 140:0.616478 141:0.996807 142:-0.064905 143:0.639231 144:0.920646 145:-0.023471 146:0.663899 147:1.039918 148:0.018442 149:0.593486 150:1.390548 
0.5021956627400183 2.0 1:-0.005509 2:0.476609 3:1.633643 4:-0.109213 5:0.414099 6:1.463118 7:-0.13963 8:0.428948 9:1.134042 10:-0.112566 11:0.429188 12:0.960642 13:-0.049577 14:0.390388 15:0.940045 16:0.004072 17:0.348236 18:0.958008 19:0.015568 20:0.318298 21:0.920885 22:7.19E-4 23:0.302491 24:0.835383 25:-0.015328 26:0.289079 27:0.738864 28:-0.020358 29:0.278062 30:0.641865 31:-0.039757 32:0.272074 33:0.563788 34:-0.062031 35:0.27423 36:0.523551 37:-0.056283 38:0.286205 39:0.564746 40:-0.037362 41:0.309916 42:0.614323 43:-0.030896 44:0.344643 45:0.602108 46:0.013891 47:0.382964 48:0.611928 49:0.07209 50:0.433259 51:0.665097 52:0.102507 53:0.478046 54:0.738864 55:0.140109 56:0.506068 57:0.823168 58:0.208127 59:0.510618 60:0.884241 61:0.253393 62:0.512295 63:0.898611 64:0.294348 65:0.525467 66:0.920406 67:0.311113 68:0.540077 69:0.940285 70:0.299617 71:0.546304 72:0.931184 73:0.368354 74:0.538879 75:1.088536 76:0.417691 77:0.449545 78:1.387674 79:0.383203 80:0.355421 81:1.68298 82:0.315185 83:0.321172 84:1.607777 85:0.311113 86:0.362606 87:1.121827 88:0.422002 89:0.388951 90:0.769041 91:0.499122 92:0.385359 93:0.650966 94:0.44715 95:0.335063 96:0.663899 97:0.310874 98:0.291474 99:0.67827 100:0.185135 101:0.272314 102:0.703896 103:0.088137 104:0.260578 105:0.705094 106:-0.02874 107:0.267045 108:0.697669 109:-0.078078 110:0.290516 111:0.699106 112:7.19E-4 113:0.336261 114:0.708207 115:0.084544 116:0.385598 117:0.656954 118:0.093885 119:0.416973 120:0.526425 121:0.07712 122:0.449306 123:0.473256 124:0.061073 125:0.468705 126:0.54343 127:0.042871 128:0.497685 129:0.677791 130:0.011257 131:0.516606 132:0.785327 133:0.012933 134:0.536245 135:0.86556 136:-0.010778 137:0.569536 138:0.886876 139:-0.069935 140:0.602826 141:0.902922 142:-0.10586 143:0.627974 144:0.982437 145:-0.110171 146:0.659349 147:1.028182 148:-0.07712 149:0.681623 150:0.950583 
0.2725165689289415 2.0 1:-0.0194 2:0.685455 3:1.028182 4:-0.028501 5:0.608096 6:1.333068 7:-0.130289 8:0.513013 9:1.499282 10:-0.242376 11:0.468466 12:1.329236 13:-0.262015 14:0.475411 15:1.032014 16:-0.243334 17:0.478764 18:0.887115 19:-0.189446 20:0.441402 21:0.915137 22:-0.108255 23:0.385838 24:1.015967 25:-0.056043 26:0.337698 27:1.051414 28:-0.033291 29:0.305605 30:0.980521 31:-0.016765 32:0.291953 33:0.892863 34:-0.023471 35:0.276864 36:0.811912 37:-0.050056 38:0.263213 39:0.704375 40:-0.053648 41:0.254112 42:0.610251 43:-0.045266 44:0.257225 45:0.564267 46:-0.031614 47:0.27399 48:0.541514 49:-0.023232 50:0.292432 51:0.531694 52:-0.012215 53:0.319975 54:0.565225 55:-9.58E-4 56:0.356618 57:0.652164 58:0.016526 59:0.389909 60:0.707728 61:0.059396 62:0.425835 63:0.672761 64:0.12526 65:0.473735 66:0.756108 67:0.167172 68:0.508223 69:0.879691 70:0.183698 71:0.525228 72:0.934058 73:0.19711 74:0.564506 75:1.011896 76:0.220102 77:0.607377 78:1.041355 79:0.279738 80:0.607377 81:1.110331 82:0.315903 83:0.541993 84:1.258583 85:0.307042 86:0.461999 87:1.521316 88:0.252196 89:0.388951 90:1.640588 91:0.121428 92:0.394939 93:1.294508 94:0.131247 95:0.425355 96:0.902443 97:0.261776 98:0.423679 99:0.763772 100:0.30297 101:0.387035 102:0.82221 103:0.22585 104:0.35087 105:0.818618 106:0.120948 107:0.346799 108:0.78389 109:-0.002156 110:0.353984 111:0.758263 112:-0.073527 113:0.34608 114:0.75515 115:-0.107297 116:0.32213 117:0.676354 118:-0.098675 119:0.322849 120:0.622945 121:-0.099154 122:0.330273 123:0.644021 124:-0.09125 125:0.349673 126:0.680186 127:-0.061073 128:0.380808 129:0.706052 130:-0.042392 131:0.402603 132:0.710602 133:-0.038081 134:0.417452 135:0.689526 136:-0.032812 137:0.436612 138:0.666294 139:-0.040715 140:0.456251 141:0.680665 142:-0.074485 143:0.468466 144:0.715392 145:-0.132684 146:0.464394 147:0.791793 148:-0.174357 149:0.463436 150:0.902922 
0.47913058805475656 2.0 1:-0.183938 2:0.462478 3:1.003753 4:-0.162861 5:0.466071 6:1.003753 7:-0.132684 8:0.480201 9:0.968067 10:-0.119032 11:0.499122 12:0.985551 13:-0.140348 14:0.513492 15:1.101949 16:-0.153521 17:0.472777 18:1.325164 19:-0.11041 20:0.383443 21:1.586701 22:-0.076401 23:0.310874 24:1.574007 25:-0.083826 26:0.284049 27:1.229124 28:-0.079275 29:0.288121 30:1.018602 31:-0.060354 32:0.253154 33:1.022434 34:-0.048379 35:0.186093 36:1.109373 37:-0.048858 38:0.141067 39:1.113684 40:-0.040476 41:0.121667 42:1.030337 43:-0.046224 44:0.108973 45:0.935734 46:-0.077599 47:0.107536 48:0.855501 49:-0.082389 50:0.11544 51:0.794907 52:-0.066103 53:0.151365 54:0.758024 55:-0.03856 56:0.188249 57:0.763053 58:-0.011257 59:0.212917 60:0.800895 61:0.006227 62:0.229682 63:0.856699 64:0.011257 65:0.240699 66:0.905557 67:0.002395 68:0.256507 69:0.90867 70:-0.007185 71:0.287163 72:0.889989 73:0.008383 74:0.323088 75:0.872506 76:0.073048 77:0.367157 78:0.890947 79:0.154239 80:0.400926 81:0.900288 82:0.266805 83:0.430625 84:0.955134 85:0.334345 86:0.460323 87:0.946991 88:0.294108 89:0.492416 90:0.783171 91:0.275188 92:0.516127 93:0.711081 94:0.344883 95:0.462957 96:1.000639 97:0.293869 98:0.30297 99:1.455453 100:0.176992 101:0.185375 102:1.755549 103:0.093406 104:0.164059 105:1.603466 106:0.115919 107:0.182021 108:1.173799 109:0.227766 110:0.202619 111:0.860052 112:0.335063 113:0.223934 114:0.742696 115:0.364761 116:0.232077 117:0.747007 118:0.286444 119:0.24525 120:0.724254 121:0.1346 122:0.260578 123:0.768562 124:0.018442 125:0.26441 126:0.820773 127:-0.040715 128:0.262494 129:0.825803 130:-0.041194 131:0.270398 132:0.804966 133:-0.027064 134:0.278062 135:0.763053 136:-0.00479 137:0.289558 138:0.742935 139:0.013891 140:0.304407 141:0.787961 142:0.035686 143:0.316861 144:0.792033 145:0.040476 146:0.330992 147:0.784848 148:0.027303 149:0.345601 150:0.787722 
0.18177838847286948 2.0 1:0.026106 2:0.363085 3:0.833946 4:0.042392 5:0.380329 6:0.827719 7:0.074006 8:0.395897 9:0.841849 10:0.08167 11:0.402603 12:0.883283 13:0.08191 14:0.408111 15:0.925436 16:0.079036 17:0.412422 18:0.970222 19:0.063947 20:0.407393 21:1.003992 22:0.027782 23:0.401166 24:1.001358 25:0.00982 26:0.392065 27:1.018602 28:-0.029698 29:0.403561 30:0.967827 31:-0.049337 32:0.423918 33:0.953936 34:-0.017005 35:0.419847 36:1.121109 37:-0.001437 38:0.340572 39:1.345522 40:-0.021795 41:0.265368 42:1.457848 43:-0.067061 44:0.265129 45:1.294269 46:-0.060354 47:0.291953 48:1.110331 49:0.001437 50:0.271356 51:1.115121 52:0.084784 53:0.212199 54:1.218826 55:0.11065 56:0.167891 57:1.218107 58:0.0673 59:0.138911 60:1.088297 61:0.026345 62:0.13484 63:0.917772 64:-2.4E-4 65:0.145617 66:0.758503 67:0.006467 68:0.170765 69:0.653601 70:0.051972 71:0.197829 72:0.591809 73:0.076162 74:0.224174 75:0.58175 76:0.079036 77:0.237107 78:0.61552 79:0.09149 80:0.250998 81:0.684257 82:0.074964 83:0.261057 84:0.764251 85:0.058678 86:0.270877 87:0.819097 88:0.078078 89:0.294827 90:0.827 91:0.106099 92:0.33195 93:0.796584 94:0.11544 95:0.3559 96:0.820294 97:0.15855 98:0.359492 99:0.869871 100:0.226808 101:0.373863 102:0.88496 103:0.286923 104:0.39422 105:0.90388 106:0.299377 107:0.425116 108:0.949625 109:0.290995 110:0.463676 111:0.988185 112:0.353265 113:0.507265 114:1.06291 115:0.411225 116:0.482357 117:1.20709 118:0.388712 119:0.382964 120:1.424079 121:0.341051 122:0.287402 123:1.576641 124:0.251956 125:0.310874 126:1.379292 127:0.310395 128:0.356858 129:1.03872 130:0.435415 131:0.356858 132:0.802332 133:0.479483 134:0.3365 135:0.701262 136:0.424637 137:0.313987 138:0.671563 139:0.273032 140:0.306323 141:0.676833 142:0.107776 143:0.30273 144:0.701501 145:0.026824 146:0.307042 147:0.722577 148:0.029698 149:0.323807 150:0.698148 
0.5479785297568169 2.0 1:0.061313 2:0.340332 3:0.637794 4:0.053648 5:0.362845 6:0.57217 7:0.015807 8:0.386317 9:0.530018 10:-0.030177 11:0.422481 12:0.550854 13:-0.050056 14:0.451222 15:0.584145 16:-0.060115 17:0.473016 18:0.641147 19:-0.068498 20:0.50032 21:0.729044 22:-0.061792 23:0.528341 24:0.785087 25:-0.070893 26:0.564746 27:0.75994 28:-0.085742 29:0.595402 30:0.727607 31:-0.106578 32:0.620789 33:0.788919 34:-0.107057 35:0.642344 36:0.913221 37:-0.088855 38:0.657912 39:0.92831 40:-0.039278 41:0.661025 42:0.88951 43:-0.026585 44:0.678509 45:0.830832 46:-0.017244 47:0.709405 48:0.920885 49:0.037602 50:0.640189 51:1.235351 52:0.03832 53:0.514929 54:1.420247 55:-0.027782 56:0.46631 57:1.316063 58:-0.013173 59:0.488345 60:1.177392 61:0.0867 62:0.463915 63:1.186493 64:0.19256 65:0.399968 66:1.170446 67:0.246448 68:0.34632 69:1.085662 70:0.251238 71:0.30297 72:1.015249 73:0.190165 74:0.269919 75:0.891426 76:0.112566 77:0.251477 78:0.736708 79:0.059396 80:0.236867 81:0.612167 82:0.051014 83:0.233754 84:0.499122 85:0.051732 86:0.25962 87:0.4038 88:0.097238 89:0.279978 90:0.366917 91:0.142504 92:0.300814 93:0.421044 94:0.188249 95:0.319975 96:0.51445 97:0.198308 98:0.359492 99:0.594204 100:0.190644 101:0.403082 102:0.680425 103:0.222976 104:0.444037 105:0.745809 106:0.319256 107:0.469424 108:0.837778 109:0.388712 110:0.467508 111:0.940285 112:0.386077 113:0.449306 114:1.040157 115:0.363564 116:0.44739 117:1.10099 118:0.367875 119:0.46152 120:1.045905 121:0.438528 122:0.436373 123:1.078956 124:0.511097 125:0.334584 126:1.146017 127:0.573847 128:0.279978 129:1.063628 130:0.583666 131:0.290755 132:0.844963 133:0.522114 134:0.271835 135:0.79826 136:0.50511 137:0.234712 138:0.987706 139:0.493614 140:0.224892 141:1.196552 142:0.374581 143:0.237346 144:1.19751 145:0.240939 146:0.249322 147:1.072729 148:0.171244 149:0.25507 150:1.012375 
0.12273100414033651 2.0 1:0.123344 2:0.241657 3:1.052851 4:0.070174 5:0.252196 6:1.008303 7:0.058678 8:0.275667 9:0.823408 10:0.074006 11:0.302012 12:0.608335 13:0.091969 14:0.34129 15:0.548699 16:0.060115 17:0.3753 18:0.585822 19:0.031854 20:0.391825 21:0.73072 22:0.049098 23:0.400208 24:0.842089 25:0.060594 26:0.425595 27:0.816223 28:0.028501 29:0.449785 30:0.755868 31:-0.038081 32:0.464873 33:0.798021 34:-0.101549 35:0.486189 36:0.895019 37:-0.109692 38:0.506307 39:0.916813 40:-0.074246 41:0.510379 42:0.896935 43:-0.058199 44:0.510139 45:0.873224 46:-0.112566 47:0.519001 48:0.881367 49:-0.094364 50:0.535766 51:1.09165 52:-0.050056 53:0.462957 54:1.364203 55:-0.096998 56:0.363564 57:1.462878 58:-0.119032 59:0.344883 60:1.368035 61:-0.109213 62:0.36069 63:1.173081 64:-0.096519 65:0.34129 66:1.094763 67:-0.069935 68:0.302251 69:1.010219 70:-0.010538 71:0.278062 72:0.939087 73:-0.013173 74:0.252435 75:0.932621 76:-0.039278 77:0.229922 78:0.878014 79:-0.039278 80:0.232077 81:0.768083 82:-0.016526 83:0.242376 84:0.65384 85:-0.009101 86:0.251238 87:0.57217 88:0.013412 89:0.263692 90:0.560435 91:0.045266 92:0.270877 93:0.629411 94:0.045984 95:0.273272 96:0.684497 97:0.035925 98:0.290755 99:0.707968 100:0.047182 101:0.320933 102:0.745809 103:0.097956 104:0.340811 105:0.773591 106:0.158071 107:0.356139 108:0.800655 109:0.212917 110:0.362845 111:0.842807 112:0.256267 113:0.356139 114:0.911065 115:0.325004 116:0.336021 117:1.011656 118:0.372186 119:0.33674 120:1.001118 121:0.391825 122:0.343685 123:0.901006 124:0.483554 125:0.343685 126:1.058599 127:0.475411 128:0.236867 129:1.382884 130:0.371228 131:0.153281 132:1.648013 133:0.294827 134:0.172681 135:1.501198 136:0.328118 137:0.219384 138:1.044468 139:0.430385 140:0.235909 141:0.834664 142:0.475411 143:0.224653 144:0.887594 145:0.401645 146:0.228245 147:0.955134 148:0.279499 149:0.239262 150:1.066742 
0.4107071528670636 2.0 1:0.156634 2:0.260578 3:1.04854 4:0.110889 5:0.277104 6:0.852148 7:0.109213 8:0.289318 9:0.606898 10:0.104662 11:0.30273 12:0.463676 13:0.090771 14:0.313508 15:0.460562 16:0.066582 17:0.318777 18:0.499841 19:0.032812 20:0.327878 21:0.592049 22:0.011975 23:0.340093 24:0.683299 25:-9.58E-4 26:0.359013 27:0.751318 28:0.005509 29:0.38009 30:0.792752 31:0.008862 32:0.403321 33:0.796105 34:-0.028022 35:0.424876 36:0.777423 37:-0.076401 38:0.454575 39:0.822929 40:-0.083586 41:0.484512 42:0.910586 43:-0.065624 44:0.501038 45:0.969504 46:-0.09628 47:0.514929 48:0.946751 49:-0.069935 50:0.522833 51:0.902683 52:0.025148 53:0.563548 54:1.029619 55:0.048619 56:0.48571 57:1.358695 58:-0.002874 59:0.36045 60:1.574486 61:-0.092448 62:0.330273 63:1.49545 64:-0.094124 65:0.356379 66:1.265528 67:-0.015089 68:0.354942 69:1.170686 70:0.093645 71:0.311353 72:1.166854 73:0.150168 74:0.27878 75:1.143382 76:0.136995 77:0.257465 78:1.047582 79:0.095082 80:0.246208 81:0.976929 82:0.03377 83:0.230401 84:0.887115 85:0.018921 86:0.21148 87:0.757784 88:0.03832 89:0.204774 90:0.623184 91:0.043589 92:0.21148 93:0.54343 94:0.056043 95:0.221539 96:0.530976 97:0.087658 98:0.233514 99:0.545585 100:0.126697 101:0.249082 102:0.542711 103:0.156634 104:0.277104 105:0.5578 106:0.151365 107:0.302251 108:0.567859 109:0.126218 110:0.325244 111:0.658391 112:0.165496 113:0.331231 114:0.79347 115:0.268482 116:0.333387 117:0.924957 118:0.333387 119:0.334345 120:0.945554 121:0.364761 122:0.340093 123:0.965193 124:0.39901 125:0.331231 126:1.061712 127:0.392544 128:0.319496 129:1.11081 130:0.445234 131:0.333387 132:1.100033 133:0.521875 134:0.280457 135:1.232238 136:0.500559 137:0.187291 138:1.466471 139:0.428709 140:0.156395 141:1.544069 142:0.372186 143:0.190165 144:1.235112 145:0.39446 146:0.209325 147:0.960642 148:0.444276 149:0.222258 150:0.857417 
-0.3107338391353947 0.31082016034569826 1:1.15871 2:0.771675 3:2.897255 4:0.637075 5:0.5772 6:3.160228 7:0.001437 8:0.718266 9:2.060196 10:-0.008862 11:0.751797 12:1.296424 13:0.164298 14:0.681144 15:0.905796 16:0.155197 17:0.517085 18:0.450982 19:0.074725 20:0.331231 21:0.428469 22:-0.032093 23:0.201182 24:0.484033 25:-0.214354 26:0.143701 27:0.274469 28:-0.319975 29:0.140348 30:0.1346 31:-0.328118 32:0.173639 33:0.041194 34:-0.304167 35:0.228964 36:-0.10586 37:-0.444276 38:0.313987 39:0.029219 40:-0.593965 41:0.388472 42:0.489782 43:-0.585103 44:0.482836 45:0.886876 46:-0.440205 47:0.543669 48:0.919688 49:-0.477088 50:0.632525 51:0.834664 52:-0.523551 53:0.863884 54:1.060754 55:-0.155676 56:1.120151 57:2.05828 58:0.346799 59:1.0004 60:2.733436 61:0.536484 62:0.78389 63:2.88049 64:0.594204 65:0.64905 66:2.525309 67:0.619831 68:0.475172 69:1.590772 70:0.501517 71:0.321891 72:0.797302 73:0.373623 74:0.175076 75:0.505589 76:0.307042 77:0.032572 78:0.395178 79:0.28381 80:-0.107057 81:0.367396 82:0.315424 83:-0.205493 84:0.447869 85:0.267284 86:-0.222737 87:0.453856 88:0.263213 89:-0.194955 90:0.460083 91:0.383203 92:-0.142264 93:0.202858 94:0.467747 95:-0.069216 96:-0.267045 97:0.61552 98:-0.015568 99:-0.479483 100:0.792272 101:-0.018442 102:-0.071132 103:0.67803 104:0.019879 105:0.621268 106:0.428709 107:0.188488 108:0.844005 109:0.585822 110:0.527862 111:0.519719 112:1.037523 113:0.934776 114:1.585503 115:1.206611 116:0.722338 117:3.030179 118:0.688808 119:0.569775 120:3.296984 121:0.126936 122:0.787003 123:2.084386 124:0.169328 125:0.871548 126:1.324925 127:0.296264 128:0.813109 129:1.21643 130:0.169567 131:0.647374 132:0.949386 133:-0.064187 134:0.470621 135:0.593486 136:-0.160945 137:0.357576 138:0.202379 139:-0.196392 140:0.245969 141:-0.011496 142:-0.274948 143:0.163101 144:0.01916 145:-0.42799 146:0.165256 147:0.101788 148:-0.509181 149:0.228245 150:-0.069456 
-0.31457967149070565 0.31486845031735666 1:-0.484991 2:0.30273 3:-0.232317 4:-0.442839 5:0.366677 6:0.065863 7:-0.530497 8:0.407872 9:0.598036 10:-0.651445 11:0.513971 12:1.08662 13:-0.606179 14:0.77886 15:1.277503 16:-0.28357 17:1.03393 18:1.281575 19:0.203098 20:1.22625 21:1.768243 22:0.42823 23:1.12518 24:2.474534 25:0.378174 26:0.926873 27:2.733196 28:0.520198 29:0.715632 30:2.076722 31:0.651924 32:0.532652 33:1.090692 34:0.520917 35:0.367636 36:0.487387 37:0.447629 38:0.18298 39:0.283331 40:0.323567 41:-0.01916 42:0.232796 43:0.104662 44:-0.136995 45:0.457928 46:0.03832 47:-0.117595 48:0.764011 49:0.13939 50:-0.066821 51:0.507026 52:0.344404 53:-0.054127 54:0.076401 55:0.511097 56:-0.002874 57:-0.072569 58:0.626777 59:0.026106 60:-0.074246 61:0.644979 62:0.006227 63:0.287402 64:0.502715 65:0.009101 66:0.739582 67:0.355421 68:0.11544 69:1.187451 70:0.372186 71:0.381766 72:1.371628 73:0.708686 74:0.639231 75:0.959684 76:1.178829 77:0.730481 78:1.335223 79:1.241818 80:0.583666 81:2.170606 82:0.604503 83:0.448348 84:2.618715 85:0.105381 86:0.462239 87:2.152644 88:0.00479 89:0.498643 90:1.171883 91:0.070653 92:0.515887 93:0.683299 94:0.151126 95:0.461999 96:0.674438 97:0.034249 98:0.340332 99:0.614562 100:-0.182021 101:0.212678 102:0.520198 103:-0.455772 104:0.158071 105:0.552292 106:-0.580553 107:0.180345 108:0.501996 109:-0.431104 110:0.226808 111:0.198787 112:-0.349912 113:0.244532 114:-0.171244 115:-0.514929 116:0.255549 117:-0.22585 118:-0.672761 119:0.308718 120:0.195194 121:-0.689287 122:0.362366 123:0.5772 124:-0.578158 125:0.426313 126:0.75994 127:-0.390628 128:0.538161 129:0.82221 130:-0.388472 131:0.815265 132:0.906994 133:-0.249082 134:1.060515 135:1.546943 136:0.110889 137:0.993933 138:2.141387 139:0.310155 140:0.781974 141:2.392385 142:0.336261 143:0.684497 144:2.387595 145:0.367157 146:0.503194 147:1.817101 148:0.38943 149:0.349194 150:1.05333 
-0.4496402751828218 0.4499043156082939 1:0.37051 2:0.229922 3:0.511337 4:0.300575 5:0.103465 6:0.41817 7:0.248843 8:0.013412 9:0.484752 10:0.16837 11:-0.061792 12:0.607616 13:0.071851 14:-0.099393 15:0.780537 16:0.136037 17:-0.090532 18:0.666534 19:0.33171 20:-0.030896 21:0.23064 22:0.431343 23:0.036404 24:-0.044547 25:0.45218 26:0.088376 27:0.088376 28:0.393262 29:0.094843 30:0.41338 31:0.451701 32:0.121906 33:0.719703 34:0.390628 35:0.251717 36:1.089973 37:0.258902 38:0.396615 39:1.233196 40:0.341051 41:0.596599 42:1.174039 43:0.800416 44:0.660307 45:0.918969 46:0.898851 47:0.361408 48:1.607298 49:0.568338 50:0.159269 51:2.535368 52:0.044068 53:0.226808 54:2.135639 55:-0.1152 56:0.381287 57:1.278701 58:0.173878 59:0.342488 60:0.660546 61:0.347038 62:0.304167 63:0.407872 64:0.191362 65:0.253393 66:0.631088 67:-0.124541 68:0.226329 69:0.877535 70:-0.306802 71:0.275188 72:0.831551 73:-0.359013 74:0.263692 75:0.916574 76:-0.231598 77:0.218186 78:0.839215 79:-0.049337 80:0.235909 81:0.476369 82:-0.268721 83:0.267524 84:0.04335 85:-0.482596 86:0.252435 87:0.494811 88:-0.381527 89:0.291474 90:1.152723 91:-0.182021 92:0.238065 93:1.402044 94:-0.131966 95:0.293869 96:0.993454 97:-0.078557 98:0.358534 99:0.738145 100:0.206451 101:0.403561 102:1.060275 103:0.298898 104:0.26441 105:1.667173 106:0.079275 107:0.184177 108:2.152404 109:0.104902 110:0.234472 111:1.979005 112:0.341769 113:0.215073 114:1.417133 115:0.402124 116:0.183219 117:0.962319 118:0.398292 119:0.109213 120:0.695035 121:0.396855 122:-0.005988 123:0.608814 124:0.302012 125:-0.053409 126:0.588217 127:0.208367 128:-0.065624 129:0.680425 130:0.133403 131:-0.039757 132:0.71156 133:0.176752 134:-0.020118 135:0.457928 136:0.291953 137:-0.017244 138:0.197589 139:0.354463 140:-0.011736 141:0.176273 142:0.40859 143:-0.073527 144:0.558758 145:0.443558 146:-0.109931 147:1.090692 148:0.46176 149:-0.083107 150:1.195115 
-0.3166310471929951 0.3166064993084749 1:0.440205 2:0.015568 3:1.049977 4:0.505828 5:0.118793 6:0.867237 7:0.595641 8:0.262734 9:0.906754 10:0.650966 11:0.272314 12:1.288042 13:0.690963 14:0.164538 15:1.924877 16:0.464155 17:0.128613 18:1.893263 19:0.148012 20:0.330992 21:1.407553 22:0.01437 23:0.502954 24:0.948907 25:0.019639 26:0.489302 27:0.613604 28:0.094364 29:0.418889 30:0.510858 31:-0.090292 32:0.300096 33:0.542472 34:-0.383922 35:0.246687 36:0.641386 37:-0.475172 38:0.387275 39:0.770478 40:-0.456012 41:0.489302 42:0.674677 43:-0.391346 44:0.431104 45:0.360929 46:-0.530257 47:0.447629 48:0.160945 49:-0.782453 50:0.541035 51:0.393741 52:-0.73599 53:0.406435 54:0.899569 55:-0.52403 56:0.30297 57:1.105302 58:-0.313987 59:0.420565 60:0.900048 61:0.136277 62:0.538161 63:0.886636 64:0.551334 65:0.702459 66:1.450663 67:1.078956 68:0.481159 69:2.675955 70:1.255709 71:0.133403 72:3.150169 73:0.819097 74:0.059396 75:2.289639 76:0.628932 77:-0.022753 78:1.311273 79:0.583666 80:0.102267 81:0.721859 82:0.594444 83:0.08646 84:0.417452 85:0.498164 86:-0.006946 87:0.381287 88:0.549178 89:-0.084784 90:0.146575 91:0.627735 92:-0.072569 93:0.228724 94:0.535287 95:-0.04814 96:0.592288 97:0.372665 98:-0.06251 99:0.662223 100:0.326202 101:-0.069456 102:0.470621 103:0.423679 104:-0.107297 105:0.118553 106:0.581511 107:-0.133163 108:-0.089574 109:0.575044 110:-0.116158 111:0.108255 112:0.501278 113:-0.093885 114:0.820055 115:0.459844 116:-0.057241 117:1.198468 118:0.634201 119:0.101788 120:0.799937 121:0.931184 122:0.792272 123:0.960882 124:1.270558 125:0.665336 126:2.227368 127:1.110092 128:0.114721 129:3.26992 130:0.318538 131:0.395657 132:2.622067 133:0.05293 134:0.657433 135:1.531855 136:0.23088 137:0.654798 138:1.085902 139:0.325483 140:0.569296 141:0.798021 142:0.18298 143:0.474932 144:0.400208 145:-0.149928 146:0.395657 147:0.092208 148:-0.396136 149:0.373863 150:0.131487 
-0.28387146591457907 0.2838211332541995 1:-0.43781 2:0.348236 3:0.376497 4:-0.301054 5:0.334584 6:0.39901 7:-0.265608 8:0.387993 9:-0.191123 10:-0.406195 11:0.462718 12:-0.571212 13:-0.560195 14:0.545825 15:-0.095561 16:-0.694316 17:0.529778 18:0.693837 19:-0.676833 20:0.428709 21:1.151765 22:-0.371468 23:0.436852 24:1.146735 25:-0.073767 26:0.693837 27:0.888073 28:0.06251 29:0.938608 30:1.158471 31:0.046942 32:0.914419 33:2.070494 34:0.101788 35:0.647613 36:2.779899 37:0.397813 38:0.477806 39:2.635719 40:0.733355 41:0.418889 42:1.724893 43:0.859812 44:0.387275 45:0.89454 46:0.808559 47:0.281654 48:0.512774 49:0.653122 50:0.092208 51:0.4038 52:0.448827 53:-0.066821 54:0.505589 55:0.352547 56:-0.132445 57:0.76928 58:0.359253 59:-0.146575 60:0.834904 61:0.366917 62:-0.171483 63:0.568099 64:0.420326 65:-0.15855 66:0.192081 67:0.400926 68:-0.104183 69:0.005988 70:0.431343 71:-0.038799 72:0.107297 73:0.542951 74:-0.021316 75:0.355421 76:0.6251 77:0.024669 78:0.575523 79:0.517324 80:0.187291 81:0.55325 82:0.395657 83:0.396136 84:0.330034 85:0.469903 86:0.809756 87:1.023152 88:0.901964 89:1.006148 90:2.382565 91:1.265768 92:0.512055 93:2.6065 94:0.826521 95:0.464873 96:1.786206 97:0.31758 98:0.708686 99:1.237028 100:0.178908 101:0.680186 102:1.049258 103:0.215552 104:0.551334 105:0.698148 106:0.31734 107:0.395657 108:0.284768 109:0.265129 110:0.289318 111:0.168849 112:0.066103 113:0.254591 114:0.29315 115:-0.120948 116:0.233035 117:0.455772 118:-0.303688 119:0.226569 120:0.5578 121:-0.437091 122:0.272074 123:0.461281 124:-0.4232 125:0.356139 126:0.185375 127:-0.413141 128:0.467508 129:0.07712 130:-0.493614 131:0.516127 132:0.417931 133:-0.542951 134:0.521875 135:1.100272 136:-0.493135 137:0.533131 138:1.352228 139:-0.479483 140:0.643063 141:0.847358 142:-0.354223 143:0.956571 144:1.223616 145:-0.0479 146:1.094524 147:2.560515 148:0.247645 149:0.693358 150:2.838098 
-0.21953948489453076 0.2194801027971658 1:0.467029 2:0.556603 3:2.318619 4:0.777423 5:0.526425 6:1.73615 7:0.893821 8:0.463197 9:1.063149 10:0.803529 11:0.37027 12:0.453617 13:0.617676 14:0.154479 15:0.23088 16:0.460083 17:-0.053169 18:0.435894 19:0.387514 20:-0.171723 21:0.681383 22:0.370989 23:-0.232077 24:0.696711 25:0.325962 26:-0.230401 27:0.473256 28:0.267045 29:-0.186812 30:0.132205 31:0.297461 32:-0.13005 33:-0.159508 34:0.426313 35:-0.111847 36:-0.251717 37:0.536963 38:-0.101549 39:-0.005988 40:0.611449 41:-0.047182 42:0.324286 43:0.582708 44:0.051253 45:0.587259 46:0.430146 47:0.294108 48:0.4038 49:0.551334 50:0.785806 51:0.772873 52:1.113205 53:1.051653 54:2.411785 55:1.614962 56:0.601629 57:3.188011 58:1.149609 59:0.514211 60:2.201742 61:0.459604 62:0.762574 63:1.277743 64:0.215552 65:0.690484 66:1.238704 67:0.145617 68:0.556124 69:1.085183 70:0.215312 71:0.438528 72:0.570015 73:0.2213 74:0.328118 75:0.236149 76:0.016526 77:0.265608 78:0.234951 79:-0.213396 80:0.246208 81:0.481638 82:-0.382485 83:0.220821 84:0.610251 85:-0.537203 86:0.233993 87:0.534329 88:-0.632764 89:0.29339 90:0.241657 91:-0.629411 92:0.396615 93:0.020837 94:-0.623184 95:0.498643 96:0.212199 97:-0.571691 98:0.531215 99:0.762335 100:-0.47134 101:0.536005 102:1.079196 103:-0.294348 104:0.696472 105:0.916574 106:0.022992 107:0.998963 108:1.052132 109:0.337458 110:1.233435 111:2.261138 112:0.403561 113:0.869632 114:2.990182 115:0.340332 116:0.569057 117:2.860851 118:0.628693 119:0.541035 120:2.227129 121:0.861968 122:0.503912 123:1.28397 124:0.757066 125:0.387993 126:0.642823 127:0.484033 128:0.186093 129:0.458646 130:0.334584 131:0.046703 132:0.374581 133:0.336261 134:-0.056762 135:0.29315 136:0.339614 137:-0.162382 138:0.228724 139:0.334345 140:-0.242855 141:0.238783 142:0.329076 143:-0.256746 144:0.245011 145:0.287642 146:-0.210043 147:0.033051 148:0.319496 149:-0.153521 150:-0.145378 
-0.23827952780546047 0.23806767043393978 1:0.521875 2:-0.123344 3:-0.120948 4:0.627016 5:-0.047182 6:0.253633 7:0.616718 8:0.011017 9:0.647374 10:0.454335 11:0.155676 12:0.663181 13:0.506068 14:0.507505 15:0.444516 16:1.003992 17:1.025787 18:1.432461 19:1.555805 20:0.921843 21:2.775588 22:1.433898 23:0.497685 24:2.911386 25:0.627495 26:0.652882 27:1.937571 28:0.236149 29:0.763772 30:1.334265 31:0.132205 32:0.696951 33:1.117756 34:0.10562 35:0.517803 36:0.792752 37:0.161903 38:0.391586 39:0.416973 40:0.124302 41:0.333387 42:0.171483 43:-0.121667 44:0.297461 45:0.30776 46:-0.452659 47:0.260578 48:0.551334 49:-0.772394 50:0.229682 51:0.519001 52:-0.845202 53:0.234233 54:0.197829 55:-0.725212 56:0.356858 57:0.022513 58:-0.560674 59:0.481399 60:0.222258 61:-0.4426 62:0.540556 63:0.623184 64:-0.345601 65:0.566183 66:0.965911 67:-0.268961 68:0.702699 69:1.057641 70:-0.279738 71:0.970222 72:0.978126 73:0.111368 74:1.235351 75:1.6734 76:0.659349 77:1.106739 78:2.607697 79:0.753473 80:0.820294 81:2.749961 82:0.679467 83:0.704615 84:2.259941 85:0.756826 86:0.590372 87:1.540477 88:0.680665 89:0.42296 90:0.695514 91:0.467029 92:0.228724 93:0.326681 94:0.388951 95:0.058678 96:0.310874 97:0.383203 98:-0.072569 99:0.299377 100:0.277104 101:-0.190165 102:0.246208 103:0.185854 104:-0.265608 105:0.375779 106:0.17795 107:-0.253633 108:0.426313 109:0.21148 110:-0.200224 111:0.133403 112:0.262255 113:-0.133403 114:-0.084065 115:0.38488 116:-0.099872 117:-0.069456 118:0.568817 119:-0.09604 120:0.193278 121:0.571691 122:0.003593 123:0.598994 124:0.357816 125:0.268482 126:0.862447 127:0.413141 128:0.63013 129:0.730002 130:1.03848 131:0.929507 132:1.238465 133:1.536884 134:0.687371 135:2.141148 136:1.192241 137:0.401645 138:2.516208 139:0.475172 140:0.690484 141:1.803689 142:0.401645 143:0.815504 144:1.219783 145:0.50008 146:0.720422 147:1.098116 148:0.411704 149:0.579834 150:0.969983 
-0.3036276135544066 0.3030795039947039 1:0.270637 2:0.445713 3:0.690005 4:-0.04335 5:0.367875 6:0.46655 7:-0.325483 8:0.373863 9:0.469663 10:-0.38488 11:0.407632 12:0.528581 13:-0.378892 14:0.37027 15:0.670126 16:-0.483554 17:0.326441 18:0.36045 19:-0.508942 20:0.367157 21:0.162382 22:-0.541274 23:0.424397 24:0.358055 25:-0.515887 26:0.423918 27:0.627495 28:-0.311113 29:0.437091 30:0.883762 31:-0.23088 32:0.551813 33:0.771915 34:-0.29315 35:0.82724 36:0.603545 37:0.056283 38:1.174757 39:1.493055 40:0.584145 41:1.151525 42:2.21228 43:0.694316 44:0.90867 45:2.377296 46:0.641147 47:0.820294 48:2.244133 49:0.709884 50:0.689766 51:1.580473 52:0.719703 53:0.539358 54:0.790596 55:0.593486 56:0.323567 57:0.286684 58:0.379132 59:0.035446 60:0.183219 61:0.233754 62:-0.184656 63:0.564506 64:0.123344 65:-0.251238 66:0.919688 67:0.12502 68:-0.263213 69:0.84137 70:0.308958 71:-0.277104 72:0.335303 73:0.486428 74:-0.213157 75:-0.198547 76:0.602826 77:-0.139869 78:-0.362845 79:0.65863 80:-0.087897 81:-0.016286 82:0.584145 83:-0.024669 84:0.542472 85:0.522593 86:0.027303 87:0.794188 88:0.498643 89:0.231359 90:0.690484 91:0.654559 92:0.556842 93:0.326681 94:1.022194 95:1.050216 96:0.81287 97:1.457369 98:1.077519 99:1.938289 100:1.539998 101:0.609772 102:2.783971 103:0.801374 104:0.554687 105:2.583508 106:0.16837 107:0.779339 108:1.823808 109:0.132445 110:0.807601 111:1.2023 112:0.280936 113:0.660546 114:0.584864 115:0.356379 116:0.486668 117:0.151126 118:0.179866 119:0.332429 120:-0.024669 121:-0.188009 122:0.21172 123:0.051253 124:-0.523072 125:0.146575 126:0.222018 127:-0.556124 128:0.126697 129:0.329794 130:-0.449785 131:0.164777 132:0.292192 133:-0.321651 134:0.238783 135:0.02419 136:-0.307521 137:0.329076 138:-0.031135 139:-0.376258 140:0.37027 141:0.280696 142:-0.374342 143:0.37985 144:0.818618 145:-0.323567 146:0.45697 147:1.052372 148:-0.41362 149:0.753473 150:0.724014 
-0.309137203091549 0.3089824862905589 1:-0.194955 2:1.197031 3:0.995131 4:0.310155 5:1.385758 6:2.282693 7:0.52403 8:1.16853 9:2.944916 10:0.414099 11:1.04351 12:2.520519 13:0.43278 14:0.882804 15:1.618794 16:0.510618 17:0.70701 18:0.934537 19:0.403561 20:0.526425 21:0.650487 22:0.258902 23:0.302012 24:0.551813 25:0.233754 26:0.093166 27:0.587977 28:0.228006 29:-0.095082 30:0.706291 31:0.384161 32:-0.244771 33:0.671803 34:0.512534 35:-0.292192 36:0.432541 37:0.455054 38:-0.292432 39:0.068019 40:0.458646 41:-0.278301 42:-0.116637 43:0.588456 44:-0.233275 45:-0.074006 46:0.667492 47:-0.186333 48:-0.008622 49:0.692879 50:-0.100351 51:0.274709 52:0.610251 53:0.072809 54:0.624861 55:0.615999 56:0.380569 57:0.552771 58:0.977886 59:0.809517 60:0.72593 61:1.316542 62:1.043989 63:1.811353 64:1.371867 65:0.774789 66:2.674039 67:0.98603 68:0.757066 69:2.484114 70:0.674917 71:0.86077 72:1.602268 73:0.429188 74:0.820773 75:1.122546 76:0.244053 77:0.706291 78:1.010459 79:0.17292 80:0.537921 81:0.738385 82:0.066582 83:0.410027 84:0.39925 85:-0.129331 86:0.32692 87:0.329315 88:-0.320214 89:0.256746 90:0.433738 91:-0.405716 92:0.204056 93:0.435415 94:-0.456251 95:0.165975 96:0.400447 97:-0.519719 98:0.174836 99:0.166933 100:-0.613365 101:0.26465 102:-0.116398 103:-0.671324 104:0.377216 105:0.015328 106:-0.672521 107:0.43757 108:0.638512 109:-0.593486 110:0.5099 111:1.028182 112:-0.547262 113:0.735032 114:0.885918 115:-0.296743 116:1.149609 117:0.950344 118:0.433259 119:1.554607 120:2.044868 121:0.995849 122:1.402284 123:2.797862 124:0.772154 125:1.06267 126:2.831153 127:0.481399 128:0.911065 129:2.451303 130:0.54798 131:0.688568 132:1.357497 133:0.624382 134:0.473495 135:0.503433 136:0.583666 137:0.209564 138:0.405477 139:0.460323 140:0.0 141:0.46631 142:0.383443 143:-0.124062 144:0.293869 145:0.370749 146:-0.227048 147:0.207409 148:0.342967 149:-0.320693 150:0.406914 
-0.30475515779051304 0.30473398038755645 1:0.332908 2:-0.333147 3:0.410746 4:0.276146 5:-0.24046 6:0.017244 7:0.361648 8:-0.13005 9:-0.25986 10:0.566662 11:-0.074485 12:-0.124062 13:0.619831 14:-0.066342 15:0.233514 16:0.619592 17:-0.033291 18:0.587498 19:0.431104 20:0.166693 21:0.582469 22:0.421044 23:0.589893 24:0.450503 25:1.089734 26:1.057162 27:1.428869 28:1.549817 29:0.986748 30:2.289399 31:1.28876 32:0.66366 33:2.463996 34:0.587738 35:0.816462 36:1.985471 37:0.329794 38:0.903641 39:1.390069 40:0.428948 41:0.821013 42:1.102907 43:0.449306 44:0.692879 45:0.854782 46:0.287402 47:0.518522 48:0.587259 49:0.042871 50:0.368594 51:0.611688 52:-0.178189 53:0.325244 54:0.606658 55:-0.352547 56:0.262494 57:0.448108 58:-0.421523 59:0.184177 60:0.33195 61:-0.505828 62:0.152323 63:0.178429 64:-0.631567 65:0.193039 66:-0.109213 67:-0.69719 68:0.313269 69:-0.210762 70:-0.675156 71:0.429188 72:0.241418 73:-0.583187 74:0.455772 75:0.835622 76:-0.448827 77:0.561632 78:1.049258 79:-0.458886 80:0.920167 81:0.91849 82:-0.006706 83:1.351989 84:1.483236 85:0.655756 86:1.459046 87:2.19288 88:0.811433 89:1.16398 90:2.238625 91:0.758263 92:0.958487 93:2.369872 94:0.848555 95:0.767843 96:1.780937 97:0.840173 98:0.564985 99:0.831551 100:0.633243 101:0.347038 102:0.375779 103:0.441642 104:0.12981 105:0.311113 106:0.323807 107:-0.039518 108:0.395418 109:0.201182 110:-0.167172 111:0.712518 112:0.199505 113:-0.237346 114:0.854304 115:0.320214 116:-0.248603 117:0.536005 118:0.373623 119:-0.174357 120:0.082868 121:0.400447 122:-0.087658 123:-0.146096 124:0.496488 125:-0.022034 126:0.034728 127:0.603066 128:-0.018921 129:0.296024 130:0.633722 131:0.012454 132:0.455293 133:0.53385 134:0.131966 135:0.716829 136:0.316143 137:0.4038 138:0.7791 139:0.51469 140:0.784608 141:0.944356 142:1.11105 143:0.99561 144:1.684178 145:1.496887 146:0.729523 147:2.23144 148:1.041833 149:0.624142 150:2.161026 
-0.31224370551693165 0.31186354642200115 1:0.382964 2:0.802811 3:1.456172 4:0.27878 5:0.856938 6:1.004711 7:0.422721 8:0.762335 9:0.766406 10:0.439726 11:0.613604 12:0.456491 13:0.315903 14:0.476848 15:0.154718 16:0.030896 17:0.36548 18:0.13005 19:-0.28381 20:0.299138 21:0.267045 22:-0.540077 23:0.256507 24:0.427272 25:-0.651685 26:0.215312 27:0.468705 28:-0.566901 29:0.228724 30:0.121188 31:-0.459844 32:0.292671 33:-0.158071 34:-0.339374 35:0.34153 36:0.012454 37:-0.232556 38:0.306084 39:0.464634 40:-0.275427 41:0.348475 42:0.851429 43:-0.481878 44:0.622226 45:0.84137 46:-0.128373 47:1.029379 48:1.106499 49:0.87993 50:1.411625 51:2.129173 52:1.403961 53:1.231519 54:2.658951 55:0.977408 56:0.922322 57:2.733436 58:0.545346 59:0.842568 60:2.26976 61:0.517803 62:0.730481 63:1.337379 64:0.478525 65:0.528102 66:0.732158 67:0.353505 68:0.279738 69:0.587498 70:0.275906 71:0.053409 72:0.387275 73:0.297701 74:-0.121667 75:0.25962 76:0.332668 77:-0.209085 78:0.299617 79:0.320693 80:-0.256986 81:0.284768 82:0.335303 83:-0.268721 84:0.146815 85:0.360929 86:-0.214833 87:-0.090771 88:0.490021 89:-0.143222 90:-0.227048 91:0.690245 92:-0.074725 93:-0.119032 94:0.786045 95:-0.024908 96:0.314227 97:0.728325 98:0.006467 99:0.823887 100:0.525946 101:0.196392 102:0.910347 103:0.572649 104:0.650727 105:0.711321 106:1.172362 107:1.021236 108:1.43318 109:1.655677 110:0.809996 111:2.276945 112:1.284928 113:0.510379 114:2.549977 115:0.49529 116:0.653361 117:1.972299 118:0.226569 119:0.764251 120:1.262175 121:0.345362 122:0.734073 123:0.752994 124:0.444516 125:0.616478 126:0.450743 127:0.291713 128:0.469184 129:0.166454 130:-0.067779 131:0.329794 132:0.109213 133:-0.328836 134:0.248364 135:0.265608 136:-0.445713 137:0.200942 138:0.330034 139:-0.527862 140:0.174118 141:0.371228 142:-0.596599 143:0.188728 144:0.252196 145:-0.718985 146:0.25507 147:0.056043 148:-0.811672 149:0.344404 150:0.22585 
-0.30796139441705933 0.3079395812984342 1:-0.669168 2:0.38488 3:0.691442 4:-0.386077 5:0.406195 6:1.048779 7:-0.325723 8:0.607137 9:1.029379 10:-0.274709 11:0.96639 12:1.094284 13:0.497206 14:1.306723 15:2.026187 16:1.270318 17:1.137155 18:2.635001 19:1.241578 20:0.77431 21:2.671165 22:0.88975 23:0.67324 24:2.213477 25:0.792752 26:0.560914 27:1.230801 28:0.716111 29:0.448587 30:0.416973 31:0.571691 32:0.283091 33:0.33674 34:0.380569 35:0.120469 36:0.434696 37:0.299856 38:-0.002874 39:0.292671 40:0.338656 41:-0.095082 42:0.346799 43:0.327399 44:-0.17292 45:0.56762 46:0.289797 47:-0.236628 48:0.439486 49:0.204535 50:-0.232796 51:-0.005269 52:0.170765 53:-0.190644 54:-0.260339 55:0.34608 56:-0.153281 57:-0.116877 58:0.583666 59:-0.145857 60:0.290276 61:0.686892 62:-0.07712 63:0.623903 64:0.595641 65:0.104183 66:0.784848 67:0.4905 68:0.438289 69:0.641865 70:0.917292 71:0.886157 72:1.018602 73:1.555805 74:0.983874 75:1.993135 76:1.595802 77:0.65384 78:2.550935 79:0.855262 80:0.693119 81:2.261856 82:0.369791 83:0.843047 84:1.441562 85:0.465831 86:0.829635 87:1.055964 88:0.609532 89:0.760179 90:0.837299 91:0.501278 92:0.611209 93:0.509181 94:0.213875 95:0.426792 96:0.35111 97:-0.058199 98:0.300814 99:0.409788 100:-0.243094 101:0.25028 102:0.350631 103:-0.359971 104:0.224174 105:0.176034 106:-0.440205 107:0.185614 108:0.114242 109:-0.560195 110:0.176513 111:0.092687 112:-0.669168 113:0.228006 114:0.082389 115:-0.630369 116:0.306802 117:0.237107 118:-0.445234 119:0.369312 120:0.53385 121:-0.260099 122:0.467268 123:0.843526 124:-0.360211 125:0.722817 126:0.941482 127:-0.378892 128:1.07249 129:1.161345 130:0.360211 131:1.388872 132:2.114802 133:1.225292 134:1.251877 135:2.699666 136:1.226011 137:1.021955 138:2.476929 139:0.893821 140:0.905317 141:1.882006 142:0.759461 143:0.713955 144:1.156076 145:0.57217 146:0.502236 147:0.74078 148:0.362366 149:0.252435 150:0.687131 
-0.310599104138139 0.31073168139194907 1:0.296982 2:0.064187 3:0.51445 4:0.416733 5:-0.067779 6:0.218665 7:0.469663 8:-0.165975 9:0.12023 10:0.330513 11:-0.239262 12:0.227048 13:0.190883 14:-0.290037 15:0.332429 16:0.132445 17:-0.305125 18:0.125978 19:0.205732 20:-0.298898 21:-0.197589 22:0.438049 23:-0.240699 24:-0.123104 25:0.656475 26:-0.131966 27:0.286444 28:0.610251 29:0.006467 30:0.584385 31:0.405716 32:0.275667 33:0.526665 34:0.545346 35:0.676593 36:0.808319 37:1.181703 38:1.019799 39:1.900209 40:1.657114 41:0.776944 42:2.537763 43:1.148891 44:0.675875 45:2.338976 46:0.464634 47:0.880649 48:1.597478 49:0.44739 50:0.902683 51:1.246368 52:0.567859 53:0.819815 54:0.962319 55:0.51948 56:0.679228 57:0.482596 58:0.33674 59:0.503433 60:0.19711 61:0.046703 62:0.374102 63:0.258902 64:-0.237346 65:0.325723 66:0.410746 67:-0.373384 68:0.316861 69:0.544867 70:-0.239741 71:0.291713 72:0.344643 73:-0.111368 74:0.306563 75:-0.202379 76:-0.285486 77:0.374102 78:-0.299377 79:-0.511337 80:0.461281 81:0.242376 82:-0.549417 83:0.506547 84:0.830114 85:-0.36548 86:0.542951 87:1.081351 88:-0.42296 89:0.756587 90:0.69743 91:-0.284289 92:1.088057 93:0.714195 94:0.23088 95:1.318937 96:1.76968 97:0.417691 98:1.060994 99:2.489144 100:0.224653 101:0.844005 102:2.821094 103:0.398292 104:0.795386 105:2.384482 106:0.689526 107:0.653122 108:1.219783 109:0.804727 110:0.50511 111:0.478764 112:0.735032 113:0.284528 114:0.434936 115:0.622705 116:0.076641 117:0.533371 118:0.688089 119:-0.053409 120:0.551094 121:0.757066 122:-0.14442 123:0.507984 124:0.67348 125:-0.248843 126:0.434217 127:0.494093 128:-0.316382 129:0.436133 130:0.358055 131:-0.292671 132:0.329315 133:0.346559 134:-0.196392 135:0.058917 136:0.472777 137:-0.11041 138:-0.094364 139:0.646416 140:-0.028022 141:-0.037123 142:0.675396 143:0.075204 144:0.136037 145:0.456251 146:0.261776 147:0.392065 148:0.232796 149:0.520198 150:0.409069 
-0.31434709399530697 0.31433198547645985 1:0.509421 2:0.887355 3:1.050935 4:1.301454 5:1.002555 6:2.014691 7:1.692321 8:0.674677 9:2.286765 10:1.032014 11:0.634201 12:2.0293 13:0.428469 14:0.718027 15:1.712918 16:0.29339 17:0.730241 18:1.346959 19:0.408351 20:0.639231 21:0.918011 22:0.502954 23:0.513732 24:0.498164 25:0.445474 26:0.386796 27:0.126457 28:0.239023 29:0.262734 30:0.061552 31:-0.119751 32:0.157832 33:0.255549 34:-0.401645 35:0.111368 36:0.383443 37:-0.576002 38:0.147054 39:0.268721 40:-0.68785 41:0.250519 42:-0.016765 43:-0.705333 44:0.382964 45:-0.072569 46:-0.555405 47:0.487147 48:0.278541 49:-0.385359 50:0.568817 51:0.853106 52:-0.233514 53:0.699346 54:1.175476 55:-0.193039 56:0.876338 57:0.934776 58:0.054846 59:1.083986 60:1.192959 61:0.79323 62:1.154878 63:2.150249 64:1.121348 65:0.986988 66:2.253713 67:0.770238 68:0.87993 69:1.970143 70:0.526904 71:0.79826 72:1.672682 73:0.651445 74:0.689526 75:1.15392 76:0.92807 77:0.570733 78:0.813109 79:0.898611 80:0.443318 81:0.626537 82:0.64905 83:0.283091 84:0.485949 85:0.371947 86:0.075683 87:0.509181 88:0.167891 89:-0.091969 90:0.727367 91:0.121428 92:-0.185375 93:0.735032 94:0.241418 95:-0.220342 96:0.375779 97:0.3753 98:-0.210762 99:-0.091969 100:0.422481 101:-0.183698 102:-0.30776 103:0.465113 104:-0.182021 105:-0.101309 106:0.559956 107:-0.153042 108:0.313269 109:0.695753 110:-0.020837 111:0.743414 112:0.791075 113:0.185614 114:0.921364 115:0.867237 116:0.499362 117:0.587977 118:1.06291 119:0.837538 120:1.114403 121:1.218107 122:0.613125 123:1.992177 124:1.007106 125:0.346799 126:2.331552 127:0.449306 128:0.575284 129:1.613764 130:0.237825 131:0.843286 132:0.818139 133:0.460323 134:0.887115 135:0.581271 136:0.554447 137:0.750839 138:0.541753 139:0.336021 140:0.56259 141:0.574086 142:-0.002874 143:0.441642 144:0.717548 145:-0.233035 146:0.413141 147:0.67324 148:-0.228245 149:0.39422 150:0.48068 
-0.2785576402503476 0.2785537964359095 1:-0.164777 2:0.361408 3:0.244292 4:-0.254112 5:0.332429 6:0.228485 7:-0.492895 8:0.348236 9:0.31255 10:-0.632046 11:0.410746 12:0.407153 13:-0.505349 14:0.495769 15:0.625579 16:-0.277583 17:0.535766 18:0.77886 19:-0.129571 20:0.626537 21:0.834904 22:-0.1825 23:0.858375 24:0.831311 25:0.083347 26:1.203737 27:1.314147 28:0.766406 29:1.265768 30:2.117437 31:1.214754 32:0.96663 33:2.508783 34:1.11105 35:0.849513 36:2.338976 37:0.861489 38:0.769041 39:1.584785 40:0.742935 41:0.59636 42:0.863405 43:0.643302 44:0.403561 45:0.563548 46:0.584864 47:0.224174 48:0.417931 49:0.554208 50:0.064666 51:0.244532 52:0.423679 53:-0.067061 54:0.23088 55:0.258183 56:-0.176992 57:0.271356 58:0.166454 59:-0.239023 60:0.339614 61:0.14897 62:-0.243573 63:0.345122 64:0.073048 65:-0.196631 66:0.166693 67:0.167891 68:-0.151126 69:-0.047661 70:0.430864 71:-0.132924 72:-0.126936 73:0.598994 74:-0.073767 75:0.123583 76:0.660307 77:0.007904 78:0.700783 79:0.512295 80:0.258423 81:0.98603 82:0.426313 83:0.687131 84:0.531694 85:1.027703 86:1.075603 87:0.905317 88:1.706931 89:1.049977 90:1.825963 91:1.526825 92:0.788919 93:2.436453 94:0.621987 95:0.83682 96:2.182821 97:0.246927 98:0.895977 99:1.371867 100:0.349673 101:0.880649 102:0.784129 103:0.419847 104:0.724014 105:0.561393 106:0.294827 107:0.513732 108:0.439247 109:0.103944 110:0.353744 111:0.242136 112:-0.084065 113:0.281654 114:0.125739 115:-0.21627 116:0.277822 117:0.241418 118:-0.354702 119:0.26465 120:0.356618 121:-0.586061 122:0.248124 123:0.29315 124:-0.764251 125:0.308958 126:0.098435 127:-0.767125 128:0.412183 129:-0.016286 130:-0.603784 131:0.475651 132:0.234472 133:-0.368115 134:0.546064 135:0.602826 136:-0.376258 137:0.709884 138:0.899569 139:-0.334824 140:0.942201 141:1.141466 142:0.181542 143:1.235591 144:1.795307 145:0.728804 146:1.275348 147:2.30832 148:0.799218 149:1.058359 150:2.195993 
-0.22032065014457441 0.2205940516977894 1:0.797542 2:0.991299 3:1.942361 4:0.978126 5:0.873703 6:1.301693 7:1.008782 8:0.704136 9:0.69719 10:0.795386 11:0.472537 12:0.727128 13:0.505828 14:0.215791 15:0.905796 16:0.389191 17:0.027303 18:0.849992 19:0.425835 20:-0.084544 21:0.664857 22:0.429667 23:-0.150407 24:0.582469 25:0.364043 26:-0.211001 27:0.425835 28:0.299377 29:-0.259381 30:0.195673 31:0.234472 32:-0.25028 33:0.029459 34:0.343446 35:-0.172441 36:0.030896 37:0.573847 38:-0.09125 39:0.036165 40:0.740061 41:-0.022753 42:0.159029 43:0.666773 44:0.041194 45:0.338895 46:0.368115 47:0.237825 48:0.338895 49:0.531215 50:0.673959 51:0.970462 52:1.101949 53:1.03896 54:2.235511 55:1.582389 56:0.824845 57:2.648173 58:1.235591 59:0.806882 60:2.022115 61:0.734313 62:0.98603 63:1.224813 64:0.684257 65:0.953697 66:0.973575 67:0.620071 68:0.817899 69:0.859333 70:0.43302 71:0.636117 72:0.54343 73:0.196392 74:0.438289 75:0.315424 76:-0.072569 77:0.310395 78:0.275427 79:-0.372426 80:0.269919 81:0.279978 82:-0.551334 83:0.261776 84:0.273032 85:-0.626777 86:0.26441 87:0.249082 88:-0.747246 89:0.276625 90:0.098435 91:-0.862926 92:0.31758 93:-0.050295 94:-0.858615 95:0.417212 96:0.216989 97:-0.751078 98:0.469663 99:0.7312 100:-0.556603 101:0.477327 102:1.045426 103:-0.403082 104:0.608814 105:1.045426 106:-0.106578 107:1.023152 108:1.365161 109:0.705333 110:1.384321 111:2.354065 112:1.135479 113:1.179068 114:2.484354 115:0.996568 116:0.985072 117:2.299458 118:0.981 119:0.825803 120:1.889191 121:0.911305 122:0.604503 123:1.03872 124:0.718985 125:0.419847 126:0.392544 127:0.517324 128:0.249561 129:0.262494 130:0.321412 131:0.090053 132:0.378174 133:0.272553 134:-0.017484 135:0.519959 136:0.385838 137:-0.076162 138:0.543909 139:0.50487 140:-0.117116 141:0.396855 142:0.408111 143:-0.146096 144:0.167412 145:0.240699 146:-0.158311 147:0.076162 148:0.186812 149:-0.154479 150:0.025866 
-0.23832096623715354 0.23859519707810778 1:0.285726 2:-0.116877 3:0.020837 4:0.539119 5:-0.062271 6:0.217947 7:0.647613 8:0.003114 9:0.598994 10:0.542711 11:0.163819 12:0.633722 13:0.516366 14:0.449785 15:0.405477 16:0.988904 17:0.892384 18:1.488744 19:1.438928 20:0.912023 21:2.560276 22:1.371867 23:0.623424 24:2.498005 25:0.744372 26:0.761137 27:1.752675 28:0.545825 29:0.816462 30:1.166375 31:0.522354 32:0.770957 33:0.901485 34:0.482357 35:0.695753 36:0.671563 37:0.370989 38:0.542472 39:0.324525 40:0.084305 41:0.393741 42:0.098675 43:-0.233035 44:0.302012 45:0.217947 46:-0.47589 47:0.285486 48:0.592288 49:-0.578637 50:0.265847 51:0.753952 52:-0.583187 53:0.272074 54:0.423679 55:-0.603305 56:0.348475 57:-0.066582 58:-0.645697 59:0.450024 60:-0.194955 61:-0.718745 62:0.520198 63:0.421284 64:-0.751797 65:0.516127 66:1.185774 67:-0.578876 68:0.590612 69:1.4042 70:-0.169807 71:0.932381 72:1.004232 73:0.432301 74:1.394141 75:1.057162 76:0.945554 77:1.536166 78:1.709326 79:1.133802 80:1.138832 81:2.429747 82:0.874182 83:0.746288 84:2.695834 85:0.66845 86:0.539119 87:1.925835 88:0.566183 89:0.379611 90:0.902683 91:0.493135 92:0.23064 93:0.453377 94:0.489063 95:0.088855 96:0.497685 97:0.445953 98:-7.19E-4 99:0.335782 100:0.37027 101:-0.070653 102:0.199026 103:0.342009 104:-0.134121 105:0.26441 106:0.345362 107:-0.167412 108:0.240939 109:0.362606 110:-0.188967 111:0.163101 112:0.36548 113:-0.178189 114:0.121906 115:0.278062 116:-0.153521 117:-0.003353 118:0.330752 119:-0.140348 120:0.069695 121:0.528341 122:-0.078557 123:0.34153 124:0.691921 125:0.039039 126:0.539358 127:0.699825 128:0.256267 129:0.552531 130:0.679467 131:0.617197 132:0.481878 133:0.978366 134:0.96639 135:1.428869 136:1.300975 137:0.895258 138:2.32245 139:1.192001 140:0.696711 141:2.594525 142:0.611688 143:0.81742 144:2.080793 145:0.366198 146:0.869392 147:1.397015 148:0.422481 149:0.842328 150:1.047342 
-0.2980142421189686 0.2982734340753344 1:0.479243 2:0.750599 3:0.911545 4:0.399489 5:0.611928 6:0.585582 7:0.282133 8:0.492656 9:0.133642 10:0.08646 11:0.375539 12:0.057001 13:-0.208606 14:0.291713 15:0.319017 16:-0.524749 17:0.257704 18:0.458407 19:-0.718266 20:0.267763 21:0.316382 22:-0.811193 23:0.363803 24:-0.010059 25:-0.830114 26:0.501038 27:-0.11999 28:-0.803769 29:0.603784 30:0.372905 31:-0.582469 32:0.667971 33:0.962798 34:-0.210043 35:0.818378 36:1.246608 37:0.066103 38:1.109373 39:1.102667 40:0.276385 41:1.424797 42:1.555565 43:0.777902 44:1.354623 45:2.313589 46:1.099075 47:1.0289 48:2.312152 49:1.069137 50:0.893342 51:1.855901 52:1.028182 53:0.753713 54:1.21164 55:0.929028 56:0.579355 57:0.677072 58:0.675635 59:0.397094 60:0.446432 61:0.389191 62:0.213636 63:0.414338 64:0.261536 65:0.060833 66:0.353265 67:0.271595 68:-0.069935 69:0.278301 70:0.319017 71:-0.170286 72:0.224653 73:0.297222 74:-0.229922 75:0.169567 76:0.199026 77:-0.232796 78:0.262494 79:0.166693 80:-0.185375 81:0.233035 82:0.290516 83:-0.136516 84:-0.112805 85:0.522114 86:-0.080952 87:-0.256507 88:0.73072 89:0.012694 90:0.184656 91:0.768083 92:0.109213 93:0.782692 94:0.644021 95:0.353505 96:0.825084 97:0.650248 98:0.717308 99:0.561632 100:1.052611 101:1.057401 102:1.492816 103:1.304328 104:0.964714 105:2.488425 106:1.124222 107:0.78844 108:2.54878 109:0.60091 110:0.935255 111:1.855901 112:0.422242 113:0.981 114:1.242536 115:0.393981 116:0.926633 117:0.994412 118:0.40859 119:0.77886 120:0.81287 121:0.343446 122:0.615281 123:0.458646 124:0.174597 125:0.452419 126:0.231119 127:-0.05772 128:0.324286 129:0.169328 130:-0.270637 131:0.25507 132:0.195434 133:-0.389191 134:0.231598 135:0.133403 136:-0.466071 137:0.21172 138:-0.006946 139:-0.594923 140:0.241657 141:-0.084065 142:-0.690724 143:0.332908 144:-0.054846 145:-0.651685 146:0.413859 147:0.236867 148:-0.417212 149:0.467268 150:0.667013 
-0.3085032100760039 0.3084997348489992 1:-0.09628 2:0.590372 3:0.81766 4:-0.123104 5:0.879212 6:0.679946 7:-0.238544 8:1.152483 9:1.443478 10:0.614562 11:1.238465 12:2.827081 13:1.506228 14:0.998484 15:2.687212 16:1.471021 17:0.89933 18:1.697111 19:0.955852 20:0.820294 21:1.243015 22:0.579834 23:0.634441 24:0.986748 25:0.42823 26:0.499601 27:0.710602 28:0.399968 29:0.402363 30:0.544867 31:0.347517 32:0.26441 33:0.494572 34:0.292432 35:0.118553 36:0.392544 37:0.305365 38:0.021555 39:0.340572 40:0.310874 41:-0.069935 42:0.361408 43:0.224413 44:-0.151365 45:0.307042 46:0.189925 47:-0.157353 48:0.155676 49:0.335782 50:-0.125978 51:-0.023711 52:0.619352 53:-0.149689 54:-0.031375 55:0.871308 56:-0.157353 57:0.241418 58:0.882325 59:-0.06754 60:0.349912 61:0.765688 62:0.227527 63:0.215073 64:0.861728 65:0.654559 66:1.355821 67:1.100272 68:0.85598 69:2.561473 70:1.117516 71:0.821252 72:2.648173 73:0.976449 74:0.958487 75:2.134921 76:0.914179 77:0.999681 78:1.511018 79:0.679707 80:0.923759 81:1.172602 82:0.384161 83:0.792752 84:0.944835 85:0.253633 86:0.635638 87:0.52403 88:0.127415 89:0.497925 90:0.222258 91:-0.0867 92:0.384161 93:0.183459 94:-0.35566 95:0.305605 96:0.299377 97:-0.572889 98:0.248603 99:0.383203 100:-0.67348 101:0.242615 102:0.205253 103:-0.646895 104:0.302491 105:-0.162143 106:-0.647134 107:0.383443 108:-0.255309 109:-0.808798 110:0.444276 111:0.128852 112:-0.779339 113:0.463676 114:0.558279 115:-0.481399 116:0.524988 117:0.729283 118:-0.240699 119:0.862447 120:0.560195 121:0.007425 122:1.323967 123:1.16853 124:0.80808 125:1.614722 126:2.765529 127:1.56778 128:1.318937 129:3.00072 130:1.443478 131:0.968067 132:2.410827 133:1.015488 134:0.772873 135:1.899969 136:0.667492 137:0.529778 138:1.207808 139:0.502954 140:0.345122 141:0.744372 142:0.533131 143:0.205253 144:0.499601 145:0.585103 146:0.097717 147:0.164777 148:0.627735 149:0.023471 150:-0.123823 
-0.30383634521627234 0.30392200979714706 1:0.571212 2:-0.111608 3:-0.138432 4:0.319496 5:-0.253872 6:0.155916 7:0.092448 8:-0.304167 9:0.473495 10:0.019879 11:-0.258183 12:0.297222 13:0.090771 14:-0.185614 15:-0.143222 16:0.349194 17:-0.162143 18:-0.250519 19:0.555166 20:-0.115919 21:0.203577 22:0.53361 23:0.005988 24:0.998963 25:0.48092 26:0.347278 27:0.926394 28:0.510379 29:1.021955 30:0.996568 31:0.988904 32:1.39438 33:2.632845 34:1.257146 35:1.045426 36:2.595243 37:0.857896 38:1.054288 39:1.396057 40:0.681144 41:1.083028 42:0.857178 43:0.580792 44:1.020757 45:0.621029 46:0.465592 47:0.922322 48:0.718266 49:0.204535 50:0.75491 51:0.739582 52:-0.065145 53:0.60115 54:0.536963 55:-0.192799 56:0.457209 57:0.379371 58:-0.238783 59:0.38009 60:0.323807 61:-0.365959 62:0.334105 63:0.325244 64:-0.584864 65:0.263213 66:0.239023 67:-0.704375 68:0.273751 69:-0.034967 70:-0.752994 71:0.31279 72:-0.161424 73:-0.785087 74:0.369791 75:0.131008 76:-0.681383 77:0.366198 78:0.476609 79:-0.425116 80:0.397094 81:0.667252 82:-0.305605 83:0.654559 84:0.528581 85:-0.224413 86:1.222897 87:0.918251 88:0.545825 89:1.636517 90:2.246768 91:1.451621 92:1.488984 93:2.662064 94:1.501198 95:1.223137 96:2.339455 97:1.132605 98:1.081351 99:1.929428 100:0.860531 101:0.822929 102:1.29834 103:0.653361 104:0.524749 105:0.910586 106:0.462239 107:0.248364 108:0.637075 109:0.333387 110:0.059157 111:0.439965 112:0.297222 113:-0.089574 114:0.364761 115:0.373623 116:-0.211001 117:0.258662 118:0.387754 119:-0.304646 120:0.060354 121:0.25028 122:-0.332189 123:0.044308 124:0.152084 125:-0.30776 126:0.013652 127:0.189207 128:-0.249082 129:-0.149449 130:0.34129 131:-0.186093 132:-0.308718 133:0.49529 134:-0.164777 135:-0.209804 136:0.522114 137:-0.079036 138:0.080952 139:0.305605 140:0.145617 141:0.130768 142:0.314706 143:0.583427 144:0.44236 145:1.032253 146:1.106499 147:2.099714 148:1.690405 149:1.142664 150:3.465354 
-2.0 -0.25459382293682065 1:0.077599 2:0.461281 3:0.782692 4:0.117595 5:0.482117 6:0.728565 7:0.167891 8:0.49074 9:0.756108 10:0.123823 11:0.488105 12:0.867955 13:0.064187 14:0.483554 15:0.95202 16:0.064905 17:0.489302 18:0.963995 19:0.108255 20:0.505828 21:0.888552 22:0.131966 23:0.515169 24:0.764969 25:0.143222 26:0.520438 27:0.713716 28:0.144899 29:0.521156 30:0.734073 31:0.130768 32:0.519719 33:0.804248 34:0.142983 35:0.523312 36:0.857896 37:0.169328 38:0.531934 39:0.841849 40:0.171962 41:0.531934 42:0.827719 43:0.145138 44:0.535766 45:0.816941 46:0.124302 47:0.534329 48:0.838257 49:0.121188 50:0.530497 51:0.884002 52:0.103944 53:0.533371 54:0.866997 55:0.092208 56:0.538161 57:0.828677 58:0.090771 59:0.544867 60:0.825563 61:0.100112 62:0.544627 63:0.858375 64:0.119032 65:0.537682 66:0.881128 67:0.138193 68:0.518043 69:0.952978 70:0.090771 71:0.477806 72:1.037762 73:-7.19E-4 74:0.455054 75:1.041594 76:-0.061552 77:0.440205 78:1.120869 79:-0.095082 80:0.41817 81:1.312231 82:-0.148491 83:0.384401 84:1.451621 85:-0.154958 86:0.352068 87:1.38504 88:-0.087418 89:0.335782 90:1.252356 91:-0.028261 92:0.326681 93:1.182421 94:-0.022513 95:0.299856 96:1.161345 97:-0.026824 98:0.273032 99:1.11584 100:-0.02874 101:0.24549 102:1.016446 103:-0.057001 104:0.226808 105:0.890708 106:-0.079994 107:0.227766 108:0.753473 109:-0.077838 110:0.236149 111:0.631327 112:-0.078317 113:0.249322 114:0.538161 115:-0.102267 116:0.251717 117:0.469184 118:-0.124302 119:0.262734 120:0.457209 121:-0.106818 122:0.272553 123:0.504152 124:-0.083586 125:0.285486 126:0.522593 127:-0.092687 128:0.306563 129:0.491698 130:-0.097238 131:0.344643 132:0.477567 133:-0.070414 134:0.378653 135:0.552531 136:-0.038081 137:0.404998 138:0.647613 139:0.005509 140:0.433499 141:0.699585 142:0.092208 143:0.459125 144:0.766885 145:0.171244 146:0.454096 147:0.903162 148:0.155197 149:0.44236 150:1.049019 
-2.0 -0.5499915849720692 1:0.123823 2:0.440923 3:1.24565 4:0.138432 5:0.450982 6:1.397015 7:0.135079 8:0.458167 9:1.345283 10:0.099393 11:0.459604 12:1.175955 13:0.183698 14:0.434936 15:1.119432 16:0.268242 17:0.381766 18:1.19751 19:0.193518 20:0.347996 21:1.252595 22:0.119511 23:0.34153 24:1.23607 25:0.147054 26:0.337458 27:1.122067 28:0.212917 29:0.323328 30:0.998723 31:0.236628 32:0.29818 33:0.897653 34:0.210283 35:0.277583 36:0.868195 37:0.153042 38:0.26465 39:0.88975 40:0.082149 41:0.274469 42:0.918969 43:0.04814 44:0.283331 45:0.861728 46:0.040715 47:0.289318 48:0.741259 49:0.032572 50:0.298419 51:0.609054 52:0.015089 53:0.305125 54:0.515887 55:0.006946 56:0.324525 57:0.491458 58:0.00503 59:0.347996 60:0.452898 61:-0.013173 62:0.375779 63:0.45673 64:-0.039039 65:0.402363 66:0.563788 67:-0.053169 68:0.420565 69:0.685694 70:-0.071611 71:0.450024 72:0.758982 73:-0.082628 74:0.483075 75:0.806164 76:-0.066103 77:0.520438 78:0.87514 79:-0.039997 80:0.552771 81:0.954894 82:-0.051972 83:0.564506 84:1.08183 85:-0.047182 86:0.546544 87:1.271037 88:-0.102986 89:0.530018 90:1.423839 91:-0.180105 92:0.529539 93:1.440604 94:-0.153042 95:0.522833 96:1.443957 97:-0.125978 98:0.465592 99:1.513892 100:-0.127176 101:0.388472 102:1.369472 103:-0.122625 104:0.363324 105:1.025068 106:-0.082868 107:0.363803 108:0.834185 109:-0.029938 110:0.352307 111:0.854782 112:0.03832 113:0.294587 114:0.955134 115:0.074246 116:0.24046 117:0.971659 118:0.074006 119:0.196871 120:0.92831 121:0.036165 122:0.165735 123:0.861249 124:0.005988 125:0.149449 126:0.768083 127:-0.030417 128:0.154479 129:0.651685 130:-0.063229 131:0.167412 132:0.545585 133:-0.063708 134:0.192799 135:0.482836 136:-0.054606 137:0.224653 138:0.43757 139:-0.045745 140:0.253872 141:0.412183 142:-0.012454 143:0.282373 144:0.469663 145:0.002156 146:0.309676 147:0.564985 148:-0.018921 149:0.350391 150:0.650008 
-2.0 -0.42204945867533905 1:-0.027543 2:0.392304 3:0.799458 4:0.0479 5:0.407153 6:1.007585 7:0.162382 8:0.424158 9:1.094045 10:0.188967 11:0.43781 12:1.099075 13:0.165735 14:0.434936 15:1.203737 16:0.126936 17:0.427511 18:1.317261 19:0.120709 20:0.415057 21:1.283012 22:0.126697 23:0.367157 24:1.338097 25:0.056283 26:0.285247 27:1.558439 28:0.00503 29:0.253872 30:1.585024 31:0.030177 32:0.277104 33:1.233675 34:0.121188 35:0.295306 36:0.860052 37:0.210522 38:0.294587 39:0.729044 40:0.23064 41:0.276864 42:0.730241 43:0.154479 44:0.252914 45:0.772394 46:0.018202 47:0.246448 48:0.901725 49:-0.048858 50:0.264889 51:1.007824 52:-0.060594 53:0.28381 54:0.943638 55:-0.045266 56:0.304407 57:0.757784 58:-0.014849 59:0.320214 60:0.552292 61:-0.005269 62:0.34608 63:0.42775 64:-0.025627 65:0.358055 66:0.416015 67:-0.050056 68:0.372426 69:0.51445 70:-0.071611 71:0.386556 72:0.633004 73:-0.114242 74:0.398292 75:0.730241 76:-0.132684 77:0.405237 78:0.815983 79:-0.158071 80:0.421763 81:0.828437 82:-0.176752 83:0.4426 84:0.802332 85:-0.17795 86:0.468466 87:0.848076 88:-0.187051 89:0.48068 90:0.927831 91:-0.185614 92:0.486189 93:1.034649 94:-0.220821 95:0.487626 96:1.100033 97:-0.238304 98:0.484273 99:1.152004 100:-0.216031 101:0.468945 102:1.330912 103:-0.238544 104:0.418889 105:1.467908 106:-0.262255 107:0.368833 108:1.359892 109:-0.249561 110:0.365959 111:1.08662 112:-0.215791 113:0.367636 114:0.970462 115:-0.183459 116:0.354223 117:1.00974 118:-0.123344 119:0.319256 120:1.08183 121:-0.064187 122:0.278301 123:1.095243 124:-0.063468 125:0.245969 126:1.068418 127:-0.069935 128:0.229203 129:1.003992 130:-0.053888 131:0.237346 132:0.884481 133:-0.051493 134:0.260099 135:0.738624 136:-0.038799 137:0.266566 138:0.604024 139:-0.001437 140:0.272314 141:0.53361 142:0.03377 143:0.282133 144:0.501038 145:0.014131 146:0.30297 147:0.600431 148:-0.045026 149:0.326681 150:0.671803 
-2.0 -0.16783234362517963 1:-0.040236 2:0.353505 3:0.667492 4:0.002635 5:0.388233 6:0.632764 7:0.089334 8:0.40859 9:0.638991 10:0.119751 11:0.40883 12:0.6924 13:0.112566 14:0.39925 15:0.860291 16:0.132205 17:0.376737 18:1.080872 19:0.128134 20:0.368594 21:1.218826 22:0.131487 23:0.388712 24:1.230322 25:0.168849 26:0.401405 27:1.066981 28:0.219623 29:0.397813 30:1.001837 31:0.224413 32:0.341769 33:1.242297 34:0.170765 35:0.302491 36:1.499282 37:0.140109 38:0.312071 39:1.37522 40:0.144899 41:0.348715 42:0.956092 43:0.233514 44:0.359732 45:0.707249 46:0.313029 47:0.331471 48:0.729523 49:0.272793 50:0.289558 51:0.808559 52:0.138911 53:0.270877 54:0.893103 55:0.039278 56:0.271116 57:0.941722 58:0.001437 59:0.290995 60:0.892863 61:0.006706 62:0.306563 63:0.778381 64:0.047661 65:0.311832 66:0.657433 67:0.033291 68:0.324525 69:0.56762 70:0.011496 71:0.340093 72:0.553729 73:0.020837 74:0.3559 75:0.59133 76:0.025627 77:0.371468 78:0.619831 79:0.036644 80:0.387514 81:0.654559 82:0.060354 83:0.405956 84:0.732876 85:0.018681 86:0.421523 87:0.80305 88:-0.050774 89:0.441402 90:0.863884 91:-0.090771 92:0.458886 93:0.919927 94:-0.076162 95:0.48547 96:0.989622 97:-0.070414 98:0.502954 99:1.06746 100:-0.068258 101:0.52906 102:1.135718 103:-0.109692 104:0.552292 105:1.118714 106:-0.173399 107:0.546783 108:1.150807 109:-0.242376 110:0.499841 111:1.268402 112:-0.311832 113:0.440205 114:1.356779 115:-0.453856 116:0.401645 117:1.255948 118:-0.526425 119:0.382964 120:1.045666 121:-0.465592 122:0.381287 123:0.992257 124:-0.335303 125:0.345601 126:1.080154 127:-0.191841 128:0.294108 129:1.137155 130:-0.076401 131:0.260339 132:1.074406 133:-0.008622 134:0.232556 135:0.980521 136:0.042631 137:0.216989 138:0.883523 139:0.066103 140:0.208846 141:0.751078 142:0.079994 143:0.206451 144:0.660786 145:0.095561 146:0.209564 147:0.580553 148:0.096998 149:0.220581 150:0.506547 
-2.0 -0.6928822918066814 1:0.097956 2:0.247885 3:0.550854 4:0.107297 5:0.279499 6:0.592049 7:0.102746 8:0.316143 9:0.575523 10:0.09125 11:0.35087 12:0.557321 13:0.101309 14:0.398531 15:0.574805 16:0.132205 17:0.425355 18:0.695514 19:0.178908 20:0.43278 21:0.866997 22:0.204056 23:0.44715 24:0.965911 25:0.239023 26:0.457688 27:0.964953 28:0.265608 29:0.442121 30:1.085423 31:0.237346 32:0.417452 33:1.233675 34:0.243094 35:0.425835 36:1.306244 37:0.27902 38:0.382724 39:1.383603 40:0.268721 41:0.313987 42:1.563708 43:0.252196 44:0.284049 45:1.604184 46:0.248124 47:0.309197 48:1.306004 49:0.307521 50:0.310155 51:0.948667 52:0.372426 53:0.293629 54:0.746049 55:0.368354 56:0.244053 57:0.741977 58:0.28836 59:0.197589 60:0.812151 61:0.148491 62:0.179387 63:0.920167 64:0.035686 65:0.178668 66:0.926633 67:-4.79E-4 68:0.195913 69:0.834185 70:0.036883 71:0.225132 72:0.655756 73:0.051732 74:0.257465 75:0.480441 76:0.041913 77:0.28836 78:0.393262 79:0.013412 80:0.325483 81:0.398052 82:-0.016047 83:0.359492 84:0.452898 85:-0.02395 86:0.385119 87:0.549178 88:-0.06251 89:0.4038 90:0.672521 91:-0.104662 92:0.432541 93:0.772873 94:-0.139151 95:0.464155 96:0.887115 97:-0.184896 98:0.491219 99:0.97118 100:-0.225132 101:0.517085 102:1.080633 103:-0.209804 104:0.535047 105:1.16853 106:-0.154239 107:0.547501 108:1.181703 109:-0.154 110:0.565704 111:1.12542 112:-0.193997 113:0.586061 114:1.116079 115:-0.165256 116:0.573607 117:1.335942 118:-0.157113 119:0.483554 120:1.504312 121:-0.173639 122:0.416973 123:1.417373 124:-0.159748 125:0.406195 126:1.182421 127:-0.077359 128:0.392065 129:1.054527 130:0.021795 131:0.349673 132:1.049737 133:0.080233 134:0.300575 135:1.012375 136:0.061552 137:0.249322 138:0.920406 139:0.016286 140:0.207648 141:0.885439 142:-0.02395 143:0.181782 144:0.877535 145:-0.048619 146:0.175076 147:0.848555 148:-0.073767 149:0.181063 150:0.755868 
-2.0 -0.0 1:-0.073048 2:0.193518 3:0.606898 4:-0.045505 5:0.215312 6:0.489302 7:-0.008862 8:0.248603 9:0.458167 10:0.016765 11:0.28836 12:0.463915 13:0.05772 14:0.325004 15:0.504631 16:0.069456 17:0.360211 18:0.537682 19:0.050056 20:0.381287 21:0.635399 22:0.037362 23:0.396615 24:0.834185 25:0.071851 26:0.411225 27:0.983874 28:0.181303 29:0.43278 30:1.042552 31:0.232317 32:0.445234 33:1.042073 34:0.221779 35:0.438289 36:1.118953 37:0.211241 38:0.445713 39:1.281575 40:0.231359 41:0.444995 42:1.275108 43:0.290037 44:0.436133 45:1.209724 46:0.343206 47:0.362366 48:1.316782 49:0.31255 50:0.313508 51:1.35606 52:0.251238 53:0.319017 54:1.171165 55:0.222737 56:0.328597 57:0.928549 58:0.244532 59:0.332908 60:0.786764 61:0.270877 62:0.332668 63:0.763293 64:0.234472 65:0.314466 66:0.740061 67:0.148012 68:0.288839 69:0.774549 70:0.051014 71:0.272074 72:0.840412 73:-0.004072 74:0.272553 75:0.866279 76:-0.006467 77:0.27902 78:0.781255 79:0.011975 80:0.300096 81:0.623184 82:0.036165 83:0.332908 84:0.484512 85:0.08646 86:0.369791 87:0.446671 88:0.09604 89:0.395178 90:0.409069 91:0.067779 92:0.415536 93:0.417212 94:0.050295 95:0.429667 96:0.592528 97:-0.002635 98:0.441163 99:0.790356 100:-0.065145 101:0.454814 102:0.922801 103:-0.11544 104:0.474214 105:0.984114 106:-0.123344 107:0.513492 108:1.020997 109:-0.096998 110:0.542232 111:1.036565 112:-0.092448 113:0.565464 114:1.043989 115:-0.120948 116:0.579834 117:1.078477 118:-0.111608 119:0.579834 120:1.25044 121:-0.114242 122:0.518761 123:1.462399 124:-0.142504 125:0.426074 126:1.561313 127:-0.157353 128:0.391825 129:1.378813 130:-0.160466 131:0.406674 132:1.056922 133:-0.123344 134:0.413141 135:0.922322 136:-0.067779 137:0.381048 138:0.929268 139:-0.001198 140:0.341769 141:0.97118 142:0.02419 143:0.30297 144:0.958008 145:-0.020358 146:0.2692 147:0.9137 148:-0.063468 149:0.25004 150:0.860052 
-2.0 -0.25060312575501265 1:-0.082868 2:0.243334 3:0.776226 4:-0.091969 5:0.238783 6:0.703896 7:-0.082149 8:0.246927 9:0.681383 10:-0.014849 11:0.257465 12:0.680186 13:0.022034 14:0.278541 15:0.6445 16:0.025627 17:0.305125 18:0.571452 19:0.001916 20:0.345601 21:0.522114 22:-0.016765 23:0.383443 24:0.574326 25:-0.02395 26:0.422002 27:0.63947 28:-0.017484 29:0.460083 30:0.683778 31:0.036644 32:0.476609 33:0.728565 34:0.132445 35:0.472298 36:0.814307 37:0.178189 38:0.479004 39:0.950104 40:0.171962 41:0.501278 42:1.130689 43:0.173878 44:0.526904 45:1.197749 46:0.257944 47:0.554926 48:1.175236 49:0.368594 50:0.505349 51:1.237267 52:0.393023 53:0.395657 54:1.42839 55:0.383682 56:0.330992 57:1.563708 58:0.309437 59:0.3365 60:1.339055 61:0.323807 62:0.329555 63:1.058359 64:0.387035 65:0.317819 66:0.906515 67:0.404279 68:0.291234 69:0.837778 70:0.348715 71:0.263213 72:0.792512 73:0.230161 74:0.245969 75:0.775507 76:0.117835 77:0.251956 78:0.765209 79:0.055804 80:0.258183 81:0.688089 82:0.021795 83:0.271595 84:0.573847 85:0.016765 86:0.284528 87:0.446192 88:0.029219 89:0.315185 90:0.412901 91:0.039518 92:0.348954 93:0.468466 94:0.008143 95:0.38009 96:0.510858 97:-0.026345 98:0.415296 99:0.532892 100:-0.040955 101:0.451461 102:0.564985 103:-0.0673 104:0.472298 105:0.659349 106:-0.118553 107:0.487626 108:0.786045 109:-0.156155 110:0.501996 111:0.931902 112:-0.156395 113:0.522354 114:1.058359 115:-0.150407 116:0.54343 117:1.12542 118:-0.143701 119:0.566901 120:1.108176 121:-0.131487 122:0.585582 123:1.112966 124:-0.092927 125:0.58678 126:1.23104 127:-0.097956 128:0.535287 129:1.411864 130:-0.156634 131:0.463197 132:1.50982 133:-0.182021 134:0.441642 135:1.357976 136:-0.150168 137:0.450024 138:1.131407 139:-0.121906 140:0.435415 141:1.042552 142:-0.078796 143:0.38488 144:1.105541 145:-0.023471 146:0.335542 147:1.140029 148:-0.010299 149:0.291953 150:1.052611 
-2.0 -0.0 1:-0.034488 2:0.261297 3:0.955613 4:-0.040955 5:0.240699 6:0.870111 7:-0.049816 8:0.241897 9:0.743654 10:-0.084305 11:0.248843 12:0.571452 13:-0.103465 14:0.253154 15:0.465113 16:-0.080712 17:0.253154 18:0.500559 19:-0.038081 20:0.270398 21:0.584864 22:-0.018202 23:0.301054 24:0.556603 25:0.006227 26:0.3365 27:0.495769 28:0.050295 29:0.370031 30:0.549897 31:0.070174 32:0.402603 33:0.698867 34:0.050774 35:0.422721 36:0.80305 37:0.058199 38:0.428709 39:0.853825 40:0.135798 41:0.426553 42:0.912982 43:0.147533 44:0.442121 45:0.955373 46:0.097238 47:0.464634 48:1.057401 49:0.112566 50:0.477327 51:1.045187 52:0.221779 53:0.483315 54:1.036804 55:0.241657 56:0.406674 57:1.334505 58:0.135798 59:0.327639 60:1.656156 61:0.107776 62:0.336021 63:1.664778 64:0.216749 65:0.380329 66:1.251637 67:0.366917 68:0.38464 69:0.878972 70:0.419847 71:0.385598 72:0.721859 73:0.391825 74:0.366677 75:0.767364 76:0.26944 77:0.333866 78:0.821492 79:0.131247 80:0.317101 81:0.831311 82:0.070414 83:0.312311 84:0.739582 85:0.07209 86:0.330034 87:0.615281 88:0.098435 89:0.344883 90:0.547501 91:0.109213 92:0.351589 93:0.560435 94:0.100351 95:0.372665 96:0.564506 97:0.039997 98:0.388472 99:0.501278 100:0.001437 101:0.411704 102:0.498404 103:-0.021076 104:0.431822 105:0.596839 106:-0.04814 107:0.448827 108:0.741019 109:-0.074246 110:0.458167 111:0.83179 112:-0.097956 113:0.47134 114:0.855501 115:-0.149449 116:0.496248 117:0.833227 118:-0.181303 119:0.522593 120:0.941003 121:-0.169328 122:0.531215 123:1.087099 124:-0.167891 125:0.547022 126:1.092129 127:-0.166693 128:0.574326 129:0.984114 130:-0.105141 131:0.593246 132:1.094524 133:-0.10586 134:0.52427 135:1.357258 136:-0.207409 137:0.444995 138:1.464794 139:-0.231598 140:0.43781 141:1.30792 142:-0.173399 143:0.453856 144:1.092847 145:-0.135798 146:0.43302 147:0.996568 148:-0.121667 149:0.385598 150:1.011656 
-2.0 -0.30624352686679995 1:-0.082149 2:0.346799 3:0.993454 4:-0.057959 5:0.314227 6:0.893103 7:-0.075683 8:0.294348 9:0.797063 10:-0.110889 11:0.277822 12:0.742217 13:-0.138432 14:0.263692 15:0.702938 16:-0.143462 17:0.254351 18:0.637075 19:-0.108494 20:0.256746 21:0.604503 22:-0.078078 23:0.266805 24:0.588935 25:-0.080712 26:0.287163 27:0.551094 28:-0.057001 29:0.323567 30:0.529299 31:-0.013891 32:0.366677 33:0.547022 34:-0.002874 35:0.405237 36:0.621268 37:0.0 38:0.434217 39:0.715871 40:0.029698 41:0.450264 42:0.877775 43:0.108734 44:0.443797 45:1.044229 46:0.19256 47:0.464873 48:1.102667 49:0.241657 50:0.494811 51:1.123264 52:0.285007 53:0.511337 54:1.124701 55:0.339614 56:0.511337 57:1.108894 58:0.350391 59:0.454335 60:1.29355 61:0.270637 62:0.3559 63:1.66861 64:0.227766 65:0.30273 66:1.839375 67:0.290755 68:0.315664 69:1.406595 70:0.415296 71:0.335782 72:0.901964 73:0.507265 74:0.343206 75:0.638273 76:0.480441 77:0.310874 78:0.579355 79:0.320454 80:0.280457 81:0.644021 82:0.127176 83:0.266805 84:0.71635 85:0.020118 86:0.267045 87:0.718266 88:-0.007664 89:0.283091 90:0.646655 91:0.044787 92:0.306084 93:0.541035 94:0.089813 95:0.324286 96:0.512774 97:0.047421 98:0.337458 99:0.502475 100:0.001198 101:0.357576 102:0.561153 103:-0.024429 104:0.388712 105:0.650248 106:-0.0673 107:0.412662 108:0.697669 109:-0.068498 110:0.434457 111:0.689526 112:-0.016765 113:0.464394 114:0.71659 115:-0.038081 116:0.478285 117:0.748444 118:-0.124781 119:0.483315 120:0.84616 121:-0.15879 122:0.502715 123:0.988904 124:-0.167651 125:0.530736 126:1.072729 127:-0.189686 128:0.580553 129:1.041594 130:-0.228724 131:0.648332 132:0.943398 133:-0.235191 134:0.68306 135:1.035606 136:-0.202379 137:0.599234 138:1.352947 139:-0.205732 140:0.464873 141:1.586701 142:-0.255549 143:0.388712 144:1.521795 145:-0.259381 146:0.382964 147:1.3175 148:-0.21148 149:0.36548 150:1.17835 
-2.0 -0.3411676794410056 1:-0.189925 2:0.333147 3:1.057162 4:-0.153521 5:0.296024 6:0.928789 7:-0.090532 8:0.264889 9:0.847358 10:-0.070174 11:0.252675 12:0.748444 13:-0.119751 14:0.244292 15:0.662941 16:-0.155676 17:0.233754 18:0.633483 19:-0.145857 20:0.227527 21:0.603305 22:-0.105141 23:0.234233 24:0.533371 25:-0.084065 26:0.254591 27:0.463915 28:-0.10586 29:0.279738 30:0.479962 31:-0.14418 32:0.29794 33:0.617436 34:-0.172681 35:0.316143 36:0.659349 37:-0.118074 38:0.362127 39:0.629411 40:-0.012454 41:0.425355 42:0.685215 43:0.052211 44:0.461281 45:0.839694 46:0.12502 47:0.46655 48:0.965672 49:0.153042 50:0.493374 51:1.051653 52:0.146575 53:0.523072 54:1.125659 55:0.168849 56:0.554447 57:1.10123 58:0.266566 59:0.587738 60:1.111768 61:0.31279 62:0.510858 63:1.307441 64:0.274469 65:0.393023 66:1.656875 67:0.203577 68:0.344643 69:1.805366 70:0.210283 71:0.380569 72:1.400847 73:0.321172 74:0.37985 75:0.909149 76:0.385119 77:0.360929 78:0.642584 79:0.353026 80:0.334345 81:0.631567 82:0.225371 83:0.296503 84:0.695993 85:0.069456 86:0.27878 87:0.757305 88:-0.055804 89:0.268242 90:0.72114 91:-0.082628 92:0.277583 93:0.642105 94:-0.042631 95:0.288839 96:0.548459 97:-0.028022 98:0.306323 99:0.470382 100:-0.05772 101:0.333626 102:0.500799 103:-0.098914 104:0.356139 105:0.570733 106:-0.097238 107:0.38464 108:0.610251 109:-0.073527 110:0.420086 111:0.653601 112:-0.057001 113:0.445953 114:0.680665 115:-0.065863 116:0.479243 117:0.656235 118:-0.10586 119:0.510139 120:0.684018 121:-0.174118 122:0.520917 123:0.820055 124:-0.209804 125:0.538879 126:0.960163 127:-0.19711 128:0.56738 129:1.039918 130:-0.188249 131:0.600192 132:1.049737 133:-0.204056 134:0.613604 135:1.065544 136:-0.196871 137:0.599473 138:1.248524 139:-0.190165 140:0.520917 141:1.551254 142:-0.211241 143:0.43278 144:1.666934 145:-0.226808 146:0.420086 147:1.361329 148:-0.171244 149:0.455533 150:1.043989 
-2.0 -0.0 1:-0.104902 2:0.446432 3:0.943638 4:-0.031854 5:0.398531 6:0.941722 7:0.027303 8:0.35111 9:0.917292 10:-0.002156 11:0.313269 12:0.850471 13:-0.0479 14:0.282133 15:0.796584 16:-0.074725 17:0.262973 18:0.741019 19:-0.091729 20:0.253872 21:0.654798 22:-0.097477 23:0.249082 24:0.596839 25:-0.079036 26:0.250519 27:0.568099 28:-0.0673 29:0.267045 30:0.544388 31:-0.05748 32:0.290995 33:0.528102 34:-0.060354 35:0.328597 36:0.546544 37:-0.07209 38:0.371947 39:0.595402 40:-0.06754 41:0.403561 42:0.660307 43:-0.034728 44:0.423439 45:0.746767 46:0.018202 47:0.430864 48:0.87059 49:0.094124 50:0.437331 51:0.984353 52:0.202619 53:0.453617 54:1.033212 55:0.239502 56:0.4905 57:1.066981 58:0.231838 59:0.515648 60:1.194157 61:0.271356 62:0.521156 63:1.348875 64:0.416973 65:0.511097 66:1.30792 67:0.555166 68:0.456251 69:1.284928 70:0.580792 71:0.391825 72:1.33187 73:0.515169 74:0.353505 75:1.237028 76:0.464873 77:0.324765 78:1.025547 79:0.433259 80:0.316382 81:0.776944 82:0.407393 83:0.32213 84:0.59636 85:0.361648 86:0.311353 87:0.549178 88:0.255788 89:0.290037 90:0.679707 91:0.149689 92:0.278301 93:0.766885 94:0.07233 95:0.270398 96:0.687131 97:0.054367 98:0.277583 99:0.593486 100:0.073288 101:0.304407 102:0.550376 103:0.059636 104:0.342009 105:0.499362 106:0.021795 107:0.368115 108:0.477567 109:-0.005748 110:0.39901 111:0.519001 112:0.011975 113:0.432541 114:0.602108 115:0.032572 116:0.460083 117:0.717787 118:-0.035686 119:0.474693 120:0.790596 121:-0.103225 122:0.489782 123:0.814067 124:-0.118314 125:0.521156 126:0.887355 127:-0.14418 128:0.55301 129:1.015488 130:-0.207888 131:0.590612 132:1.07225 133:-0.24525 134:0.632525 135:1.004471 136:-0.176992 137:0.66845 138:1.016925 139:-0.061313 140:0.633004 141:1.262654 142:-0.0673 143:0.506786 144:1.540716 145:-0.174357 146:0.444037 147:1.555565 148:-0.239023 149:0.464634 150:1.266965 
-2.0 -0.44103695101690715 1:-0.191123 2:0.494332 3:1.096919 4:-0.16334 5:0.464634 6:1.122785 7:-0.115679 8:0.407872 9:1.133563 10:-0.102028 11:0.372186 12:1.052851 13:-0.078557 14:0.339614 15:0.969025 16:-0.065863 17:0.308239 18:0.913221 19:-0.097956 20:0.277583 21:0.791315 22:-0.10562 23:0.253633 24:0.641865 25:-0.064187 26:0.245969 27:0.516127 28:-0.012454 29:0.252914 30:0.496009 31:-0.006706 32:0.260339 33:0.514211 34:-0.040955 35:0.268721 36:0.56762 37:-0.025387 38:0.285486 39:0.621029 40:0.035446 41:0.313748 42:0.630369 43:0.063947 44:0.353744 45:0.601868 46:0.099393 47:0.376018 48:0.673719 49:0.167172 50:0.388951 51:0.815265 52:0.252675 53:0.406914 54:0.914179 55:0.358055 56:0.443318 57:1.055246 58:0.411943 59:0.478525 60:1.157753 61:0.407393 62:0.50511 63:1.046624 64:0.50487 65:0.519001 66:1.081591 67:0.524988 68:0.432301 69:1.345522 70:0.444276 71:0.344404 72:1.596999 73:0.400447 74:0.313987 75:1.594365 76:0.416973 77:0.311113 78:1.234633 79:0.498883 80:0.306084 81:0.938848 82:0.511097 83:0.31734 84:0.79323 85:0.406674 86:0.299617 87:0.734313 88:0.231598 89:0.276385 90:0.7791 91:0.093645 92:0.270398 93:0.789398 94:0.026824 95:0.277343 96:0.750599 97:0.017484 98:0.290037 99:0.662941 100:0.053409 101:0.31255 102:0.547262 103:0.036404 104:0.338416 105:0.48092 106:-0.013891 107:0.362606 108:0.467029 109:-0.032333 110:0.396376 111:0.515648 112:-0.024908 113:0.42296 114:0.587019 115:-0.002156 116:0.445474 117:0.655517 118:0.024908 119:0.461041 120:0.761377 121:-0.009341 122:0.475172 123:0.82245 124:-0.101788 125:0.485949 126:0.84137 127:-0.150886 128:0.505349 129:0.92807 130:-0.178668 131:0.52427 132:1.009261 133:-0.174836 134:0.534329 135:1.027942 136:-0.19256 137:0.570494 138:0.972617 139:-0.2019 140:0.609293 141:0.88496 142:-0.108494 143:0.621508 144:1.175236 145:-0.072809 146:0.50966 147:1.520358 148:-0.147054 149:0.421763 150:1.592688 
-2.0 -0.0 1:-0.211959 2:0.420805 3:1.333068 4:-0.150647 5:0.442839 6:1.132126 7:-0.099154 8:0.426553 9:1.044229 10:-0.03856 11:0.392304 12:0.990341 13:0.027064 14:0.36045 15:0.944117 16:0.049577 17:0.32237 18:0.897174 19:0.030896 20:0.294348 21:0.845681 22:-0.021316 23:0.27399 24:0.771675 25:-0.041434 26:0.260339 27:0.693837 28:-0.029459 29:0.253872 30:0.622945 31:0.003593 32:0.255549 33:0.517564 34:0.054606 35:0.276864 36:0.46631 37:0.046703 38:0.301772 39:0.513492 40:0.012454 41:0.323807 42:0.582708 43:0.042152 44:0.350152 45:0.621029 46:0.081191 47:0.375779 48:0.701501 49:0.095561 50:0.396136 51:0.805206 52:0.113524 53:0.4038 54:0.884481 55:0.189207 56:0.415296 57:0.948907 58:0.267763 59:0.435415 60:1.001118 61:0.29794 62:0.460802 63:1.047821 64:0.300096 65:0.482836 66:1.040157 67:0.327639 68:0.507984 69:0.991538 70:0.392304 71:0.468466 72:1.171404 73:0.335542 74:0.383203 75:1.376178 76:0.305605 77:0.343206 78:1.434377 79:0.342967 80:0.345122 81:1.19751 82:0.4038 83:0.37051 84:0.845202 85:0.51948 86:0.377455 87:0.738624 88:0.535526 89:0.376976 90:0.732876 91:0.395897 92:0.344404 93:0.798739 94:0.226808 95:0.307281 96:0.901725 97:0.126218 98:0.287402 99:0.858136 100:0.099633 101:0.292671 102:0.72593 103:0.136516 104:0.296743 105:0.577918 106:0.167172 107:0.31255 108:0.457688 109:0.150647 110:0.342009 111:0.450503 112:0.121428 113:0.37027 114:0.568338 115:0.125739 116:0.390628 117:0.679228 118:0.130529 119:0.414578 120:0.68785 121:0.11999 122:0.444037 123:0.648571 124:0.095801 125:0.476848 126:0.671803 127:0.037602 128:0.501517 129:0.817181 130:-0.04814 131:0.523791 132:0.95681 133:-0.090771 134:0.565464 135:1.033451 136:-0.066582 137:0.589893 138:1.037523 139:-0.056043 140:0.616478 141:0.996807 142:-0.064905 143:0.639231 144:0.920646 145:-0.023471 146:0.663899 147:1.039918 148:0.018442 149:0.593486 150:1.390548 
